<?xml version="1.0"?>
<opencv_storage>
<opencv_ml_ann_mlp>
  <format>3</format>
  <layer_sizes>
    108 62 31</layer_sizes>
  <activation_function>SIGMOID_SYM</activation_function>
  <f_param1>1.</f_param1>
  <f_param2>1.</f_param2>
  <min_val>-9.4999999999999996e-01</min_val>
  <max_val>9.4999999999999996e-01</max_val>
  <min_val1>-9.7999999999999998e-01</min_val1>
  <max_val1>9.7999999999999998e-01</max_val1>
  <training_params>
    <train_method>BACKPROP</train_method>
    <dw_scale>1.0000000000000001e-01</dw_scale>
    <moment_scale>1.0000000000000001e-01</moment_scale>
    <term_criteria>
      <iterations>30000</iterations></term_criteria></training_params>
  <input_scale>
    1.1777843282609291e+01 -2.7522417989874661e+00
    9.7322472989800151e+00 -1.5478208576278714e+00
    1.2131290145224748e+01 -2.8003035776041529e+00
    1.2153864585724802e+01 -3.1295081343316209e+00
    8.7434557972600597e+00 -1.4178508943731312e+00
    1.3243227099697002e+01 -3.4865541828716191e+00
    1.7984701070407354e+01 -5.9207932486597938e+00
    1.3772871601740533e+01 -4.3302369593868395e+00
    1.5102680388938946e+01 -4.8450877891256177e+00
    2.1476293155557414e+01 -7.2355249607632013e+00
    1.1461399349885861e+01 -3.4864384188885320e+00
    1.8124741061810091e+01 -6.0000456088951930e+00
    1.1558873371162177e+01 -2.7468515268483915e+00
    9.1251227657604481e+00 -1.2334107944797699e+00
    1.1238401010299729e+01 -2.7271895693531016e+00
    1.2828745248758121e+01 -3.5941872642122399e+00
    9.4547263583322625e+00 -1.1918742341884314e+00
    1.2274355174697998e+01 -3.1831956486343596e+00
    1.9218934171352533e+01 -6.4933397540303091e+00
    1.0129907998424855e+01 -2.8845784049298073e+00
    1.7298838810526362e+01 -5.7847818258661290e+00
    2.0591465997084594e+01 -7.0128732290185178e+00
    9.7668778107904632e+00 -2.7582878412335936e+00
    2.0910064081038289e+01 -7.1279514768135970e+00
    1.2625829366255886e+01 -3.4419250764273803e+00
    1.0469595646608783e+01 -1.0213239861658436e+00
    1.2071219634090479e+01 -3.0833700336503513e+00
    1.1233679026514125e+01 -3.1150515716041416e+00
    1.0414404347996097e+01 -1.2829049775754835e+00
    1.2428690553696953e+01 -3.3574014539238819e+00
    1.9180637722542297e+01 -6.5836382512424123e+00
    9.3846759052192343e+00 -2.2496073367904357e+00
    1.9060534092418305e+01 -6.5274343852055381e+00
    1.8885479834103290e+01 -6.4749753073763863e+00
    1.1310934520199147e+01 -3.1646460939822756e+00
    1.9832076521564282e+01 -6.8161885986354296e+00
    1.5901934797937496e+01 -4.4033083646489111e+00
    1.3618476727130188e+01 -3.8386724939792400e+00
    1.4071007019902620e+01 -3.7118796663795055e+00
    1.7981873950492350e+01 -5.1431852062007222e+00
    1.2046598066367052e+01 -3.3474195820761503e+00
    1.6821306862554803e+01 -4.7111878190086882e+00
    1.5094010469420873e+01 -4.1289684603000092e+00
    1.3792170419749176e+01 -3.9480792972007039e+00
    1.8158234846089620e+01 -5.1861449331410254e+00
    1.7481973271483806e+01 -4.9400142071107602e+00
    1.1266343567484274e+01 -3.0648684366906989e+00
    2.0647168620439867e+01 -6.1029427736546964e+00
    1.5137431951265327e+01 -4.1779188352405443e+00
    1.1020823370763720e+01 -2.9003035857159420e+00
    1.4545400151182831e+01 -4.0240570985259740e+00
    1.6993792328178966e+01 -4.9220840091153528e+00
    1.0704310401844157e+01 -2.8080583041876990e+00
    1.7154300609961847e+01 -4.9596017856777967e+00
    1.5690311708611144e+01 -4.4177477845283581e+00
    1.0518014296393611e+01 -2.7523694866388042e+00
    1.7631008406255297e+01 -5.0650840266447537e+00
    2.1490180125682890e+01 -6.4304465251070058e+00
    1.0226427781664819e+01 -2.6601534780452036e+00
    1.9899133353056019e+01 -5.8886524369378916e+00
    1.5021705723907859e+01 -4.3783411759662769e+00
    9.8870585965722046e+00 -2.1053903198298509e+00
    1.5422180090718470e+01 -4.4618849679654007e+00
    2.0108389842321817e+01 -6.1059906844453202e+00
    1.1163808532910465e+01 -2.7711876472523742e+00
    1.8973488818556167e+01 -5.6698303032420343e+00
    1.7686987770576934e+01 -5.2698236207622662e+00
    9.5473028530913222e+00 -2.0806881253378862e+00
    1.7722241532845924e+01 -5.2484857568584742e+00
    2.5603551197542384e+01 -7.9840634870026408e+00
    1.0385872966230103e+01 -2.5871927866264071e+00
    2.3971771781446151e+01 -7.3626996453802622e+00
    1.3638961482614041e+01 -4.4587396757710662e+00
    1.1113025526029846e+01 -3.3317591225371972e+00
    1.7021195711542735e+01 -5.8317679022298909e+00
    1.7614963558968778e+01 -6.0572155437497699e+00
    9.1469734436155168e+00 -2.5230082763111610e+00
    1.8198917973917464e+01 -6.2645245963679645e+00
    1.0173093311863333e+01 -2.2698133679482360e+00
    9.7284754386691876e+00 -1.2166284949471380e+00
    1.0921119756639015e+01 -2.6600407292256802e+00
    1.0758252022672352e+01 -2.8275716799389703e+00
    9.2797948252576443e+00 -1.0734049142992639e+00
    9.5695367617998812e+00 -2.4841579437984160e+00
    1.5273570761851584e+01 -5.1863651642593691e+00
    8.5491357515981790e+00 -2.1484568329070246e+00
    1.5529312228926464e+01 -5.3857695937640280e+00
    1.8839796498090802e+01 -6.6582630216363370e+00
    8.1538942799451224e+00 -2.1656946122074685e+00
    1.6740193680039816e+01 -5.8388302745250069e+00
    9.5272465475555776e+00 -2.3400423317673598e+00
    9.7458158802107686e+00 -9.5728113426603190e-01
    1.0139310036004199e+01 -2.4434425016209920e+00
    1.0929134234009638e+01 -2.8494677593127444e+00
    9.3414425960002596e+00 -1.0632401252981654e+00
    1.0378355687130369e+01 -2.6994944000257051e+00
    1.5989988215836226e+01 -5.6633227921552516e+00
    7.5893586531782304e+00 -1.8410822184751858e+00
    1.5905296303554046e+01 -5.5868693175073370e+00
    1.6331697005746250e+01 -5.6820172521285732e+00
    9.1380945742854589e+00 -2.4093256118661275e+00
    1.4351964109918304e+01 -4.8787088277946733e+00
    9.9797232224884684e+00 -2.5096602476141912e+00
    8.6605850410862892e+00 -9.7735105851193027e-01
    1.0385579226335482e+01 -2.5565713171133715e+00
    9.2624480065199180e+00 -2.2348711516626834e+00
    9.1002626197435390e+00 -1.0775681308487444e+00
    8.6069424697027497e+00 -2.0744420951806930e+00</input_scale>
  <output_scale>
    5.2631578947368418e-01 4.9999999999999994e-01 5.2631578947368418e-01
    4.9999999999999994e-01 5.2631578947368418e-01 4.9999999999999994e-01
    5.2631578947368418e-01 4.9999999999999994e-01 5.2631578947368418e-01
    4.9999999999999994e-01 5.2631578947368418e-01 4.9999999999999994e-01
    5.2631578947368418e-01 4.9999999999999994e-01 5.2631578947368418e-01
    4.9999999999999994e-01 5.2631578947368418e-01 4.9999999999999994e-01
    5.2631578947368418e-01 4.9999999999999994e-01 5.2631578947368418e-01
    4.9999999999999994e-01 5.2631578947368418e-01 4.9999999999999994e-01
    5.2631578947368418e-01 4.9999999999999994e-01 5.2631578947368418e-01
    4.9999999999999994e-01 5.2631578947368418e-01 4.9999999999999994e-01
    5.2631578947368418e-01 4.9999999999999994e-01 5.2631578947368418e-01
    4.9999999999999994e-01 5.2631578947368418e-01 4.9999999999999994e-01
    5.2631578947368418e-01 4.9999999999999994e-01 5.2631578947368418e-01
    4.9999999999999994e-01 5.2631578947368418e-01 4.9999999999999994e-01
    5.2631578947368418e-01 4.9999999999999994e-01 5.2631578947368418e-01
    4.9999999999999994e-01 5.2631578947368418e-01 4.9999999999999994e-01
    5.2631578947368418e-01 4.9999999999999994e-01 5.2631578947368418e-01
    4.9999999999999994e-01 5.2631578947368418e-01 4.9999999999999994e-01
    5.2631578947368418e-01 4.9999999999999994e-01 5.2631578947368418e-01
    4.9999999999999994e-01 5.2631578947368418e-01 4.9999999999999994e-01
    5.2631578947368418e-01 4.9999999999999994e-01</output_scale>
  <inv_output_scale>
    1.8999999999999999e+00 -9.4999999999999996e-01
    1.8999999999999999e+00 -9.4999999999999996e-01
    1.8999999999999999e+00 -9.4999999999999996e-01
    1.8999999999999999e+00 -9.4999999999999996e-01
    1.8999999999999999e+00 -9.4999999999999996e-01
    1.8999999999999999e+00 -9.4999999999999996e-01
    1.8999999999999999e+00 -9.4999999999999996e-01
    1.8999999999999999e+00 -9.4999999999999996e-01
    1.8999999999999999e+00 -9.4999999999999996e-01
    1.8999999999999999e+00 -9.4999999999999996e-01
    1.8999999999999999e+00 -9.4999999999999996e-01
    1.8999999999999999e+00 -9.4999999999999996e-01
    1.8999999999999999e+00 -9.4999999999999996e-01
    1.8999999999999999e+00 -9.4999999999999996e-01
    1.8999999999999999e+00 -9.4999999999999996e-01
    1.8999999999999999e+00 -9.4999999999999996e-01
    1.8999999999999999e+00 -9.4999999999999996e-01
    1.8999999999999999e+00 -9.4999999999999996e-01
    1.8999999999999999e+00 -9.4999999999999996e-01
    1.8999999999999999e+00 -9.4999999999999996e-01
    1.8999999999999999e+00 -9.4999999999999996e-01
    1.8999999999999999e+00 -9.4999999999999996e-01
    1.8999999999999999e+00 -9.4999999999999996e-01
    1.8999999999999999e+00 -9.4999999999999996e-01
    1.8999999999999999e+00 -9.4999999999999996e-01
    1.8999999999999999e+00 -9.4999999999999996e-01
    1.8999999999999999e+00 -9.4999999999999996e-01
    1.8999999999999999e+00 -9.4999999999999996e-01
    1.8999999999999999e+00 -9.4999999999999996e-01
    1.8999999999999999e+00 -9.4999999999999996e-01
    1.8999999999999999e+00 -9.4999999999999996e-01</inv_output_scale>
  <weights>
    <_>
      -3.6236089945114909e-02 -1.1209418553558077e+00
      1.2071181671339668e+00 1.4258234623295061e-02
      -8.3413477952194581e-01 2.1662598705204864e-01
      5.0659815551118381e-01 -1.1978269539661992e+00
      -2.4376543574324616e+00 2.0610390187512895e+00
      -9.8749651912665304e-01 2.1815413091134845e-02
      -4.5811000616681014e-01 -2.9447861998762866e-02
      1.2903642329718636e+00 -8.2508606933839224e-01
      -1.4074659668956765e-01 4.3899717763908519e-01
      -2.6190710368345832e-01 3.0640459046354046e-01
      -2.8997386112523521e-01 2.2828429930254540e-01
      5.1375182169973621e-01 -9.4732627113620016e-01
      5.0672900556982325e-01 1.3096248203994942e+00
      3.4108926508648441e-01 1.5982390921146643e+00
      3.3862340634246535e-01 -1.3152057261993926e+00
      3.8980964649958716e-01 -1.0468101814019937e+00
      -5.1213562235970511e-01 1.2298750504382989e+00
      8.2971950759454671e-01 -1.0964453091442430e+00
      -1.5509960474054727e+00 1.4583074816018691e+00
      8.1639637874980964e-01 -7.4438703908423354e-01
      -4.5227715753821318e-01 4.8030791183824306e-01
      1.5803390343281747e+00 1.1528989976924910e+00
      -4.2741234180026388e-01 6.6664518086813807e-01
      -5.1388237550249638e-01 -9.1267813246616825e-01
      -1.9351119025191563e-01 4.7586836853308923e-01
      -7.6366682812732634e-01 6.2593631517080550e-01
      -1.4012186294516138e+00 4.9193832240130475e-01
      -1.2079963790674439e+00 -5.2962977771918929e-01
      4.2127573809409824e-01 -9.6439073290676330e-02
      1.4239604578830021e+00 -1.5222242626266128e-01
      1.4243310506331570e+00 4.4390537245058109e-01
      7.1414648705744954e-01 1.8277890634282068e+00
      2.4000247926539764e-01 6.0583692824747659e-01
      -9.1746932009629745e-01 3.4930208110562544e-01
      1.7327335995630155e+00 -3.6658186415902537e-02
      -3.2875773455954022e-02 -2.9795393124613573e-01
      -6.8114225889013702e-01 -4.3563202289314359e-02
      7.7998987538977715e-01 6.6257727737493124e-02
      -1.6829699234691515e+00 -6.7212352062734437e-01
      4.1053240051628033e-02 5.0958400427278860e-01
      -4.3952174680153189e-01 1.2981425049615128e-02
      -8.0018088653279007e-01 -1.1288143088986107e+00
      -9.2126235720902658e-02 1.1314070507351679e+00
      8.9308195180948635e-01 -8.9685580151823097e-01
      7.9338652811197785e-01 -1.7041311875948277e+00
      1.6804737202859679e+00 1.1753329419732008e+00
      -6.0456098230674116e-01 -2.6133777768037686e-01
      8.6954602968798667e-01 2.3333503952315260e-01
      9.0348808983565321e-01 5.5255516316151565e-01
      7.0529692878588091e-01 4.5443227085521826e-01
      1.8751910481908893e-01 1.7319562212506592e+00
      1.0174541719419328e+00 -2.7145498037108490e-01
      -1.3662902796570160e+00 -2.2370639105375498e+00
      2.0758514247776341e-01 -5.9081241539367069e-01
      -2.6994341794469351e-01 5.1884107929475870e-02
      7.2273114445032671e-01 7.5033197233661675e-01
      6.2214174487795232e-02 -1.4269132932663882e+00
      3.7973563956965445e-01 -1.1518969970399970e+00
      -2.4967545615968315e-01 -3.4023172918649125e-01
      1.6087068817776753e-01 2.3545801258918120e-01
      -3.1355564106490635e-01 -9.2824592110444348e-01
      -6.1190730124193005e-01 1.0873327137353563e-01
      -4.1233455500815952e-01 -7.0840178872816573e-01
      8.9004684405695575e-02 -2.9242302666860559e-01
      -1.2609499914992770e+00 7.6027863791648220e-01
      -7.4175010775968464e-01 -4.9226692934042621e-01
      1.7006649737679926e+00 -7.7961879694955738e-01
      -4.3765330938917840e-01 -1.9142360817838658e-01
      -3.8378897091962288e-01 1.9422765152501179e-01
      1.0784277840834169e-01 -2.7675992153366101e-02
      1.7461642178474307e-01 -5.8739792985109829e-01
      -1.5091415299089039e-01 -1.2375037834365421e+00
      -4.6758682372141103e-01 5.4283182184118273e-01
      -6.5910145017605171e-02 1.9879298940781823e-01
      -2.9181073945441466e-01 -7.8625364742472004e-01
      -2.2377913958028314e-01 -6.3806956899289990e-01
      1.9522675284160680e+00 -1.1730376996063692e+00
      5.5056568617788237e-01 2.8158645607632510e-01
      6.9990442583299312e-02 -5.4297365977812062e-01
      3.2280805326270001e-01 -5.1728189756197462e-01
      6.8531477252004058e-01 -7.6697581071005316e-01
      7.1614622981794399e-02 1.2013530921571296e+00
      6.8345229229462334e-01 -8.7690436183694809e-01
      -8.2281716513435510e-01 -1.2530873464151602e+00
      3.2400394882640776e-01 7.8053013385543157e-02
      -6.9101441377243361e-02 7.4153135374472889e-01
      -9.4438249622592174e-02 2.6871224096439378e-01
      1.4009482188870312e+00 3.7567163771091661e-01
      -8.6463017983826940e-01 4.2073116999159238e-01
      2.2749917575099377e-01 5.0923344405927294e-03
      5.4016540224612219e-01 -6.1701714837238697e-01
      -4.8119781361821612e-01 -5.6123516403120732e-01
      -3.7504851864204941e-01 -3.0532661671889860e-01
      4.7280533653070278e-02 -1.1419041699683317e+00
      7.6440076617596120e-01 -2.3591334687503784e-01
      -2.7002816315797157e-01 -1.9221254007015326e-01
      -8.4749317621205122e-01 1.2640549221297761e+00
      1.0523404537799737e+00 5.3253076848179570e-01
      1.9367155913549705e-01 -3.2456884072967662e-01
      -2.6591702415808377e-01 -1.4474818717147667e-01
      -1.1213693399480202e+00 6.0109263050442263e-01
      6.6125987127229613e-02 9.4700839698069250e-01
      -2.7597926477993967e-01 -1.1311955289108759e+00
      7.6386961453509394e-01 3.9218734932812926e-01
      -3.5530662406445257e-02 2.9889408080032265e-01
      7.6132602189413423e-02 9.1791785020938688e-01
      6.2736147332960912e-01 -6.8821959069059002e-01
      8.3718899109856290e-02 -6.8462025710126828e-01
      -1.1956955271080369e+00 7.8821218706821849e-01
      -3.7028165403743535e-01 4.5486166157380481e-01
      2.2852436652119129e-01 -8.8650636547218598e-01
      1.1040740967781844e+00 -7.5932980481356083e-01
      -4.5228373261900195e-01 8.8764378195973059e-01
      8.9107092529805143e-01 2.0688138963087846e-01
      -1.2459755728657440e-01 -8.2606951208018420e-01
      1.6457071250389968e-01 2.0153684655201684e-01
      -5.2513816361355985e-02 3.5253409750579651e-01
      3.2298057225418793e-02 -2.1031210789062402e-01
      8.5011991705281531e-01 8.0898560234505767e-01
      1.3255590383682716e+00 2.2456408586293768e+00
      -4.0792040782395195e-01 9.6402884633703070e-02
      1.7891622192522598e+00 -2.0737511548166471e-01
      1.6732312475196126e-01 -1.2738140268203408e+00
      -9.3972386996038049e-01 3.9281804877760057e-01
      1.1075743169512561e-01 -2.0296216629947370e-01
      3.4615174096716861e-01 -1.5699179865572002e-01
      8.3873213297273097e-01 8.9961613624716597e-01
      -8.2862268685739682e-01 -4.4094256852290892e-01
      7.5718916905925315e-01 -1.9247190958879010e-01
      -1.5824625068674305e+00 -2.2326867391611448e-02
      -1.5565967137505288e+00 -2.1796815875041120e+00
      3.0534634077175948e-01 -4.4509050895842550e-01
      5.6972844962707514e-01 9.3192494675643486e-02
      -4.5017016443040342e-01 -9.4930573049986866e-02
      -9.3421763634586918e-01 1.2298037315769814e+00
      1.3126649451983947e+00 6.4609958411053325e-01
      -3.2739644818045394e-02 2.4518446901538188e-01
      -7.4582594764821886e-01 2.1555166621462876e+00
      5.8415999314675102e-02 -1.7719737074488375e+00
      1.8187854160335042e+00 -5.7826054668296589e-01
      3.9196144887915818e-01 8.2535932641782805e-01
      -9.6638833277207148e-01 1.4286203480037560e+00
      -9.2074828469649084e-01 -3.2894878482305545e-01
      -5.3176437672165877e-01 7.4019825981084930e-01
      4.2762564472541958e-01 -6.6915252152844729e-01
      8.2612735261916959e-01 -8.1931137339354643e-01
      -4.0355735426746073e-02 3.0021078131505824e-01
      -6.3456223337456236e-02 1.1173783813577602e+00
      1.1373440314009389e-01 5.9905128454665635e-01
      5.0444710105188195e-01 5.9638020517284396e-01
      6.2678079265294318e-01 -2.7195813629581395e-01
      -7.6405748123607398e-01 -7.2434800367777052e-01
      9.5234630999993786e-01 -8.5242191464781825e-01
      -1.1285910610808478e+00 -4.3761563277721854e-01
      -8.5647908572593245e-01 -8.0854325649216019e-02
      1.6029800620767507e+00 -5.8349904388498153e-01
      2.4623062429841133e-02 1.0461701631388920e+00
      5.7667095710905425e-01 1.7991089908676148e+00
      -3.2354181550853178e-01 1.8467636471083254e-01
      -3.2829295852265700e-01 -1.9870056674240122e-01
      1.3054414277769968e+00 -7.6004115738889066e-01
      -1.7918249182320340e-02 -9.2170938812578040e-01
      4.4641071165412338e-01 4.4296413074025133e-02
      -8.3020625735787634e-01 6.0885873758592279e-01
      6.3554602407692090e-02 5.0133732043314927e-01
      2.0377130252548294e+00 1.6234423054317534e-01
      9.0233807431876778e-01 -1.0180503914032073e-01
      1.6702866917206100e-01 -6.3338734845301781e-01
      7.8885914524466094e-01 5.3458127704442027e-01
      4.9848129390051044e-01 -2.0545837181464179e+00
      -1.1211711867853960e+00 -1.5504732112050166e+00
      3.1628552017162292e-01 -3.8298829691948699e-01
      -4.3598512149995378e-01 1.1414538714067655e+00
      3.7124261846982481e-01 -3.1007735905952566e-01
      -3.7227880463437579e-01 9.1730610069813256e-01
      -1.6657370956393783e-01 8.9133261483034132e-01
      1.6918476827556361e+00 6.5233267045834209e-01
      -8.5132517179241152e-01 -1.2870301744574228e-01
      1.0535499198397937e+00 2.3104659911318007e-01
      -5.5703936924639541e-01 -2.6811775507776142e-01
      8.5434843114630421e-01 -3.3262157384380275e-01
      2.3418807219536336e-01 1.3664569287369375e+00
      -8.3831611853065091e-01 5.9025278422321525e-01
      3.2361975482068303e-02 -5.3729921108591006e-01
      9.7954942512757781e-01 -2.0316193735981616e-01
      7.3774044674477202e-01 2.0533159389465097e-01
      -4.1386550204158035e-01 -5.3836063988668015e-01
      -1.6018691002689827e+00 5.5978175971546174e-01
      -4.5703207989671624e-01 1.3288794709569436e+00
      1.2631840089436392e+00 1.0553279358058065e+00
      -4.4653997766761694e-01 8.4733965682028378e-01
      6.9459626980153996e-02 -1.4858443382692201e+00
      2.4278965875091563e-01 4.3905885695184504e-01
      -1.1033553793276168e-01 -8.8861110368139967e-03
      -7.2229128918534580e-01 -1.1759489753887231e+00
      -4.2675958719058410e-01 2.1856195117532642e-01
      7.2301404484937759e-01 1.3164974703565935e-01
      1.1548071901908654e+00 -1.6560743987145921e+00
      1.4054067334015929e-01 -4.6855413947426927e-01
      -3.1094744507078559e-01 -3.3885104954389533e-01
      6.4554969093883818e-01 -2.9521982492953464e-01
      1.3741840598525754e+00 6.2159356394207987e-01
      -6.3465289223125876e-01 -6.1336604066197997e-01
      6.2660533761853177e-01 -7.8486486988068471e-01
      1.1791982691170977e+00 -1.1624609865283544e+00
      1.4043658414784368e+00 -4.7753232192669703e-01
      -1.8566320848505782e-01 -1.3951517564835172e+00
      5.4465505963826977e-01 1.9047149445327391e-01
      6.3890337463652380e-01 -1.2229687362230390e-01
      1.6039879502977974e+00 3.9851374250833932e-01
      5.6339460798703900e-01 -6.9852080124479210e-01
      3.1049741617060084e-01 -1.5800658283764901e+00
      1.8449742487567811e+00 2.0564645242445376e-01
      -8.8829333131901866e-01 -1.4408886677076294e+00
      -4.0060321616231846e-02 1.8408164438563763e-02
      4.4921401956307311e-01 -2.1300250689201594e-01
      2.4312279286548821e-01 -5.9442216964463257e-01
      -9.6258119256440744e-01 3.0764415385541188e-01
      -6.2737336112624123e-02 -2.5790769936333247e-01
      6.5614622654866794e-01 -3.7140581421415514e-01
      7.1317693189819953e-02 -1.3533874969028012e+00
      8.2490103744140209e-01 -1.3733574677262950e-01
      -1.1224549302712838e+00 -6.8578618914500755e-01
      -2.6205658392480441e-01 -1.3116270946467170e+00
      -9.5452101768353192e-01 -9.6830828528529644e-01
      2.3867191801446999e-01 1.4068958656587027e+00
      -5.0155182832405754e-01 -4.8307810452578553e-01
      8.5741325742973606e-01 6.8408638212738293e-01
      -9.0835455045994751e-01 4.7145405743411550e-01
      1.1145742183884575e+00 6.8760036171103123e-01
      -7.4831910496902632e-01 -4.0889329759312426e-01
      1.4324460815944053e+00 1.0131781783841907e+00
      4.2666551386749801e-01 1.8372978539129579e-02
      2.7439945372399038e-01 -5.4707697472232746e-02
      8.0887492803048433e-01 -1.2760774399369240e-01
      1.0916335999091248e-01 9.5579929828739796e-01
      -1.9609803073627188e-01 9.3435503858697300e-01
      1.3058163839472174e+00 5.4515554252249987e-01
      3.6926092944126943e-01 -1.1326570671718184e+00
      -6.4572980527184320e-01 -2.6367805004707101e-01
      -2.0901606296097119e+00 5.6634976421155925e-01
      6.9850394057957099e-01 8.8947926658150045e-01
      7.6818966883036610e-01 2.9754262998468528e+00
      -7.1560246093505420e-01 -1.3487591572819324e-01
      3.0323231824197183e-01 -2.3410441683165562e-01
      6.7912373049740460e-01 -2.2833931496126700e-01
      -3.9854948558771564e-01 -1.7011689923268628e-01
      1.5750791338193504e+00 -1.3576291353303960e-01
      5.9961342078022883e-01 -3.9051676576606364e-01
      -2.9911632844136143e-01 4.3595355573174938e-01
      4.3124663269004232e-01 -1.9418485927826429e-01
      7.4016064286739891e-01 1.6792343437277135e+00
      -8.8084275959474587e-02 3.1193072549161727e-01
      1.3663001513712136e+00 4.1637101067575766e-01
      6.5560595876727201e-01 -1.3804998397755381e+00
      -1.1568342319332110e+00 9.2694617903941423e-01
      -4.2441473373439503e-01 1.0652492783461815e+00
      9.2494980767892399e-01 -3.7816609148205693e-01
      1.0621823264083310e+00 -1.1459352942379395e+00
      7.0956337239363632e-01 -4.6549726860919372e-01
      9.0311106136897401e-01 7.1499011534219448e-01
      -3.2069522822983521e-01 2.6243969233733638e-01
      -1.0454506177171810e+00 -1.1089594667767619e+00
      -3.7961877499122926e-01 9.3255777734217657e-02
      3.9886567672850054e-01 -6.1729895121328604e-01
      1.1046273491507250e+00 -6.7973724790702306e-01
      -7.3439713632981873e-01 1.4565729148399238e+00
      2.8722431956279210e-01 7.2953897193693484e-01
      2.0037106851042755e-01 -8.6886184377301823e-01
      5.5975314626050643e-01 -6.2891960409759384e-01
      4.7947657697127216e-01 -3.5950947141163103e-01
      -7.4478646891438216e-01 -5.5638330542108194e-01
      -1.0253338172018568e-01 -2.3330748617291444e-01
      9.3459623112038936e-01 -2.0925502815147717e-01
      7.5423328818039459e-01 7.8604730339627726e-01
      1.1061534482183217e+00 -3.1171577463159311e-01
      7.9476024261001699e-02 9.0414253149222001e-01
      3.9771992749879748e-01 3.7996411259517160e-01
      4.4133227549069204e-01 3.8159864611306110e-01
      -5.7787661992602046e-02 9.8731283310778362e-01
      2.1235920876197592e-01 -4.9631730443573258e-01
      -6.0096324615168684e-01 8.0597458426222046e-01
      -1.6895851520494196e+00 1.2672737449005475e-01
      -2.7590986907742054e-01 1.2331542027782917e-01
      3.2215055207097476e-01 5.9752090458215112e-01
      2.8287689721796200e-01 4.0701974020891790e-01
      -2.9362687831750894e-01 -5.0435970048949230e-01
      3.2897148969884948e-01 3.7406874425849185e-01
      5.0697517468240971e-01 3.6240118806524341e-01
      1.0165867415944788e-03 3.3449880655740172e-01
      -8.2050333193105696e-01 7.8634826047998585e-01
      1.7535268823974726e-01 -2.3869352786046083e-01
      1.7277872911818593e-01 -1.2356278563254926e-01
      1.4279120031209160e+00 -9.8904878264295026e-01
      -1.7611857136311054e-01 -1.5535474315135573e+00
      3.6173536938487594e-01 -8.3435168742637400e-01
      8.7456440695286464e-02 -9.8000627158163289e-01
      -6.7438995939200008e-01 2.8254729692325070e-01
      -7.5225840126935095e-01 -2.1296695641711899e-01
      7.5460867667464071e-02 1.0637849015302374e+00
      -1.8914954428892337e+00 -6.5440523565621922e-01
      -5.4209400164412791e-01 7.1147794609829695e-01
      -3.7023682780740780e-01 8.7991995472288120e-01
      -9.5448070777359972e-01 3.1493982833759593e-01
      2.0623687902088822e-01 -2.8867158297404411e-01
      -1.2567770215301077e+00 -8.4509197834940586e-01
      6.3690000237673439e-01 3.8939121095753904e-01
      7.8579513540325052e-01 -9.4662876788096495e-01
      6.2389370564392110e-01 -5.5089900251357182e-01
      6.7775608239952712e-02 -1.2061429122793434e-01
      -8.5776967231362322e-01 4.5624135640642566e-01
      -6.6649729031100846e-01 3.4213177863338867e-01
      1.0428305690003270e+00 -4.3639359367296141e-02
      -4.1339737108910826e-02 1.2382466689491112e+00
      -7.0302602072838816e-01 -3.0693407950707208e-01
      6.6410428486890138e-01 -1.5245279282930960e-01
      6.5584773441043109e-01 -1.6957256709625435e-01
      7.8419692163233956e-01 -8.2644775005014537e-01
      -5.6954782334567622e-01 -6.4913316034831092e-01
      -1.0800587378928814e+00 -9.3739216457699792e-01
      -4.1300384194627804e-01 1.1770367001221451e+00
      1.8787039310097486e-01 -2.1921783340515988e-01
      -1.3276813258481471e-01 -8.2202111141586390e-02
      3.2545822783363332e-01 1.6212549928797504e+00
      -1.0361669780307559e+00 -2.8724980073566286e-01
      7.3830378778443762e-01 7.4247996273628492e-01
      3.0405957929058541e-01 6.0163910024119685e-03
      1.1823077662173733e+00 -4.9382322914651894e-01
      8.9585215204250612e-02 -4.2378848700620597e-01
      5.7677084201912909e-01 1.0114985529608163e+00
      -3.0582582253892149e-01 -6.2866371805157129e-01
      -7.2403534628848776e-01 9.5014738605205795e-01
      -6.8403082124652348e-02 1.0714064236348591e+00
      6.1346580501074111e-01 7.7667957905708829e-01
      2.5560014901508821e-01 2.0089979974892724e-03
      1.0179501021535102e+00 -6.3223474501609589e-01
      1.3063108812482518e-01 5.4712769525769234e-01
      -3.8844624336627137e-01 5.0037107058450314e-01
      1.2359667686717064e+00 -1.8432095810879789e-01
      2.0266376684810244e-01 -6.0800342080660164e-01
      -1.9361729700074623e-01 2.0399340986990416e-01
      8.8591727029898737e-01 -2.0824527586643482e-01
      -5.7421942639213297e-01 6.4578115454719487e-01
      -1.8512159396009234e-01 3.5625349573525550e-01
      1.8711978764370646e-01 2.8622425637855697e-01
      4.8200902035789783e-01 7.0224141563065301e-01
      3.5755821082178529e-01 -1.4384244112433633e-01
      -6.8845460233083944e-01 -1.7016996116846008e+00
      -9.0971220699222399e-01 -8.2354246618919269e-02
      2.0526398349803918e-01 -8.7438089082841663e-01
      6.2192516263729826e-02 -9.3155644302001339e-01
      2.0850980758365750e-02 -1.5316626304210326e+00
      5.8444203524634819e-01 -1.0945204097692753e+00
      -1.6508293965541465e-01 5.6017199367876247e-01
      8.8238683846879373e-01 -1.7612650636092284e-01
      1.1231301342543307e+00 8.2330665409887302e-02
      -2.1147345214708877e+00 4.1506826155293947e-01
      -6.2607396468249851e-02 7.7105391292399239e-01
      1.6131889809094946e+00 9.7973681794877798e-01
      -1.6896924194692892e-01 1.1050423267338003e+00
      -3.8298755673899065e-01 1.2725121543048725e+00
      -2.2903660797931943e-01 2.0253952276123866e-01
      8.1417059791049462e-01 -3.8356429557443117e-02
      2.5093493874490536e-01 5.0646992448547035e-01
      -2.6663425599114854e-01 1.4391935515714543e-01
      5.4340554263805774e-01 3.1386616628803843e-01
      3.2796833716848423e-01 -1.3064133566256220e-01
      8.7241890646135334e-01 1.7338981707554874e-01
      -7.3296464175848408e-01 -7.6178700616703721e-01
      9.1808592914013243e-01 2.1441296396887957e-01
      9.4915083343063877e-01 -2.1057669206864849e-01
      6.4263230079528100e-01 3.6850919321593978e-01
      -7.6789357931180025e-01 1.1146743596291444e+00
      5.7866245633679647e-01 -4.3247655022104387e-01
      -1.5656337263506808e+00 2.7515736380427602e-01
      -1.1284470141944777e-01 -4.5192188855951793e-01
      -5.4215276368040810e-01 1.3423844036283346e+00
      -2.5784496812111785e-01 6.7835521062823076e-02
      -3.3106957622209963e-02 -1.0055719350997254e-01
      -1.5751964608656344e-01 -1.7585001137300285e-03
      1.8232574014175668e-01 1.4842169592713956e+00
      -4.9011030998364913e-01 -1.0436326817906261e+00
      -4.9196480358354167e-01 -5.3835471028423787e-01
      5.7571715700074966e-01 1.2673330396723609e-01
      8.7652670699203739e-02 7.3591150977516429e-01
      -3.2761682136772680e-01 3.4300981890548726e-01
      -1.0511731638766646e+00 1.2360090786145468e+00
      6.5359578360642356e-01 -1.7623598615348332e-01
      -2.3593892784367509e-01 -2.0950231473665826e-01
      -1.0949815941074802e-01 -1.3463833488577779e+00
      -2.5665858714581924e-01 -6.6039680574385140e-01
      6.6489102837929848e-01 -9.0905723004287120e-01
      -6.0014367585417239e-01 9.3311778983668631e-02
      3.4486090209467057e-01 -1.5638622907867583e-01
      1.8722921172061761e-02 -8.0976204098718074e-01
      -3.8025470785054905e-01 -2.1304382604344371e-01
      5.9137560682425749e-01 -1.5109528273592257e-01
      -1.8459080863601118e+00 5.0134117564210601e-01
      -2.3959563491755705e-02 -1.7583368544264846e+00
      8.8295439782318563e-01 -2.5115265501808853e-01
      1.8970136019010229e+00 1.6207427392496396e-01
      4.6521091624417832e-01 6.7670140873427143e-01
      8.2862650869959864e-01 1.2699006267376250e-01
      6.1020903678427341e-01 -1.4923933712411939e+00
      -3.1028232221211244e-01 -8.2080554503174885e-01
      8.2340292906698628e-02 -4.6454482200444583e-02
      -1.6472493657469121e+00 7.7250202697852965e-01
      -1.9821622350436899e-01 1.6483642921490188e-01
      6.7638645459986002e-01 -1.1456780890010136e+00
      1.8355218674585845e+00 -1.8074084134836754e+00
      7.3813329171243625e-01 -2.5325469962943531e-01
      -7.9988098539947405e-01 3.0046797817839349e-01
      -5.1029557608158205e-01 -2.2014348952413618e-01
      1.3315628360245222e+00 6.6752358901959219e-01
      -1.2903952273438760e-01 -1.5744908306077346e-01
      -3.0795949507458109e-01 -7.5094520381084751e-01
      1.5949629824104499e+00 1.1172349489302511e+00
      1.1858609210678218e-01 -1.9945524326024739e+00
      -1.1335488357599439e+00 -2.1576900833130414e-01
      -3.1923941370856146e-01 -1.4373002536365194e+00
      -5.5224745517301155e-01 1.7079278167190057e+00
      -4.4839626989850634e-01 -6.0832006989751086e-01
      3.5384475457483799e-01 2.5526606556857168e-02
      -5.9525143172309058e-01 8.6531087843941157e-01
      2.1176782035851469e-01 1.0074963099614773e+00
      1.0893688331001879e-01 2.1500315307573969e+00
      4.2959418061780724e-01 1.2063108054001279e+00
      -9.3542366413397349e-01 -1.0230765244607138e+00
      -4.2290707447778597e-01 1.2380042443021106e+00
      -1.2513363974666101e+00 6.6096839624849202e-01
      4.0661636489449832e-01 -4.5927031220064457e-01
      -6.9066366425035816e-02 1.1474525749346689e+00
      -1.8095173386332888e-01 -6.2176814584930795e-01
      1.1904528971369204e+00 8.8735301099541686e-01
      8.6146635186063780e-01 1.4843690084613390e+00
      -1.2867227610840755e+00 8.9347212904388462e-01
      -1.0381192840644797e+00 8.4016294172147876e-01
      2.1585746483256423e+00 1.6626093487808000e+00
      1.4945588673228172e-01 1.0350957349335403e+00
      1.8866621519206670e+00 -5.5985134651968527e-01
      2.2335940561194492e-01 5.2191686763873335e-01
      -1.5792787341903838e+00 -8.7707211951915598e-01
      3.4023511913726684e-01 8.8241924398982508e-01
      3.2142652636136326e-01 6.5197334312658006e-01
      -3.8372426807801681e-02 -3.6582812230101075e-01
      -1.2349207071748900e+00 -2.7302383254466096e+00
      6.5904256089089908e-01 2.4982546534178405e+00
      -6.9627710715158908e-01 -1.2590396221635525e+00
      -1.4347182278477288e+00 1.9968050336046220e-01
      -1.2476249139643154e-01 1.2413007436262731e+00
      2.9585451495887416e-01 3.1231049006698247e-01
      -6.2481302895037849e-01 -1.8788211590632813e+00
      1.1194041765108615e+00 3.8147618671662858e-01
      1.8897862482930268e+00 1.3313778914959455e+00
      7.5758574392050776e-02 -1.1410724003599397e+00
      -1.1005400952194004e+00 7.8828731439131605e-01
      1.0048019503429781e+00 7.3030550105371517e-01
      -3.7853375636907843e-01 -4.6052805163292615e-01
      1.6323400752972048e+00 -9.2538489699276180e-02
      -4.4914062633063428e-01 3.1466231031045211e-01
      5.4543902481013062e-01 -1.3437537432018221e+00
      7.2234894496133972e-01 3.2658025228198140e-01
      2.9566943830000192e-01 8.8768318353642495e-01
      -1.9330234700575430e-01 6.0686147409634528e-01
      9.1857797670985986e-01 -7.0705013228853131e-01
      1.3156347926782723e+00 -5.0935735676638061e-01
      1.2914059568430551e+00 -1.9934072234842568e-01
      9.6863446785653462e-01 -1.2235656713984993e+00
      -1.9728492123836741e-01 8.5470908857178535e-02
      6.7575980869463559e-01 -8.5422809107309983e-01
      2.1232313135015085e-01 -6.1880044221817365e-01
      -5.7062399265836949e-01 -6.6645575010937386e-01
      2.9979406282869836e-01 5.4615406455578319e-01
      7.2435515893037830e-02 -1.7252262598568220e+00
      -3.6529240546522929e-02 6.2090204849676944e-01
      -7.1716495111776402e-01 -7.8354866024683112e-01
      -8.4489731820023639e-01 1.2486447890141019e+00
      1.9412089545050962e-01 -1.2277306140366868e+00
      3.8455746090002896e-01 7.4984586077572113e-01
      -1.8976936839044600e-01 2.2617649666312675e-01
      -1.0146777407028837e+00 -8.4757229516259180e-01
      1.2768050993570326e+00 6.9432127885565964e-02
      4.5015267197058326e-02 -9.5216287495974456e-03
      -5.5405215124903329e-01 -9.2440455793004150e-01
      9.1151430528337005e-02 4.7127934042263969e-01
      -3.2762916702535567e-02 3.9598180417544476e-01
      3.2498489169389533e-01 1.1289535294776862e+00
      -9.3573061160119253e-01 -1.3316241217296396e-01
      5.4820232788912038e-01 -6.0107356387252420e-01
      5.1495951854906123e-02 -4.5328510533471100e-01
      -4.5922720673049970e-02 9.2958864309015607e-02
      2.4354533700103326e-01 -1.6732385343439388e-01
      -6.6083283430663387e-01 -2.0544769903207912e-02
      -6.6998195766222624e-01 2.0638842347108227e-01
      -9.3758501682614084e-02 1.2810491359874101e+00
      -8.1726059189640976e-01 -1.3548063122102813e-01
      3.4356452207338728e-01 1.4625846551693240e+00
      -3.9666394189828741e-01 8.2546441981563767e-01
      8.1372190210171258e-01 -6.8135276250358079e-01
      -4.2189555640926774e-01 -1.0182069165402161e+00
      -2.9109584543871692e-01 4.1478672807627170e-01
      3.6214248386870040e-01 3.5357538865581184e-01
      -1.3540794945090493e+00 -7.0296512736869565e-01
      6.9643764959252386e-01 1.0482628208453937e+00
      1.9990042595525873e-01 -4.4736188644589819e-01
      -1.1245182886825059e-02 1.8603927256203115e-01
      3.6696276745232642e-01 -1.1672285666504654e+00
      -9.0232533458609054e-01 -1.1324748185861025e-01
      -1.4906081899596224e-01 -2.2067017652566301e-01
      -1.2987833617378346e+00 -5.3325812307870391e-01
      8.6688423680803173e-01 -1.2530720321809832e+00
      1.8226814960672479e+00 -1.8935143113907471e+00
      7.2741692428928617e-01 4.6131735012883002e-01
      2.0924464411442836e+00 5.0622812763517622e-01
      1.6456913759736411e+00 1.4293200304421072e+00
      2.4104835492167470e-01 6.6577613462510099e-01
      1.7995585190099955e-01 -3.9086261411521017e-01
      -1.5431535852845075e+00 -5.1991153842454940e-01
      -5.1783638533485676e-01 -8.3142535809459317e-01
      4.0387022699145747e-01 -6.0997814368561099e-01
      -6.0157419575976236e-02 9.5194698037164682e-01
      -4.5232674441980236e-01 -6.0950101725879446e-01
      -9.9813901366848978e-01 -6.5019283542431228e-01
      -4.5963740134428871e-01 -1.1615368998070648e+00
      3.6058526759904735e-01 7.9564129847388132e-01
      -6.1259577509071017e-01 -1.9989574046547298e-01
      -1.3978040200046764e+00 2.8473152472927260e-01
      -1.0220671250845179e+00 4.4977753859344388e-01
      5.3655901858752882e-03 1.2408612010691762e+00
      -3.4263761609879295e-01 5.2885278541709191e-01
      -9.4352539455178064e-01 3.8946953015305502e-01
      -1.2582360550990410e+00 1.7607916674182125e+00
      2.1867081206558842e-01 -6.1566971091419585e-02
      2.1537886135666609e-02 1.2148881972307011e+00
      2.0420959177171102e-01 9.9378765543918468e-01
      8.7153191764773041e-01 1.9525869174076527e-01
      -2.4007294404396699e-02 -7.6025774568262461e-01
      -1.0203052910660351e-01 -3.2621237997745633e-02
      -2.1368597027943756e-01 -2.0173878821137886e-01
      2.2336015086387287e-01 -4.5625790457033488e-01
      -1.2989640879392453e-01 -2.1644630040686734e+00
      -1.0776287615095206e-01 -7.1458418569378790e-01
      1.7976168197511464e+00 1.0465882392494517e+00
      -1.0818405614882920e+00 2.6133017204145792e-01
      1.5916729512987873e-01 -2.4258271310542829e+00
      -9.6071090414621052e-01 1.2045905965066980e-02
      -1.0609553185178962e+00 2.6353142936042601e-01
      2.1372520795870648e-01 5.5718684208360003e-01
      -1.1723533305762877e+00 -6.0992376564544615e-01
      -8.1406366228881455e-01 3.4144977315715364e-01
      -1.7459745429177835e+00 -3.7093649555363997e-02
      -5.2444847319023769e-02 4.3467129172133723e-01
      -1.3898754134218980e-01 1.2685682376455105e+00
      9.8800686804388560e-01 -1.7413225512757088e-01
      -6.2105866842401547e-01 5.6134903929035007e-01
      1.9491903982002323e+00 -3.8196329817998043e-01
      -4.1385802258568760e-01 4.3746692858356800e-01
      1.0368809138150994e+00 -1.2539279707133550e-02
      -8.2268308337818868e-02 -1.4165785984786802e-01
      1.4841421213051728e-01 -3.5913866651906136e-02
      -1.0824657693034856e+00 1.3861144007548165e+00
      -4.9149565392941064e-01 9.6516988791698011e-01
      4.6133162505292646e-02 7.9230500051668074e-01
      5.8389927340428016e-01 6.3528308631147667e-02
      3.9766903200743386e-01 -2.6961312288318284e-01
      3.3355316547480374e-01 6.1276471142744637e-01
      -9.5620359679151154e-02 7.7290134295272583e-01
      1.2017995117957392e+00 8.5527544651811249e-01
      -3.6015479894710034e-01 -9.0180522736258373e-01
      6.7767369698371405e-01 3.2456825950683227e-01
      1.4436979145223788e-01 -6.4988004612600139e-02
      4.4641951179071387e-01 -7.5130870802048466e-01
      -1.0422006654214120e+00 -5.9898068894359713e-01
      5.3560492914818469e-01 -3.5729437810973325e-01
      1.3077094010995799e-01 9.3297834616718617e-02
      1.0301752411788643e+00 -1.0400838676036621e-01
      -8.2275731313517153e-01 -1.1209219811595554e+00
      -2.1214942736607331e-01 4.3214369686687354e-01
      -1.6514455748322099e-01 9.1302768948712726e-02
      1.1898222602087023e+00 -4.8836406614443234e-01
      -1.5382801987932477e+00 3.0792054077876442e-03
      -3.6104273574534507e-01 -2.2930461353309917e-01
      1.1150856056144696e-01 2.2545952778571213e-01
      -1.3361557984670873e+00 -1.7652725406698330e-01
      7.3968534436911515e-01 9.1956276335720821e-01
      -4.8341396206968329e-01 -3.9332210433710485e-01
      5.7773243599953901e-02 1.5289922483726504e-01
      -2.2551313887404295e-01 1.0767856675956211e+00
      3.8059291684253049e-01 1.5857832680355783e+00
      7.4903483280091243e-01 6.0040726234031161e-01
      1.2817054922376494e+00 -4.2937530032224092e-01
      6.8422858356894975e-02 8.6390546204786289e-01
      2.4061541101027539e-01 -1.0214428962576043e-01
      1.0625975401600440e+00 -1.1244553769697703e+00
      -3.1461298963300066e-01 -9.7780560367807343e-02
      5.0206514727751698e-03 3.4747104837398135e-01
      1.1446903454008710e+00 -2.0716486639206705e-01
      -8.3246080958310500e-02 -7.6652905839708585e-01
      -1.1746565080654174e+00 1.0612952497784990e-01
      1.2628918782358528e-01 2.7684316797609343e-01
      -3.3127441115150522e-02 -1.6669563368469054e-01
      6.2157770773664933e-01 -1.2064880076115312e+00
      -2.7358912425249410e-01 -5.1960097184653775e-02
      1.0059997554909852e+00 -4.6867476242153838e-01
      1.0243434446559025e+00 -3.0196358969004694e-01
      -6.2965299765607874e-01 5.8504390501165204e-01
      -5.8668135318362367e-02 1.1802735714729760e-02
      -6.0974891022344468e-01 -1.6368792458564252e+00
      -8.9629190906190731e-02 -2.5899083281838903e-01
      8.2025312802713235e-01 3.1221862590552385e-01
      4.7770364386292768e-01 -8.4144757136980863e-01
      -2.3855881571681184e-01 8.5303974688928474e-01
      6.5779113835379788e-01 9.2741340591077326e-01
      -6.3948309334994402e-01 -3.8537951705443502e-01
      5.3637225551204371e-01 1.0554402307876777e-01
      7.3280818674111264e-02 -8.7766686095205618e-02
      -3.1711164102318257e-01 -3.1062228952337317e-01
      -1.0595117610008911e+00 3.2167602738066747e-01
      -6.0843558958160848e-01 1.1180259023536571e-01
      -7.6087692950751995e-01 -1.1251904515796005e-01
      -7.9409960466866589e-02 3.0521792821666116e-01
      -1.0154177257530084e+00 4.7650993992373358e-01
      -2.0525694424769633e-01 7.0735853026194978e-02
      -5.4754024112100286e-02 -5.8962800504372459e-01
      6.5107169301202950e-01 -7.5326288214621273e-01
      1.2874806470525924e+00 5.2089869112709342e-01
      7.1398426098764844e-01 2.6311248185373071e-01
      -2.8145849700161202e-01 4.4825133151814189e-01
      -7.9911099484851422e-02 -8.2156363770707541e-01
      3.8868143001131011e-01 -9.9964827133405307e-02
      -5.9363546908638387e-01 8.7305379566190533e-01
      -2.3145511306898423e-01 -5.6066690602093416e-01
      -1.0969201020908237e-01 -6.6455634866410085e-01
      2.5957553776016995e-01 -1.8422619786390290e-01
      1.1526827453945694e+00 -2.6532406743066200e-01
      8.3196105088270222e-01 -4.6797102767370750e-02
      -8.8608359325128949e-01 -4.9781758257697289e-01
      -4.2984437344828880e-01 1.3462763431694233e-01
      8.5843289927574040e-01 -2.9384338875513816e-01
      8.4576044165689834e-01 -7.9915215075822699e-01
      3.0450693830860132e-01 4.1256430118157356e-01
      -1.0471660531895262e+00 5.7245716166424021e-01
      1.5918433916533498e-01 5.1419483837036976e-02
      -3.3086542552482395e-01 -1.0916877421481939e+00
      1.3722533239488213e-01 9.7999072111162477e-01
      -1.0846507995701622e+00 1.1306377990971868e+00
      -4.7839239189082516e-01 5.1765127027495983e-01
      4.0993058256637882e-01 -8.3041109617402509e-01
      -1.0648111742606965e+00 -7.2787896530439300e-01
      -4.2650780703662439e-01 7.2069175720331435e-01
      3.9259930648469421e-01 -1.9706520351813331e-01
      -1.3673947368553704e-01 5.5556225488419586e-01
      6.4621280436354900e-01 -1.9429091938358725e-01
      5.8734953083373564e-01 6.1254756097760221e-01
      -4.8810751154965210e-01 5.4375063797274847e-01
      8.7755501785449386e-02 -7.8151795284545092e-02
      6.3709801349465256e-01 -3.7096923724353925e-01
      -1.2925334753565287e-01 6.8586833937507330e-01
      -3.3753998241612092e-02 9.4949390471252471e-01
      1.1833907643843233e+00 -9.1849369748516638e-02
      -7.1422827778561615e-01 1.6861616764275977e+00
      1.4679012582148371e-01 -7.1050775404033470e-02
      -1.0076756014175098e-01 -1.7563846735745317e+00
      -2.9898929880253128e-01 4.2235161404706600e-01
      -1.2473318498087174e+00 7.0851940698299665e-01
      5.5784603818373091e-01 1.0003645148056596e-01
      4.2059688210138724e-01 9.8742955975919422e-01
      4.3254870185494859e-01 1.0601793286554785e-01
      1.1348284775692476e-01 -3.2915383578675822e-01
      -2.7482412681369822e-01 -1.4400893389765170e+00
      1.5044760243744239e-02 1.3470120196257731e+00
      3.9142640469088108e-01 -1.2628721736064485e+00
      -9.7938028604742555e-01 -1.0470194165741262e+00
      -1.2761422908415332e-02 -1.3118790965510629e+00
      -6.3521315380921628e-01 9.2423826681010657e-01
      -1.3262130365172570e-01 7.9183792240931417e-01
      1.1450143508503961e-01 9.7602865689961227e-01
      -6.0160621265186054e-01 -1.4747267576206851e+00
      8.0680050951836069e-01 -6.3376533185878636e-01
      -5.5318663375896282e-01 9.0452414843706519e-01
      -9.6152376174318299e-01 7.5723770507600019e-01
      8.7546244964842868e-01 2.8206469561005953e-01
      -1.1234016736590646e-01 4.3793819522208921e-01
      1.4464588842253447e+00 1.5831374266455793e+00
      -9.3421304182712550e-02 -6.1067752756168892e-01
      -2.7123510973821552e-01 1.3160148742203498e-02
      -7.8980728063905947e-01 6.6953994639148606e-01
      -8.2940820114530356e-01 5.5029898839912084e-01
      1.4286605814466877e+00 -6.1837622379398549e-01
      2.3827791575952015e+00 -9.6888895711950151e-01
      -2.4021602313103513e-01 1.0079655683814153e+00
      -1.3641424574775671e+00 6.2685187147886712e-01
      -3.4042263969402869e-01 -2.3752368053083442e-01
      9.2700744740046623e-02 1.2056313938435388e+00
      1.4714691283426237e-01 -4.9303816633892589e-01
      5.5230785612329225e-01 -1.5630489360266511e-01
      -3.8119015263719586e-01 5.1851687274028324e-01
      8.3911298344946594e-01 -9.3336727983688261e-01
      9.7385203405307930e-02 -1.0676892274354023e-01
      2.8822464450983520e-01 1.2068493626523138e+00
      7.5402468402162615e-01 5.5622513442477839e-01
      3.2102367792547652e-02 2.3803492370467916e-01
      9.2592546939939946e-01 9.6512128862837321e-01
      -1.0872880585753877e+00 2.0445075647980748e+00
      -8.9747008154870656e-01 1.1433686172439992e+00
      8.2402430841306247e-04 3.8165146407916356e-01
      5.3287908753780200e-01 1.1894362524679518e+00
      -1.2931509515367787e-01 -7.8356034708707933e-01
      -1.5074893725052343e-01 -4.0651615335822716e-01
      1.6129661738762621e-02 -1.7993625533023954e+00
      1.0866434658634407e+00 7.7540906493611728e-02
      -1.5612686912143865e+00 2.9594382254799551e-01
      -1.6764228678588349e+00 -1.5027879998131236e-01
      -1.6889513135216819e-01 -1.2343437220199172e+00
      2.0483606905586232e-01 1.6351983051742973e+00
      6.8027471923802665e-02 1.0023186641325910e-01
      -1.4761102264294879e-01 1.4801863947321015e-01
      -1.2591124716154065e+00 1.3597775804079919e+00
      4.6476579268315327e-01 -5.7249830667782708e-01
      -5.7436533406039625e-01 -3.9484337207762649e-01
      -2.6672941256509308e-01 5.9112771549777299e-01
      -4.5507972616523971e-02 -9.3483269750412723e-01
      2.5249591769747565e-01 1.0025471333355233e-02
      3.9381345244339749e-01 -3.3020572850341190e-01
      6.4335785696401060e-01 4.9882057500718124e-01
      -1.7423515629114417e-01 2.8823178466371774e-01
      8.5585133050557860e-01 -1.5855808182018489e+00
      -1.0702217792678084e+00 -3.3120431096598318e-01
      7.3112744276900543e-01 -1.4575583015643681e+00
      2.7674296108697510e-01 -4.2878081552385255e-01
      -5.8336467428462557e-01 -1.1875171379305247e+00
      1.2524319628291163e+00 -3.8379592917860605e-01
      -8.9640201153348711e-02 -8.8921668409877030e-02
      -2.2173253808456622e-01 -9.9835193817524071e-01
      5.9404369197805729e-01 -2.5094233011508421e-01
      2.2383234839303631e-01 3.6048494570993084e-01
      1.4559360081511226e+00 -2.2994539761037554e-02
      -6.2351241533036894e-01 -8.5277780731713371e-01
      2.6247109136526156e-02 5.7807947120376502e-01
      1.7678049115648693e-02 1.4699043235083295e-01
      -5.9861898482776388e-01 -7.8274778569896142e-01
      3.5037078653539988e-01 5.6159813409221493e-01
      3.9659764287230392e-01 -3.5765710350466318e-01
      -4.5925497075328481e-01 -5.9205581519602690e-01
      -5.9126685357955866e-01 7.0615571584475956e-01
      -3.0916076495612996e-02 5.8743577058095597e-01
      7.0857011732815833e-01 5.9126180400725814e-01
      -4.2379034177995700e-01 2.0019787733408978e-01
      -7.0131629624841996e-01 -1.2445869640706850e+00
      1.6947996680887103e+00 -4.7686229671564484e-01
      1.5179831137380839e+00 7.3783237160011528e-01
      -4.3083996680453635e-01 2.2594745364402032e-04
      9.1132090797533850e-03 -2.2402152689982335e+00
      1.0133493884204057e+00 2.5447510153691657e+00
      7.7784654273716025e-01 -1.0686865715509768e+00
      7.2947353889175795e-02 4.4368162723891069e-01
      5.5939844868368105e-01 -4.2362886168174618e-01
      -2.7642319422601458e-01 4.3980499260179950e-01
      1.2910256105772357e+00 1.9154214719210871e+00
      7.7852757083550161e-02 -4.3909352690959647e-01
      -1.1749737217973260e+00 -1.5187610713599671e+00
      2.4335299998318871e+00 2.0836956700287295e+00
      1.5810843378615378e+00 1.1501529092275153e+00
      -6.6840564437253991e-01 4.1210054245061145e-01
      2.2664224807116609e-01 -8.4130528753227699e-02
      1.2746055965480896e+00 -2.8055059231113066e+00
      5.6785961469273039e-01 -5.2290472646911978e-01
      7.7671707172354110e-01 -2.6604317453421833e-01
      -6.7727792492409244e-01 -5.7750087036577281e-02
      1.1292791573119403e+00 8.8685843439071965e-01
      -2.2648129466643613e-01 5.6446356706901690e-01
      1.7934168930477534e-01 -1.4142081553103891e-01
      -1.2138333211069230e+00 -8.1246888605938106e-01
      -3.0681728008181025e-01 8.4560122194528964e-01
      4.9912569044027015e-02 5.0699246508702178e-01
      4.3296403664368077e-01 1.9914298052104148e-01
      1.9312156742932896e-02 7.0079045279534985e-02
      -2.0214000754143115e+00 1.4423464071950030e+00
      1.8194898941566289e+00 2.0416017773206381e+00
      8.7885304864708769e-01 1.1400877196436296e+00
      -1.5953658669307715e+00 8.5584974783811518e-01
      3.5289695715795162e-02 1.8158113930791001e-01
      7.4394110089926002e-01 -1.4282371708573971e-01
      2.0181670427379744e-01 -1.5729485498885923e-01
      -4.5426428206338948e-01 -2.8262832544252292e-01
      -1.1292572022085182e-01 -6.6752971109311804e-02
      4.4921316326309529e-01 3.0865486189305258e-01
      -1.9531714349554094e-01 -6.7187154251008263e-01
      5.6702218899482859e-01 5.6753261108382169e-01
      5.0086028093008594e-01 -3.7865996325301932e-01
      2.2598056036351037e+00 1.0903258330754224e+00
      -8.7286070394969728e-01 3.6384526537125716e-01
      2.3710367284298303e-01 -2.7661456240707700e+00
      -5.7554818621637915e-01 6.1929918634582404e-01
      6.7582793862377022e-01 2.0278016331806686e-01
      2.3141039944880590e-01 1.8468032090414915e-01
      -4.4829280916618525e-01 6.8703029800610249e-01
      2.1963748880596734e-01 -4.2988457718208106e-01
      4.6514761365374413e-01 6.8440008375068229e-01
      8.8568548877091391e-01 1.0409171308108998e+00
      -7.7659099169088408e-01 -4.3906076467862404e-02
      8.9520184377006040e-01 -1.2374361315550590e+00
      6.9812524632916473e-01 -3.3743583168649488e-01
      7.4434090537849684e-01 4.7105382782688700e-03
      -8.0253562836538683e-01 2.0075160208816947e-01
      9.3433261495635100e-01 2.0757201243791056e-02
      -8.4781950696718222e-01 -3.1861757032426957e-01
      1.4063772806217353e-01 5.4650927059436361e-01
      1.0648317478078265e-01 2.5708604664524154e-01
      3.6475166472119530e-01 9.3046965858115316e-01
      1.4536616705024949e-01 -7.6657074211989562e-01
      4.0872234597855411e-02 6.2133910441116447e-01
      4.4191497824647868e-01 -1.7679855376921663e-01
      -1.0179586808767125e+00 -7.6405947763554061e-01
      -8.5273318790195118e-01 2.2596816459475888e-01
      -8.4269178705167508e-02 -1.4933231116990697e+00
      1.3465535963583330e-01 2.6753476652344382e-01
      2.8760244207338331e-01 -1.1860168933917908e-01
      7.0780820390272015e-01 -1.0380204777122550e+00
      -4.4252013915523980e-01 1.2534218517608937e+00
      -1.3116647246692403e+00 4.0040569349509147e-01
      -9.5639283421564980e-01 3.7561090817169768e-01
      -2.2162813934823730e-01 4.1745840000205836e-01
      8.9427761165087549e-01 -1.6638709554362825e+00
      1.3316619888056480e-01 -5.8290240070343335e-02
      -3.0208806521177201e-01 -1.4996977223914250e+00
      -1.7184488207603297e-03 -8.4743288167630493e-01
      -9.2744484980304492e-02 7.0788163119846892e-01
      3.2832110121565600e-01 -6.2922614327934001e-01
      6.5710761540573626e-01 2.6047049748461321e-01
      -3.0097167288234289e-01 4.4705951261381066e-01
      2.8800458623484909e-01 6.5747304675590423e-01
      4.1474959352286050e-01 4.9981462213879134e-02
      2.6701394439444465e-01 -2.6083629015830812e-01
      -1.0932046057426092e+00 -1.9633167469778356e-01
      9.4411802398526506e-02 -2.7600685957926824e-01
      6.8323405084305899e-01 1.5720560503174852e-01
      8.3308324078472262e-01 -1.3967188261460395e-01
      6.4593063263754613e-01 2.1382370434839762e-01
      -1.1218819787362846e-01 -1.3019555490183354e+00
      -4.0136331736487874e-01 -4.5338208735364194e-01
      6.3766372011156103e-01 -1.9445923721934431e+00
      -9.5511663755325071e-01 8.5488861833193552e-01
      6.6666521381938945e-02 1.1232950745431323e+00
      -4.5956281970939544e-01 -7.9399249946923967e-01
      -1.0246050032098604e+00 -8.7952689609340839e-01
      -6.4730203368093409e-01 5.0540397115085711e-01
      1.7372994897671188e+00 -7.8594559500644345e-01
      -1.2158573489162727e-02 8.0300013084946464e-01
      6.7908861422997080e-01 -1.6180445682068314e+00
      -7.1665304652293516e-01 -2.0400810662571387e+00
      1.0405546151858110e-01 4.9611866320619730e-01
      1.7452265597161407e-01 5.9910522681847589e-01
      1.1772176082365764e+00 6.4644083352791870e-01
      -2.1476151734573937e-01 -6.0976596359982604e-01
      -1.2621182966210511e+00 -1.0649232993711688e+00
      1.3538750468867768e+00 3.0457797579743945e-01
      -4.4153809242685910e-01 -6.8784606986925645e-01
      -7.9778031500497981e-01 -2.0619542473793362e-01
      4.8297105120233241e-01 -6.6099305481772608e-01
      1.0344905752966356e+00 -1.9549584704224356e+00
      1.7561020670486224e-01 -1.5072873074902482e+00
      8.2295506108007677e-01 5.9652483402493850e-01
      -2.2495846717762666e+00 1.0490642908375067e+00
      -1.0054900412192416e+00 -7.1804749740380480e-01
      -5.7844884489486159e-01 -8.9619419613388329e-01
      8.3315564164238326e-02 -4.2529002395072502e-01
      -7.2694054466627778e-01 4.4410246104377937e-01
      -1.1594710165335911e+00 -5.1772759522035217e-01
      -1.6441226003586901e-01 5.1905636160043345e-01
      -1.0248492066038333e+00 5.6517051518237316e-01
      1.1247500592274635e+00 -4.5298821298296277e-01
      -7.5499060845973343e-01 2.2289286255003882e-01
      1.8035857168592879e+00 -6.3996791456985025e-01
      -1.9644486992545623e-01 1.0544953866693347e+00
      -1.8182804970854765e+00 -9.1380147704882608e-01
      -6.0098802743961344e-01 -3.2499230942811397e-01
      8.4461456929860249e-02 1.1827734158695276e+00
      1.2634645320285502e+00 -8.3419740795568276e-01
      -2.6172228611617682e-01 -8.2044498755779161e-01
      9.5066406312164481e-02 1.0678126386151465e+00
      6.7752959933336340e-02 -5.2123019877286403e-01
      9.0540796894790743e-01 5.7895569104366107e-01
      -3.9159593708618406e-01 8.8375503630996433e-01
      -1.0584969041617673e+00 -5.1838380028548159e-01
      1.3306957501467143e+00 -5.7422840588178603e-01
      1.4143296811962773e+00 -9.9812486564726532e-01
      3.3233945025863638e-02 -1.6932880746327972e+00
      8.3535456880345360e-02 -5.0930415472074408e-01
      -5.8544441898937738e-01 5.2969702936287688e-01
      -3.5384182280842325e-01 -1.1678073589255356e+00
      -5.8992529237028291e-01 -4.9090003399471899e-01
      -5.0253705028419593e-01 7.1749340800536610e-01
      8.5158889495070267e-01 1.7691603398457465e+00
      6.8592503139978545e-01 -2.6222503027027218e-02
      9.9626978762968277e-01 -4.3160997442282306e-01
      5.8294360567389222e-02 3.2701821680271803e-01
      3.8529724760143952e-01 3.7192952199385387e-01
      -1.2324586482917763e+00 -2.0391147198677775e-01
      8.5897394294616247e-01 1.6899314298193449e+00
      -1.5229334051957732e+00 -7.6794280228414169e-02
      -4.2054630088781264e-01 -1.8535403159935465e-01
      1.1944985325246473e+00 -2.9585139761236995e-01
      -2.1147840650362739e+00 -1.3293902494027723e+00
      1.8352938897164512e+00 -7.9662025845835049e-01
      1.3773091427495809e+00 2.0039270963308421e-02
      -1.5608674836252898e-01 -2.2381065119146470e-01
      -6.7349956584859233e-02 -1.1424845348013108e+00
      3.0188385663444295e-01 -1.6652898035187744e+00
      -7.1833278592554284e-01 -2.0782027309835857e-01
      -2.1096421684187089e-01 -1.6436098494108691e-02
      9.0958672823860998e-01 1.2518554116555394e-01
      -1.2692728497492005e+00 -1.8812441280478145e-01
      1.4248995393408240e-01 -5.7692421067905408e-01
      -3.7247219372657459e-01 -7.0720649043874062e-01
      -1.1115532962141519e+00 1.3383977133027565e-02
      -1.5859190113078250e-01 8.4513415495050159e-01
      3.5417651438035845e-02 5.3500681970543162e-01
      4.9392086580371436e-01 -1.3660764355189331e-01
      7.4587120884157684e-02 1.2116773917878074e+00
      -8.8614740311590279e-01 9.2266621962330708e-01
      -1.4587088976398614e+00 -3.1625003849284045e-01
      -1.2893256120585079e+00 1.5808397324203316e+00
      -1.1774736278197564e+00 4.8122310381955574e-01
      -6.7424109536443433e-01 -1.0456451213226021e+00
      1.6171950962736943e+00 -1.3548736186417512e+00
      -8.8992899108571688e-01 1.0137641601550139e-02
      4.6984885832454953e-01 6.9633645369334873e-01
      -2.5904566956738428e-01 6.8035391750840324e-01
      9.9736383187260569e-01 -5.1577279186953551e-01
      8.3494353949369060e-01 5.7556550809140694e-01
      -2.5378570366254679e-02 8.6587983973435811e-01
      -2.0834271375292801e-01 -3.8158824739031061e-01
      -7.8183034547337549e-01 -3.8888021251952137e-01
      -1.3314955726937632e+00 -1.0213002586950086e+00
      -3.5237327230906057e-02 3.9104654812698836e-01
      1.6105883186701189e-01 4.9528202643083591e-01
      -1.2984890996288415e-01 -8.8317176736903799e-02
      -1.1048408692084140e+00 -1.9913048332138633e-01
      -1.1945436518533878e+00 -4.0873413078076781e-01
      -1.1733749836259035e+00 -8.5802672914319567e-01
      -2.1600633102870939e-01 5.9168190226162254e-01
      5.0874299191757155e-01 -6.8832941934065317e-01
      -8.3664385957187393e-01 -1.0174537051066941e+00
      6.6775863818680370e-01 -6.5340205505943816e-01
      -6.5500389837232198e-01 -1.9627998457133822e+00
      -5.9988612737059632e-01 1.6653618803218257e+00
      1.0997295948177441e+00 -9.8582716326219721e-01
      -8.7931215266229948e-02 -2.6664769288886475e-01
      -1.3691743386922106e-01 1.9210675646213953e+00
      -9.2985029049396062e-01 6.1675417328341031e-01
      -7.1551635054941276e-01 3.6631663797441755e-01
      -8.6556016048475393e-01 5.5704234242477724e-01
      -7.4051161296951540e-01 -1.9618885664028726e-01
      4.3536849416830103e-01 -4.3870348598947095e-01
      -3.5887781873819435e-01 8.0395854061595912e-02
      9.1684753462840307e-01 1.2514700840771655e+00
      -6.8751458495979090e-01 -5.3051872432806069e-02
      8.6070237578959252e-01 9.3331168040294669e-04
      1.5336672288474213e+00 -9.5686307085558664e-01
      -9.4066387555088093e-01 6.2808802383635298e-01
      -9.7974310975116341e-01 -9.2514381427611814e-01
      2.3733140049822256e-03 -1.3586783746341966e-01
      -6.3498838421680925e-01 -3.8770375876551055e-01
      1.3525865702191577e+00 -6.5414210757135061e-01
      -1.4387145742841050e+00 -1.4487692892803687e+00
      1.0491710824883735e+00 -5.6393874439310177e-01
      -2.8047648477231774e-01 -1.5471208832024186e+00
      -8.3082497454835502e-01 -1.2911980177044837e+00
      -4.0710566805571219e-01 -2.6864512605467728e-03
      -4.8778849809926444e-01 -5.9336680450712742e-01
      6.4126732880718407e-01 -2.7918674980205876e-01
      7.7292207069413021e-01 -4.1033620892803430e-01
      1.2074998788898348e+00 -6.1891539796846307e-01
      -1.1721012984610630e+00 6.1689789365837533e-01
      2.4575330299315450e+00 -4.3922521498011527e-02
      5.3176346453455337e-01 2.1853879484385116e-01
      -6.2264730978527937e-02 1.2935352195356531e-01
      1.3892024382807817e+00 -1.0321998535222230e+00
      1.3052364557596718e+00 8.4248448444916335e-01
      -4.9116084182235331e-01 -1.9125540519486872e-01
      3.0462943648836266e-01 -1.7821376306544634e-01
      -2.2267056482162564e-01 -1.2102845402518771e-01
      2.4134146148823063e-01 -5.8191296460180656e-03
      1.2504724087397234e+00 -7.3970495052304697e-01
      -1.1422528436993331e+00 8.5034610802755939e-01
      9.6820134686768922e-01 -4.9930886291451169e-02
      -1.9968057175800826e+00 -1.1963416519663801e+00
      -2.2317561122775857e+00 -6.9274185001765198e-01
      -5.8898052722577053e-02 7.2721137294711224e-01
      6.7646617531115483e-01 -6.5211807815455924e-01
      4.5817329150970160e-01 2.1274904519228363e-01
      -7.7431574878439391e-01 6.4251839523407517e-01
      -2.3277968573199365e-01 9.8380428057387795e-02
      1.7776731317060554e-01 -5.5694208529383604e-01
      3.6598594666789525e-01 -2.8533028082586087e-01
      1.9488705684918701e+00 -1.0405759556037389e-01
      -5.7488667961065110e-01 -1.5055206591735706e-01
      -8.1608028236238828e-01 1.0889640154616365e+00
      2.0001020458477323e-01 7.3691566210022943e-02
      4.0949049131139598e-01 -4.9827153087271076e-01
      2.3067895877470146e-01 -4.5835500547098240e-01
      -5.8837089522678743e-01 -4.5600439651050884e-01
      -6.2735308688020619e-01 1.0999765755946480e+00
      5.5538810565507279e-01 -4.4709947120745958e-01
      8.1794504832727366e-01 1.7776642985879815e-01
      -2.1105262739006148e-01 1.2786563927889438e+00
      -3.2038205219917326e-01 8.8806366451162355e-01
      -3.6292717724713736e-01 1.2857225242504827e-01
      -1.0846035299267669e+00 -4.6043360518294912e-01
      -5.7000312838939005e-01 -2.3616892912018260e-02
      -5.1518346452034425e-01 3.0782366315120013e-01
      8.9084479994630461e-01 1.4748241931294528e+00
      -6.0453471034404704e-01 1.1963448599499675e-02
      -4.0113266690477309e-02 -5.1143318811556447e-02
      -2.2393255020887468e-01 9.9104676777265377e-01
      9.3910346106406861e-01 3.7579985519593861e-01
      9.2507729571884956e-01 -1.1666127496696947e+00
      4.1572027400253474e-02 -2.0329045242405847e-01
      9.8261753227273785e-01 -4.0466090961595014e-01
      1.1899071990516928e-01 -9.2648297895352216e-01
      -3.1738455907100005e-01 1.1233308972285669e+00
      6.5098506346198193e-01 2.5765594379658702e-01
      -2.0740099130658982e-01 -8.0552422951106328e-01
      1.2014394089029536e+00 -2.7310237075824101e-01
      -9.5550153514221792e-01 -1.1434678206002014e+00
      -5.6287511542919477e-01 -9.9084849203678915e-01
      -2.3957970199467415e+00 6.0272386222944574e-01
      3.1044737764381047e-01 -2.1556951001552910e-01
      -1.5192199522575607e+00 5.4583382452224916e-01
      1.3674473642328466e+00 -9.3466449047855815e-01
      9.8718718761231417e-01 -1.0932441121671308e+00
      5.2752834334329490e-01 -2.3113375577274078e+00
      -4.8849476830574216e-02 4.2520191333903706e-01
      5.3147863301769160e-01 1.0146440723630658e-01
      7.6355928303045040e-01 2.7124015902595183e-01
      -4.5660349387958526e-01 -9.5144292123061830e-02
      -7.2662689842951400e-01 -8.5365327239177469e-01
      -1.2616963132566508e-01 6.3667570361702369e-02
      2.9608525311212464e-01 8.4589841335009228e-02
      1.3588507421959040e+00 1.1812688451607132e+00
      -1.9716815568752792e+00 8.4729808879504298e-01
      9.0931488438190478e-01 1.5006811070126944e-01
      1.1392413845843692e+00 -6.7230056694396445e-01
      6.7333130337932579e-01 -5.6048189674931426e-01
      -8.6118325465865397e-01 -4.7492424340926670e-01
      2.0633959311005068e+00 -1.4694079768321253e+00
      -1.0611593996912729e+00 3.1567360457276550e-01
      5.6929172962984953e-01 1.0332224425877206e+00
      3.5616367957200290e-01 2.2015157060450485e-01
      -1.0335565450271140e+00 -7.2539200722294450e-01
      -4.3214243957610132e-01 3.8072081476158742e-01
      -1.1092189955376004e+00 -5.8302603857448798e-01
      2.0584463488808444e-01 -1.6386507280847604e-01
      5.7794821622361020e-03 1.2043774484303631e+00
      -5.7482163541277154e-01 -2.7567938654862362e-01
      -5.5790907928082278e-01 -6.1508411385511530e-01
      -5.8494680848142155e-01 -1.5215483079532870e+00
      3.9268362985954382e-02 8.6072984869358771e-01
      -1.0617876269864184e+00 -6.6974549671215367e-01
      6.9786940145031306e-01 -1.2793111987211669e+00
      -8.1670390290033890e-01 -9.2923821456014022e-01
      3.9472463931160751e-01 -5.7733210155715009e-01
      -5.6105483543208567e-01 -1.6933049294163709e+00
      -3.6459434077206743e-01 6.4270026008042513e-01
      -1.2134534231605404e-01 -1.4607216946033170e+00
      4.2815927048910679e-01 3.7883254133105110e-01
      -5.1698432993101895e-01 -3.5138962660103551e-01
      3.6611561121077857e-01 6.6101816113972356e-01
      -5.4511184265116874e-01 4.1011733150800211e-01
      -5.3570946327372060e-01 7.5930005660204511e-02
      2.8813280072887043e-01 -1.4150531877798265e+00
      1.4632288282231749e+00 1.8181015425216764e+00
      -9.0603600098954695e-01 -8.2650683165109162e-01
      9.3265461635083109e-03 -6.3236361304348940e-02
      -1.2551904185622187e+00 2.7099006402729897e-01
      9.5535819878827200e-01 4.7055056443443050e-01
      -2.4761034949065169e-01 8.8526792832999002e-01
      2.1648299700224918e-01 1.9512191765938407e+00
      -6.8992181558151233e-01 1.9634020457481622e+00
      8.3315685063283085e-01 -1.2767758588797300e+00
      6.3447641257267151e-01 -9.2098789823040345e-02
      5.7603001292592493e-01 2.5565780818849937e-01
      -1.1422828941586072e-01 -2.9638281060438115e-01
      9.9522110828977717e-01 8.9529190885004106e-02
      -2.8240654417021265e-02 1.1644943735035584e+00
      5.3826405648575970e-01 9.7339753205949664e-01
      -1.0037618284540706e+00 5.4784376452543471e-01
      9.5269548360799539e-01 -1.5258352513403703e-01
      7.8516730112203434e-02 -5.4725897629194364e-01
      7.5281729733925462e-01 -4.0173200889798594e-01
      2.4907491075688243e-01 -1.1464339702519444e-01
      1.3014210669688830e-01 -8.4815613074037344e-01
      -7.5405042669136635e-01 -3.5555911403071561e-01
      -6.2780661825461281e-01 1.3385816980522969e-01
      2.0420560032006227e-01 -7.2192269659357478e-01
      -5.8614749916196129e-01 2.9871180310579609e-01
      3.4417248235779685e-01 -1.5651265770283149e-01
      -6.9090743918048314e-01 5.6346134846684093e-01
      -1.4039998106238807e-01 7.9833917474461857e-01
      2.6190242874907553e-03 1.6925398325387836e-02
      -1.9350734139992526e-01 -1.2506403574966238e+00
      -1.4068505451879167e+00 7.4661411343227746e-01
      -9.5801993561765708e-01 -1.6317150389822670e+00
      -6.3251208594013220e-01 -6.6719950220174751e-01
      6.7006296301501317e-02 1.9648247753648669e+00
      -6.6016809201362336e-01 -5.6546382921666194e-01
      9.7542193478722261e-01 7.4806936258888823e-01
      4.6649335578340423e-01 2.7685558008413974e-01
      1.2577275445696698e-01 -6.0146873897168418e-01
      2.8121641743488957e-01 -1.3141228430514285e+00
      -5.3601697976816887e-01 -1.3515047960444324e+00
      -4.4582948339226786e-01 -1.8352550707411533e-01
      -5.9197757395122330e-01 -4.7363773751133398e-01
      3.5949765687037472e-01 -3.7873872816875781e-01
      1.3460504668326972e-01 -5.8768055169519695e-01
      1.4350746524506217e+00 6.3933149578441456e-02
      4.2863814865521288e-01 -1.7520428730470594e-01
      1.0264864227190273e+00 1.1011162237013734e+00
      1.4334997454882095e+00 7.9933756517974530e-01
      -8.8427775670572850e-01 -6.9325335732348092e-01
      1.0587932579821508e+00 -6.0867304027596536e-01
      1.5847851275031040e+00 -1.1702349229034135e+00
      -1.3106949378186750e+00 5.4747328698408215e-01
      1.1085942912914908e-01 1.3859855599442086e+00
      7.9485610630020997e-01 1.5724978558599229e-01
      7.8794935482498230e-01 -1.2978173034889295e-01
      1.5954695064399638e-01 -9.5867032499050298e-01
      1.0274486004784393e+00 -1.0042440330731608e+00
      -4.4133309067939136e-01 1.5989407396743431e+00
      -4.5293285339675582e-02 6.6622216920551494e-02
      -9.9131482237407242e-01 -2.9466604502297750e-01
      1.1168347901117537e+00 6.0569785993753671e-02
      1.8848235502147657e+00 8.1963079160672014e-01
      -3.2953749129500137e-01 -5.9502921275945775e-01
      5.8176516060604910e-01 -1.7603679910524864e-01
      -1.1975242429276937e-01 1.9907141681570972e-01
      1.9564841249595164e+00 -3.7117893028556814e-01
      -5.8570722343751672e-02 -1.2867017270368595e+00
      -3.8379682065582954e-01 -5.3924576108766498e-01
      -2.8581097694842000e-01 5.9626456523811189e-01
      -4.3429606999400494e-01 -3.7303811103625445e-01
      -6.0930840996050596e-02 -5.9207974142349751e-01
      -6.1829894227016469e-01 2.1176685575769176e+00
      -1.4600324004322135e-01 -1.4723417875749670e-01
      -9.8287879903354769e-01 9.6878711860640732e-01
      1.0830732168953430e+00 -4.7547077140124755e-01
      -9.8372598258099131e-01 -7.2455734430731344e-01
      3.1412632134661655e-01 -7.0530602335542325e-01
      -9.7755889566765330e-01 -2.2584832649846538e+00
      2.0629077616537765e+00 4.6098645089474943e-01
      -6.7776403928937634e-01 -7.4958273754567450e-01
      -3.3617154224737766e-01 -1.8625092267112366e+00
      2.8368027928432343e-01 -4.2775902375198471e-01
      1.0943831155179260e+00 -6.8936710859671213e-01
      -5.1795533078024970e-03 -5.9946007946659186e-01
      -1.1218006433874192e+00 9.8664032516625777e-01
      1.3525607511842195e+00 -1.5497388584938060e-01
      -1.4665657359927649e+00 -3.2884992359629917e-01
      1.7952920528405841e-01 6.3632610444357829e-01
      2.1130361515170115e-01 -1.4221239403653028e+00
      -8.7138777911599671e-02 1.6998448868521934e+00
      7.0239556760152677e-01 1.3345971586716656e+00
      -1.1542110945674962e+00 5.5772240447584380e-02
      -1.6621564444420972e-01 6.8899923710657385e-01
      8.8479084186664503e-01 -7.6202051116566649e-01
      -5.5525827634980407e-01 2.9785582633396246e-01
      5.2347289278431040e-02 5.2523225241139426e-01
      -1.6626450359960880e+00 -1.3807981992908577e-01
      7.6217247353244355e-01 1.0750212656561644e+00
      -8.0552250651783286e-01 -3.9595572421387795e-02
      3.7411753953890603e-01 5.5145936874353108e-01
      -2.6827383842303093e-01 1.8517891008130074e+00
      -2.1698213664736690e+00 1.1795825660062422e+00
      7.4613150456582455e-01 -1.0702272169227556e-03
      -1.4286485165665788e+00 -9.0963112908797161e-01
      1.7387367019136021e-01 -8.8339283407373725e-01
      -1.8637749148383314e+00 -1.5018210663959137e+00
      1.9787906863052565e+00 -5.5188455496831379e-01
      -1.5967189270464657e-01 -3.0904897047712615e-01
      7.6118007353356676e-01 -7.7862428554901431e-01
      7.1015235044147784e-01 -3.9332040976301308e-01
      3.9276414279740511e-02 -1.9970066325671070e+00
      -4.2563907549612590e-01 3.3158494152143703e-01
      -2.0767488353818175e-01 1.7206681952647249e+00
      -1.2091189353364420e-01 1.1657756283878422e+00
      -6.5703724093075122e-01 1.3928284291742957e-01
      -4.5354959007719475e-01 -1.4863966823721451e+00
      -1.3443084971851078e+00 -1.1249795099213726e+00
      5.5417505773826659e-01 4.8130161849119846e-01
      2.2935157398881303e-01 -7.0243449359318436e-02
      -6.2851661062580100e-01 -5.5531378806020160e-02
      6.6910292569256657e-01 -1.7886690434163264e+00
      -5.8391355411168200e-01 -5.8433813982443272e-01
      -1.7068814156852457e+00 1.0294111723030930e-01
      8.9757756028410940e-01 -3.1842846208892017e-01
      -2.4639452097403276e+00 -3.9355785471760124e-01
      4.4401983749333879e-01 2.7398645849047951e+00
      -9.5862660019581569e-01 -1.1628096652379998e+00
      -1.3865553550674323e+00 -1.7597925818215658e+00
      -5.1963072945256650e-01 -1.1697113602860725e+00
      1.1516803688942423e+00 1.3781101400010596e+00
      5.2355344397889608e-02 1.7154845154680512e-01
      -1.0208201035553664e-01 8.2656160258710198e-01
      -6.2655522929868379e-01 2.1798933660674242e-03
      1.2061600285156387e-01 1.9638310903359095e-02
      -1.4424760911785919e+00 -1.0898161595947382e+00
      1.4353935442134023e+00 3.0031872853899733e-01
      7.0992095744373773e-01 -3.2091153014429696e-01
      -6.0602215243054247e-01 1.6146624953048008e+00
      1.8424788963453564e-01 -4.8849759377973812e-01
      1.1320163161438019e+00 -8.8061235321229170e-01
      9.1412252855635323e-01 -3.6672721695476962e-01
      1.3080824261867736e+00 -1.3638626305054564e+00
      1.5946424470402480e+00 -4.1460814745923275e-01
      -6.2958078831334396e-01 1.0344432240588157e+00
      -5.2027243594783779e-01 -1.7564086683071303e-01
      -3.0614722222205054e-01 -8.1269337820319287e-01
      -1.1741774581658530e-01 -4.3902949133086394e-01
      2.4181169549464526e-01 -2.3759784276376242e-01
      2.0593396458306371e-01 -4.5791067037446315e-01
      1.1362069050264774e-01 1.6679035433389433e+00
      -1.0541957821485266e-01 -2.9911069555504088e-01
      -1.9317184881414065e-01 -1.1553389406085990e+00
      -5.4787494661838054e-01 -8.9517122650165704e-02
      -7.6228342635173074e-01 -1.4741405593683521e+00
      -1.6046876450158620e+00 -7.7946225431790628e-01
      -3.5521646832227866e-01 -1.1803134981396948e+00
      -9.2904344227612601e-01 8.0126812476189635e-02
      -3.5375274079262492e-01 -8.7850565936782421e-01
      -4.9312874592151251e-01 5.4767966447879812e-01
      1.8847826295568346e+00 -2.1971095820018008e-01
      9.0841907771858951e-02 -1.4996165267516887e-01
      1.1723912661658205e+00 1.1570912356933303e+00
      -5.0320701725412875e-01 1.2544475750022865e+00
      -6.2418878046120396e-01 -7.8144598373450569e-01
      1.5330170468861096e-01 9.1570207109824064e-01
      -5.9632162777396736e-01 8.4383834984786674e-02
      5.6048023011167436e-01 5.6340275272725937e-01
      6.4908699710621520e-01 -9.8584348103645680e-01
      -9.1452799871880652e-01 -2.0764269678033069e+00
      1.4408809540447973e+00 6.9764714113441498e-02
      -8.2321099553373467e-02 -3.5165285225979967e-03
      -1.5760687911898927e-01 7.3855922808719277e-01
      2.3736057990865558e-01 3.2300856689462393e-01
      -2.1468493244630252e-01 -1.1476484575335386e+00
      8.7043614234300692e-01 5.0236287347985764e-01
      -1.7530565171216563e+00 -1.6271027934972699e+00
      7.4986209711246021e-01 1.9902661200059020e+00
      -7.2714270271584402e-01 -7.7939556347632477e-01
      -2.1935941999083775e+00 4.3860727167722358e-01
      -1.2149202337846590e+00 3.2247720283160713e-01
      5.4394928700988143e-01 -3.8003625473364072e-01
      -9.6174055467260799e-01 -9.1972972962219368e-01
      8.0622629676525126e-01 2.2887310182890408e-01
      6.9300555406278652e-01 5.4378986602688265e-02
      -2.0069538513079413e-01 -4.6878535570514102e-01
      1.7226017130132940e-01 -1.7582802193999487e+00
      -5.1456766704145829e-01 -1.3102549155259235e+00
      -1.1051616796402639e+00 6.3662528827354359e-01
      -3.6405311136235505e-03 -1.8357681010550508e+00
      -1.3194370242109839e+00 -1.0665151780248723e+00
      4.0007653496917628e-01 5.5366832881221628e-01
      -1.8496693374076010e+00 1.8473676809025712e+00
      6.6864304498116078e-01 -1.2976240706717720e-01
      3.0905910717775076e-01 4.4321151581579332e-01
      4.4980527191257280e-01 2.9132411447872686e-01
      5.8459155863351187e-01 -3.2767665947406865e-01
      6.8939077215314715e-01 3.9453330200912340e-01
      9.8054352794496813e-02 -2.5478117900395159e-01
      -1.0014712505049397e-01 -9.9960224098246442e-01
      4.4689033528509992e-01 -1.1216580326191432e+00
      -1.3122313453838437e+00 -1.8828284407627629e+00
      -1.1743961779289169e-01 3.3494112124031039e-01
      1.3455891839692252e-01 9.7384205348136432e-01
      1.2775509681577973e-01 -4.2726802884358556e-01
      8.8750126122812822e-01 -1.4144552427207704e-01
      -7.3665958748671490e-01 -5.1000010324837508e-01
      7.0807507378296275e-01 -9.5422146810025893e-02
      -3.3632968786106338e-01 -4.8038026846575224e-02
      -1.5166776201515661e-01 -5.2428456847042681e-01
      4.9332015505638738e-01 -3.4713584900657174e-01
      -3.9619782211442922e-01 1.2305402233949152e+00
      2.7939681056056456e-02 -6.3957407893624385e-01
      -9.3795404937737470e-01 7.0698412759543983e-01
      -3.1800108800923832e-01 -2.2140699086012855e-01
      -7.3050091335270495e-01 1.8953188734641491e-01
      -9.0879196650303429e-01 9.1379054058383799e-02
      1.8508511321523621e-01 6.3894451981660694e-01
      -3.7901438523329717e-01 -7.7329243592875885e-01
      -4.8859828867750837e-01 3.7205351961300587e-01
      5.5989261036126475e-02 -4.6552012715899305e-01
      6.8180911307263070e-01 -6.8740510660407561e-01
      2.6826973306552926e-01 -7.8997758727910283e-01
      -3.9907121942406359e-01 -1.1574557311219090e-02
      -1.6346375283876255e-01 1.1469946566989404e+00
      -1.5591508051067604e+00 -2.1669790858061003e-01
      -1.2720875436243659e+00 7.3918745057732727e-01
      4.7054126673612640e-01 4.0651720295232879e-01
      2.1980516951377105e-01 1.0391882773941412e+00
      -1.0591299443238948e+00 2.2586224151177847e-01
      -2.1138322897584272e-01 -5.0215020811098354e-01
      7.5319385942927586e-01 -2.4823004219690374e+00
      5.0220878015932979e-01 -1.3195553112213860e+00
      -1.3389443550451993e-01 8.6774912439965401e-01
      7.5732596324745638e-01 2.6263011671369463e-01
      2.3455014599106402e-01 4.5489284671206265e-01
      -1.0513791054074033e+00 -2.3160751915200684e-01
      -5.8946384015215691e-01 -7.3928028816835556e-01
      1.9378880140473362e-01 7.8719886534780326e-01
      -4.5999695857850596e-02 5.9117704460749210e-01
      2.9035553394887853e-01 1.2973526798422508e-01
      -3.4580083987496485e-01 5.8970622413100936e-02
      9.8163820856168060e-01 -1.6399731202743708e+00
      1.0836608811385379e-01 -4.9481580663643926e-01
      -5.1962446351487090e-01 1.0809070641544385e+00
      -1.8772652286423203e-01 -1.4835929775365037e-01
      -1.2968571101225645e+00 -1.2092940151249214e+00
      -1.0747084923588535e+00 -9.6804959302851407e-02
      1.8006368871749980e+00 -6.7121708995936002e-01
      -6.8286713346035555e-01 7.7733713358253825e-02
      7.9637107956231617e-03 9.8792616177295289e-01
      -2.4171683484440476e-01 -4.5718319931849066e-01
      8.5077695298553524e-01 2.8845934591483474e-01
      -3.9126028555772868e-01 -1.2433887609947178e+00
      -8.2341016119882940e-02 -8.7534023117048321e-01
      1.0173988609394278e+00 9.3684908457969146e-02
      2.4601939366554915e-01 1.0270472521517928e+00
      1.2440597732611387e+00 -2.7635598500851732e-01
      1.6615031764169175e-01 2.2576517454033829e-01
      -1.6413830742867647e-01 3.8900706376404737e-01
      2.0304246833267620e-01 6.6382436069982942e-01
      -8.8056816131125326e-01 -8.8607944017763812e-02
      -1.0189476795575499e-01 -5.9362688359017181e-02
      -2.8356616312259464e-01 -1.6222314720809259e+00
      6.1658944081526612e-01 -8.1214418142962475e-01
      -7.2028666021060761e-01 -1.1998743937903824e+00
      -1.5778097479672448e-01 1.5710600826083729e+00
      3.3769821211028411e-01 7.7793238720512958e-01
      -2.9023717579645886e-01 -1.0427194673792106e+00
      9.7589903227994157e-01 -2.4660180330240433e-01
      1.7531358935173877e-01 1.0174752410312942e+00
      -6.6774290361735533e-01 8.5177762240920096e-01
      -1.2666463792528709e-01 -2.8792602888923402e-01
      -4.1482847206211948e-01 4.7155736559512096e-01
      2.7259545651041728e-01 -2.5536669963907210e-01
      3.4491191973616425e-01 -1.9926139243500807e-01
      -9.8076261673208520e-01 2.8878209838440183e+00
      -1.6617918253257669e+00 6.3277356885306002e-02
      5.1053858643568117e-01 6.6806505616971601e-01
      1.5718356519688266e+00 1.2106199998574367e+00
      2.5281342676163265e+00 -4.4406139849441983e-01
      -8.6853632700787076e-01 5.5451803056383575e-01
      -7.3764369195163859e-01 3.4907612574734537e-01
      6.7036549346552343e-01 3.4367299313855110e-01
      8.6056308549581795e-01 6.9961520185730575e-01
      -1.7194991121566477e-01 -3.7867526927059436e-01
      1.2172973928639355e-01 9.9565949070168724e-01
      -3.0536137244273126e-01 -5.7737665828026807e-01
      -5.6094459899165061e-01 1.0726486270111679e+00
      -9.8830711979492292e-01 -9.1734909331633996e-01
      -3.8662950335244017e-01 -8.2984292592987841e-02
      -1.0054375643066262e+00 3.5842567948342269e-01
      -1.9758081773246422e-01 3.4542980088397579e-01
      -1.1129946908770443e+00 2.2603701021653128e-01
      1.1698955925180305e+00 -3.3448799188777689e-01
      -6.5188163892412387e-01 -4.6356908971837202e-01
      1.4584273663034056e-01 -3.3967226650923338e-01
      -6.7278346740933881e-01 -6.3267699149423806e-01
      4.2887486612784395e-02 -7.9788604777656602e-01
      -4.8208596183935459e-01 -6.7631250627550155e-01
      1.1973747076062935e+00 -2.7531979022737817e-02
      -5.5781003457944112e-01 -4.6486737727184491e-01
      2.8867062914943781e-01 -3.7858658104794651e-01
      -1.5633946509440924e-01 -6.1570517173568595e-01
      7.7204371265884386e-01 -9.2333212474824256e-01
      8.6311755132726570e-02 4.7820974704944466e-02
      5.4244797830727154e-01 1.0027720130290736e+00
      -4.2411445005425563e-01 4.5699402269236178e-01
      4.8031103477768838e-01 6.6549917681015258e-01
      -3.1716958527597860e-01 1.3743838038009049e-01
      -2.9449986236263853e-01 -2.8106037542651352e-01
      -1.1523713069406385e+00 -1.5249903855159714e+00
      -1.3256986129764912e+00 -7.1988019681845361e-01
      -1.7880426655059178e-01 -6.2839883430755494e-01
      2.0241987326197690e-02 3.9156389463504838e-02
      1.0493617479850945e-01 2.8616363636967579e-01
      4.4573344898304512e-01 3.8853241511854147e-01
      -6.0092887542101558e-01 -2.5136951323926893e-01
      -2.9672973561565075e-01 -1.1830299298191521e-01
      -1.1141629682187073e+00 1.0635149209063959e+00
      -3.5279723489168863e-01 6.2654124879343975e-01
      8.9313425458071409e-03 -8.9741344098476927e-01
      6.2623849529756281e-01 3.2809498822810174e-01
      7.8900849190056377e-01 -4.4566291014936632e-01
      -7.3783846607971204e-01 1.2162891454885805e-01
      1.1036166423462969e-01 -6.7049129443382538e-01
      -4.2603316263331242e-01 -5.2044412990971556e-01
      2.8952756838670879e-01 6.1669175811565313e-01
      -1.5479864272070240e-01 4.5935018317179721e-02
      2.2051296046025519e+00 -9.2794084657818154e-01
      1.5894150792905193e-01 8.9458814044174317e-01
      -3.8548978390286280e-02 1.3068657915866482e+00
      -1.0035924351267695e+00 1.7638138811217977e-01
      1.1257791577021241e+00 -3.8952616222603714e-01
      5.1025111358426589e-01 -1.9326590069815813e-01
      7.3307468801104214e-01 -8.3500584881076689e-01
      -4.8146976969439023e-02 1.3560012926947966e+00
      1.2075759521796809e+00 -1.0647157692135960e+00
      -1.1877355253522316e-01 -2.9343989028830220e-01
      -2.1542638561149872e+00 1.0879480871372300e+00
      -1.2008241452066792e+00 -1.3057814472082196e+00
      -6.4100778957203131e-01 2.7306873249910130e-01
      1.4831919430965518e-01 -1.0653890389271679e+00
      1.2907164298824914e-01 2.6255226667275350e-01
      -3.4615699860177979e-01 -7.5291837745694408e-03
      -1.8148199128799380e+00 -2.9074521107507001e-01
      4.0464216915707796e-01 6.0722945694230224e-01
      -8.1103174556108193e-01 1.5971978460029176e-01
      -3.0084193001720533e-01 -2.7834330682067271e-01
      5.3335693278438912e-01 3.7373517190192140e-01
      1.8491565822548495e-01 1.8563082871369721e-01
      5.9010122255734465e-01 5.7318810480805893e-01
      7.9950154142196139e-01 -6.1326329952551351e-01
      4.9295999384208222e-01 1.8034785086308902e+00
      1.7803308135734891e-01 -2.2352745811922517e-01
      -2.2983854900550513e+00 -1.8108520790978790e+00
      1.9206638926377053e+00 -4.8240660156378901e-01
      -1.7324509949712363e+00 -6.3347753039696186e-01
      4.5059152043069911e-01 6.0956646519519202e-03
      -1.4630877238367748e+00 1.4660370788878172e+00
      -1.1125958505837668e+00 4.2308756318095903e-01
      -1.1311791870622490e+00 1.7086488138163889e+00
      1.6442072253399094e+00 -2.2769736507248330e+00
      -7.2900771701898259e-01 4.3228934283668981e-02
      -7.4114212687837822e-01 -8.3620448305669792e-01
      -1.3384465818274989e+00 -1.1648308750843010e-01
      -7.3889805545787252e-02 1.0197689953631426e+00
      8.2820736742602041e-01 -2.6309588738725114e+00
      -5.6809950058949321e-01 2.9806958103401435e-02
      -1.5775457477228219e+00 1.0698289015203050e-01
      -5.8486934114483558e-01 6.0740427894186544e-01
      5.3999481598292254e-01 1.7457802252766699e-01
      1.3861546246609073e+00 1.2565697287587014e+00
      -2.2786474724321229e-02 -2.0776603159316989e-01
      -1.8932726171521341e+00 -3.5723281980827865e-01
      -1.8387648430048706e-01 -1.4674134333167097e+00
      -1.9987155863847489e-01 1.0841431623733027e+00
      -8.9055833911868909e-01 9.9366238923097983e-01
      8.5993074491360219e-02 7.5976722255961759e-01
      3.9043911949399140e-01 8.5935233192654026e-01
      -8.5629850517914163e-02 -8.4369620172538018e-02
      -2.3752741400584979e-01 2.2727354969652958e-01
      -1.9615960671289837e-01 -7.7038429316792456e-01
      9.9403624620965225e-01 1.0149538840517958e+00
      -6.6606540974034190e-01 -5.8969489006543518e-01
      -9.8894782868438766e-02 -9.9660578816601886e-01
      -6.1746979196545884e-02 1.0115505146871598e-01
      7.5252439417600681e-01 -3.7599104781899245e-01
      8.6752233123577827e-01 -5.4752052494237280e-01
      6.6838620187658027e-01 -7.3332668287860392e-01
      -1.2993969348658194e+00 -7.0776952394040060e-01
      4.8186319988709075e-01 -6.5389836151826664e-01
      9.3711154221234239e-01 -1.4322606561885924e+00
      1.1077298003571463e+00 -1.1163785694736730e+00
      4.2827805375389266e-01 -6.4696335687099560e-01
      -3.4939135999860599e-01 8.6110381089844901e-01
      -3.9203575436505439e-01 2.2441798990834086e-01
      -5.6149540747148452e-01 9.0518743388672762e-01
      4.5059416143107234e-01 -3.4305086374619059e-01
      -9.2805016531817097e-01 6.7604806836786069e-01
      1.1108312982051252e+00 -1.5576599745902202e+00
      -1.1209509611363384e+00 -6.2489776840158273e-01
      2.7712531373979460e-01 8.5289326518733077e-01
      1.7678859333575441e+00 9.6325895070055789e-01
      -6.8303678949138925e-03 -1.7907963430138701e-02
      -3.6400173442980960e-01 3.1718668652423770e-01
      -3.7746216535099253e-01 -3.0311547015633189e-01
      7.7265751330219151e-02 -6.6574582179433228e-01
      2.1517052557456276e-01 1.0988535983533251e-01
      -2.4147290489057122e-01 4.6110174581663999e-01
      -3.7023786120659385e-01 2.0529713567921094e-02
      -3.1125770969023475e-01 -9.9861174906287209e-01
      1.4293377494617782e-01 4.8566640689095586e-01
      6.3287348522263268e-02 8.8929232023272891e-03
      1.3409805097330656e+00 1.0595928510949932e+00
      -1.6425676128676561e-01 4.2040650960027987e-02
      -5.6702170736027802e-01 -2.0063191226057842e-01
      2.1688951467889442e-01 -3.1609276342085629e-01
      -2.2212781210963634e-01 9.9768661832523184e-02
      1.8515704284270547e+00 -2.2057138232860365e-01
      7.8675951156929913e-01 3.3657775343685392e-01
      -6.9447663483448907e-01 -3.6778309068940013e-01
      6.5093490469648485e-01 2.9540332737181352e-01
      4.3444207893423337e-01 9.9299951419718491e-01
      -7.0012045161854386e-01 4.9684878711216751e-01
      5.6769933871029654e-01 -1.1105258827885007e+00
      -4.0300704534550935e-01 -5.7470555742675955e-01
      -4.5877392167963954e-01 9.0283265854784744e-01
      9.7768640282139851e-01 -5.9768247584613821e-01
      -3.5350483540693040e-01 -4.7193927311348145e-02
      -5.2179180334538633e-01 4.6353965235395517e-01
      8.0987366576634467e-02 1.2789768451824466e+00
      -7.1711083040863799e-01 4.1497225149309630e-01
      8.4842614855464804e-01 -1.1990416056524409e+00
      4.2846547243666211e-01 1.1844467364763263e+00
      -8.2787132226979254e-01 -2.9294113904024988e-01
      5.4271618160346469e-01 -6.1975049213273747e-01
      -3.5619895082651348e-01 1.9553277270071542e-01
      5.3786729217986973e-01 -4.8440861473419294e-01
      1.6352322980326872e-01 -1.2100795922173259e-01
      1.9838688993485507e-01 -2.1821157275224778e+00
      -9.1832107370615501e-01 -8.6199541132807955e-01
      1.5909355689521096e+00 3.2413278039150822e-01
      -7.5500732113325808e-01 9.1549287212286423e-01
      5.3505870408062761e-01 1.1019796580845658e+00
      -4.5569393668076452e-01 -1.2032308515453820e+00
      2.0717807204995373e-01 -1.4817943737812838e+00
      -1.6023828747363063e+00 -1.0423748328016684e-01
      -6.5236342362583433e-01 -2.2179432875567882e+00
      1.0809909421563773e+00 -1.9902960655773846e-01
      -1.8066840005954354e-01 2.0592631696866781e-01
      -2.3290597498651772e-01 -1.7388614345144169e+00
      5.9033590407544367e-01 6.8723514507210454e-02
      -3.7036308557388814e-01 -6.2078324034164911e-01
      -2.3247135162173724e-01 1.4201167272490289e+00
      1.1848612170486652e+00 2.2412590202828914e-01
      -7.7758601714784659e-02 -3.7039667938571380e-01
      7.0149603260500899e-04 -7.4399010730174042e-01
      3.0158556822019977e-01 6.5742243664918443e-01
      2.3253715137169087e-01 6.8821443622474110e-01
      -5.6082250140420724e-02 9.2690986835746580e-01
      -6.4847951606505960e-01 -5.8962100286541519e-01
      -3.4629419823836194e-01 5.2911021559232563e-01
      -2.6914677455838443e-01 4.7494177637700002e-01
      4.5312759240515033e-01 -7.9971363882475799e-01
      1.2803077323564999e-01 2.1254878576488057e-01
      1.4939979671142392e+00 -2.7113680739583219e+00
      9.9693024729728175e-01 9.0728506732790204e-01
      -1.3542664101906592e+00 -3.8443120900836736e-02
      -1.3447402996060251e+00 1.3464843765449719e-01
      -1.2054128078489565e+00 9.4800153816557131e-01
      -6.3221950564488116e-01 7.6425233267093950e-01
      -1.8801913870339224e-01 -6.6022008425842493e-01
      -1.6303049966886443e+00 1.3511456721810619e-01
      -1.0220261434111237e+00 -4.8154373067607704e-02
      6.3890368979265733e-01 -5.7070280998133438e-01
      -3.4970589214799647e-01 4.4810494633822079e-01
      -8.3374777267148981e-01 -7.8492389878867463e-01
      -1.6884297187351735e-01 1.2740822986162129e-01
      -1.1377727819208643e+00 -2.3293471929287136e-02
      4.9172469101681393e-01 9.8776233222114773e-01
      5.7228572351042684e-01 9.7906195902563464e-01
      1.1099348674663601e+00 3.5325176865872232e-01
      1.3065215807735417e+00 -8.3631424333366677e-01
      1.8148748948436875e+00 -5.4897819764892819e-01
      -2.6216022585622317e-01 2.8729621472071698e-01
      -6.8645932372489907e-02 1.0104957302120716e+00
      -6.5528013526192652e-01 -5.4480986044468660e-01
      4.4884976690674533e-01 9.1470396287724709e-01
      1.4984703067640257e+00 -1.7387351014587946e+00
      2.0186721551447598e-01 -1.1861265828061898e-01
      4.6890112585109378e-01 9.3519390124547996e-01
      1.6718132172462816e-01 -1.5172746544660190e-01
      8.4454320451900688e-01 1.0952271070841548e+00
      -5.5002411043960009e-01 8.1417272412066932e-01
      -3.7770972930630270e-01 -1.2975769548402480e+00
      9.2729245718261577e-01 -1.0559926340314920e+00
      -8.7558486788696677e-01 8.1182939693828282e-01
      1.4230203003199751e+00 2.7728600363837393e-02
      -3.0877146141358863e-01 -5.9838665177789511e-02
      -1.1669798740675212e+00 1.1979873322984951e+00
      1.7852128045016202e-01 -3.4147699703071327e-01
      -6.4184268422185653e-01 4.4965751396147785e-01
      -5.6933269368143458e-01 -8.0100471245597937e-01
      5.8101935840122110e-01 1.6166330270538001e+00
      -6.2638377874177043e-01 -1.9802468039985497e+00
      5.5757515689405912e-01 1.6232353633321104e+00
      -8.9217697555017017e-01 -7.1072240378053186e-01
      1.1959380761564773e+00 1.2616731110038975e+00
      3.2379025380557619e-01 -1.0112293262001979e+00
      1.9506161508819003e-01 -1.2273233152619558e+00
      2.4770155985386394e-01 1.9399063363908500e-01
      -1.9067397822455406e-02 -3.0930669946077843e-01
      -6.7597980016123982e-01 -8.1710338456188980e-01
      1.6898529068920154e-01 -1.2275829580709499e+00
      7.2927418518865172e-01 9.0285523153294842e-02
      9.2356580876324978e-01 -2.7649220566353755e-01
      2.6824493574363745e-01 6.8387758725441217e-01
      -1.2414387321627893e+00 -4.0771361533479866e-01
      -5.9681583869400359e-03 -4.4587388611916484e-01
      2.4256496870011248e+00 -9.2779009010159286e-01
      3.2158642751754835e-01 2.1193344314648699e+00
      2.0078948277539085e-01 4.1509907394436107e-01
      -5.5150215381565215e-01 -1.0962060901381367e+00
      6.4512791400754621e-01 -6.3039323778903211e-01
      3.0678281564849721e-02 1.2539375034442022e+00
      5.7818453695551975e-01 -6.2222027538440883e-01
      3.5175129217775974e-01 -8.1769592155673221e-01
      7.1824791061503701e-01 -2.0798523008839460e+00
      1.0594984503685978e+00 1.4558608159466890e+00
      -9.8786358270309283e-03 1.4822811510888381e-01
      1.2417997555065825e-01 -7.8321613578173910e-02
      2.6536825612407694e-01 9.0330530034814516e-01
      -6.3702441021379272e-03 2.5184134764680804e-01
      2.8494454227943222e-01 -3.6655723271947088e-01
      7.3622387502559872e-01 7.4459665144272447e-01
      -9.6323897250847154e-02 2.2956518319525028e+00
      1.3876641241785470e+00 1.5678583249111577e+00
      -1.2008975331268830e+00 3.3431144897169512e-01
      -2.3747863489716869e+00 -1.0815001248585199e-01
      -1.5588577729596534e-01 -2.5972243822275431e-01
      -1.8000407999168984e+00 -2.3254085213056133e+00
      8.1557571245956961e-01 -8.2583082284720699e-01
      -7.8559771851736726e-01 3.9798667387234271e-01
      -7.6800981153088244e-01 7.9059799299127737e-02
      -1.0462738758054380e+00 1.6083436328867178e+00
      -4.9576222927188252e-01 -1.7729836275800298e-02
      8.2049743052819335e-01 1.7548534942439356e-01
      4.1558274868905509e-01 -5.1199562833361423e-01
      6.1709992254573109e-01 -5.8349798297815292e-01
      -3.1149127498810847e-01 -2.1616664502571727e+00
      -1.6087603783225044e+00 -5.8509055054354120e-01
      -1.8251837451468280e+00 1.0757570890529129e+00
      1.0890932323212981e+00 4.0000534935872584e-01
      4.4179442052545599e-02 -6.5609920056369397e-01
      -1.1792027739050968e+00 6.3308154694503335e-02
      1.6042087016252322e+00 1.8050345921021582e+00
      5.6941286412242775e-01 8.9332205062318337e-01
      1.2205391136728658e+00 1.8375818383494638e+00
      -1.0345911303213486e+00 8.5355180026007893e-02
      -1.3959197339582201e+00 -8.9588039629325922e-01
      -5.7858227697760356e-01 -1.4301640248091654e+00
      -1.6939075268552781e-01 2.7746288443551059e-01
      -1.1370480910975189e+00 4.6564668515217855e-01
      -1.7988510462846103e+00 -1.2310525723494397e+00
      -1.6243027841602269e+00 -3.1999122923633949e-01
      3.5504413382727751e-01 -5.2156617536163075e-01
      -1.8848249175221370e+00 1.2670801351983165e+00
      -2.0142022432157405e+00 -7.3055506096015121e-01
      -1.4097212567065980e+00 -5.2113469617304176e-01
      -7.4651842777642941e-01 -1.3178818755127344e+00
      -1.5637973828227381e+00 -1.2017208410290912e-01
      -8.2541589933850981e-02 -9.0113762521621743e-01
      6.2113333308538010e-01 8.0131146827161859e-01
      9.1501724688463515e-01 -1.1678845452719917e+00
      -3.7283905368990816e-01 7.6647108654829954e-01
      7.0742734757587478e-01 8.7590855766032771e-01
      -1.0409424208106777e+00 -1.4765860280072024e-01
      -5.5599749419090261e-01 -8.3421391656989163e-01
      -4.2470896228798743e-01 1.9134843948090915e-01
      -3.7505396895727605e-01 9.2016918333359410e-01
      5.6083746692005318e-02 -1.3428618962365524e+00
      -6.6808353632361039e-01 4.6896303717552523e-01
      5.0440177123160657e-01 2.1399841013083248e-01
      1.9222444368078609e-01 2.8912928945985533e-01
      -1.0338420851528678e+00 1.1985614425622486e+00
      5.3600131674747342e-01 -1.2476413549583878e-04
      8.9964437053807911e-01 4.9663279093184837e-01
      3.0109911677148216e-01 -1.1975227588427686e+00
      1.3681087401670387e+00 1.9725289132902360e-01
      -5.3297053043893272e-01 3.7712461479943332e-01
      -7.4092526869543662e-01 -1.4852850485966620e+00
      -5.3534324721066173e-01 -1.0182490230539170e+00
      -1.9807976294406776e-01 1.6453907826634900e-01
      4.4365263182246223e-01 -1.2959682574835536e+00
      7.7354020636039089e-01 1.0782937243906145e+00
      -1.7010330131020981e-01 -8.9383945634185324e-01
      -1.0092969971742936e+00 1.2861702255132972e+00
      -2.4716839615236177e-01 -8.3868399732557442e-01
      3.2172901835925451e-02 1.0320225441648436e+00
      6.4025550051262237e-01 -5.7371414966870049e-01
      -7.1448157502266896e-01 1.8963391204812666e-02
      -2.3335745246228054e-01 -2.2889520752337453e-01
      -4.2685476881940693e-01 -1.9580195389529734e-01
      9.7625800246081007e-01 -1.9992560674403443e+00
      -1.9681025780187278e-01 -5.3203178407320584e-01
      -1.4107971872997869e+00 1.2458161307936748e-01
      3.9730938547890615e-01 -1.3509487506057232e+00
      2.5757881692925533e-01 -8.9606327828771237e-01
      7.4386630734960790e-01 2.3175774840297911e-01
      -4.0262976831136060e-01 1.8572692250488709e+00
      -8.9665245273943150e-01 3.0092670892540319e-01
      4.5464187601340256e-01 -1.5347130584634909e+00
      -9.1662949147134376e-01 -1.6503062353789719e-01
      -2.3981341841964776e-01 5.8811770909889438e-01
      6.0514481383186147e-01 5.9069770680816769e-01
      -3.2569405484476177e-01 -1.4550031372881471e+00
      2.8598142119248660e-02 4.2709877136215529e-01
      2.2600638375917197e+00 1.3171330718229453e+00
      3.0048531343456031e-01 2.5158479488520406e-02
      2.8007823889124384e-01 -2.3330596798748941e-02
      -1.3180011433374184e+00 1.2017815213914755e-01
      1.0842357416849013e+00 3.1353932692014086e-01
      -7.1286398768645831e-01 4.3924523782440950e-01
      -5.2539788758776929e-01 1.3318623882520548e+00
      -1.3632319145899034e+00 2.6890859949736212e-01
      -3.5126720290264080e-01 -2.0551688184138488e+00
      7.3996096564049829e-01 -1.6025027813290896e-01
      2.8388371425937431e-03 4.6260096169125997e-01
      1.2082753258774463e+00 -1.1936828412576808e+00
      5.7274909186766521e-01 1.2577958791071997e+00
      -6.3970796753560419e-03 -4.4593508568644841e-01
      1.5573284806498553e+00 4.5642215207631526e-01
      4.5255352412559285e-01 -6.4126990362010042e-02
      5.7721971042286069e-01 -1.3978932436958180e+00
      -3.6341872780886081e-01 3.2587553794850027e-01
      7.0774279003616680e-01 -6.0366543137950035e-01
      1.1158515144614825e+00 -2.1668124301824856e-01
