<?xml version="1.0"?>
<opencv_storage>
<opencv_ml_ann_mlp>
  <format>3</format>
  <layer_sizes>
    108 68 34</layer_sizes>
  <activation_function>SIGMOID_SYM</activation_function>
  <f_param1>1.</f_param1>
  <f_param2>1.</f_param2>
  <min_val>-9.4999999999999996e-01</min_val>
  <max_val>9.4999999999999996e-01</max_val>
  <min_val1>-9.7999999999999998e-01</min_val1>
  <max_val1>9.7999999999999998e-01</max_val1>
  <training_params>
    <train_method>BACKPROP</train_method>
    <dw_scale>1.0000000000000001e-01</dw_scale>
    <moment_scale>1.0000000000000001e-01</moment_scale>
    <term_criteria>
      <iterations>30000</iterations></term_criteria></training_params>
  <input_scale>
    8.1082482002935716e+00 -1.9902613331329777e+00
    8.6363532492724016e+00 -6.6722906671875148e-01
    7.9756221207979223e+00 -1.8464213801751237e+00
    7.1464111013421823e+00 -1.7322078031795496e+00
    1.9624513098155226e+01 -7.4837617921946709e-01
    7.4370959815617539e+00 -1.7500593016329105e+00
    1.2194051424147618e+01 -4.4893201823277815e+00
    7.5578356170348835e+00 -1.6775408328451840e+00
    1.0814012613844332e+01 -3.7777290598186446e+00
    1.0213242023688920e+01 -3.6618584867098942e+00
    8.0969209450705772e+00 -1.5495719794014473e+00
    9.7751505254363309e+00 -3.4449609989251724e+00
    7.5257402275352581e+00 -1.6484451314185655e+00
    1.6493186351834435e+01 -6.8695352582760039e-01
    7.0124732004843411e+00 -1.6026070146765024e+00
    6.8825569655704681e+00 -1.5545153263845317e+00
    1.0626316481727956e+01 -6.6060704207830079e-01
    7.6306480108082537e+00 -1.7073824387278218e+00
    1.1845571337428236e+01 -4.4114548839168641e+00
    7.2779253757623206e+00 -1.4118267348460514e+00
    1.1103881557861817e+01 -3.9756042380844208e+00
    8.1263852644641297e+00 -2.8246099860890479e+00
    6.4862573652243833e+00 -1.4498097702181250e+00
    1.3846808281988118e+01 -5.2783116211019294e+00
    7.5149905578106280e+00 -1.7314148826329137e+00
    1.4206414227304224e+01 -6.8180105383159417e-01
    7.3972253564795283e+00 -1.5526672291145271e+00
    8.2411771412916384e+00 -2.0204056798001160e+00
    1.2354055819553762e+01 -8.8369439002993944e-01
    7.8964496468470307e+00 -2.0595673062764313e+00
    1.2712270111429705e+01 -4.6083454110674902e+00
    7.2434272106371571e+00 -1.2461929312945028e+00
    1.3244471465639945e+01 -4.7461502382686600e+00
    1.2786639031621689e+01 -4.7028734183416310e+00
    7.5558236275637833e+00 -1.8611686488833659e+00
    1.6282630116318270e+01 -6.1104373834445571e+00
    1.5941006853877711e+01 -4.9206284775830849e+00
    8.7969113190284123e+00 -2.1246276430249389e+00
    1.1147225773549623e+01 -2.8828929490677582e+00
    1.8399876230585757e+01 -5.7530408702425353e+00
    8.8597069606297527e+00 -1.8410388856562607e+00
    1.3586642139085514e+01 -4.0149047614258579e+00
    1.1374187867321529e+01 -3.2172818044876514e+00
    9.0661493626448486e+00 -2.2348091787135624e+00
    1.0670801752069584e+01 -3.0125457797349857e+00
    1.0521802459499517e+01 -3.0285625688827578e+00
    9.0886787142768171e+00 -2.0519783025076737e+00
    1.5359215128816544e+01 -4.6970120786487133e+00
    1.0687395157294816e+01 -3.0260550478565618e+00
    7.6022540662997873e+00 -1.5583758360569964e+00
    1.2157499890108276e+01 -3.4436436937148529e+00
    1.0109822348411724e+01 -2.9755931519620318e+00
    7.7122239869956619e+00 -1.6543273870794502e+00
    1.2282628663822178e+01 -3.5564800318282472e+00
    9.8234357920123010e+00 -2.7449960011139689e+00
    7.9647991045614761e+00 -1.7491334672130450e+00
    1.2452743173597842e+01 -3.6622103116688449e+00
    1.3547726129041155e+01 -4.1778350441392655e+00
    7.9907890748444350e+00 -1.7983607343062826e+00
    1.2618365510508481e+01 -3.8470266687369707e+00
    1.2448627558730541e+01 -3.7207591625849337e+00
    9.1982781924639205e+00 -1.6783881667578213e+00
    1.5010159729089887e+01 -4.4374126562348710e+00
    1.3724058122717928e+01 -4.0789502012678813e+00
    8.1632565501303418e+00 -1.9955507856063472e+00
    1.4889904974487964e+01 -4.5408303568313038e+00
    1.5696629354712288e+01 -4.9336894291125040e+00
    9.4138098550048603e+00 -1.7336087599111831e+00
    1.2025441743693642e+01 -3.5026200159377776e+00
    1.3700837427089759e+01 -4.2048074355776581e+00
    8.4061205854802203e+00 -2.1097299987180960e+00
    1.1659427465183990e+01 -3.1753507549322944e+00
    1.1534677306281973e+01 -4.1626624627615634e+00
    7.7804230959865608e+00 -1.7829690584009468e+00
    1.0532035421560964e+01 -3.6895025235724241e+00
    9.0156353028587652e+00 -3.0577416277045066e+00
    7.2924210329691794e+00 -1.5053991289744344e+00
    1.2440062461784063e+01 -4.5960594297145692e+00
    8.3666403432412366e+00 -2.0539378206766874e+00
    1.0609456510031125e+01 -8.5600840612337425e-01
    7.9463562751842325e+00 -1.8603107433645314e+00
    7.2399727603841244e+00 -1.6193621255534654e+00
    1.3897793473718032e+01 -8.4970756773406286e-01
    7.9422838941725393e+00 -1.8289218999971615e+00
    7.9181270760918352e+00 -2.6107796412872433e+00
    7.5586920047402959e+00 -1.5589685026269973e+00
    1.1210573021678419e+01 -4.1072567647945606e+00
    1.2662404254508031e+01 -4.7423237641546638e+00
    8.2275932463477055e+00 -1.5507393066918724e+00
    1.0626278721081862e+01 -3.8029493759760800e+00
    7.3739799899561591e+00 -1.6102044851035813e+00
    1.5363455011326842e+01 -8.8355374156462396e-01
    8.4829074513394254e+00 -1.9784281539421285e+00
    8.4016943180646209e+00 -2.1301825159139742e+00
    1.3311396517697382e+01 -7.9900175046894628e-01
    7.2058710534864581e+00 -1.8643463212122373e+00
    1.0291747459657316e+01 -3.8470772643834050e+00
    7.3524699580175632e+00 -1.1813471742877300e+00
    8.9890878104495595e+00 -3.1100706272361229e+00
    1.0576876155709019e+01 -3.8231441364111207e+00
    8.1501516816970607e+00 -1.8730851645720981e+00
    9.6622865433960978e+00 -3.3092264793922004e+00
    7.3705199640762915e+00 -1.8340783474469819e+00
    1.5050790869870943e+01 -7.3912490552095000e-01
    7.4009056908942599e+00 -1.7502710980402680e+00
    7.7265655969931331e+00 -1.9767474532701688e+00
    9.3888055404467767e+00 -8.1305128780769553e-01
    7.3633477983890154e+00 -1.7127830002946567e+00</input_scale>
  <output_scale>
    5.2631578947368418e-01 4.9999999999999994e-01 5.2631578947368418e-01
    4.9999999999999994e-01 5.2631578947368418e-01 4.9999999999999994e-01
    5.2631578947368418e-01 4.9999999999999994e-01 5.2631578947368418e-01
    4.9999999999999994e-01 5.2631578947368418e-01 4.9999999999999994e-01
    5.2631578947368418e-01 4.9999999999999994e-01 5.2631578947368418e-01
    4.9999999999999994e-01 5.2631578947368418e-01 4.9999999999999994e-01
    5.2631578947368418e-01 4.9999999999999994e-01 5.2631578947368418e-01
    4.9999999999999994e-01 5.2631578947368418e-01 4.9999999999999994e-01
    5.2631578947368418e-01 4.9999999999999994e-01 5.2631578947368418e-01
    4.9999999999999994e-01 5.2631578947368418e-01 4.9999999999999994e-01
    5.2631578947368418e-01 4.9999999999999994e-01 5.2631578947368418e-01
    4.9999999999999994e-01 5.2631578947368418e-01 4.9999999999999994e-01
    5.2631578947368418e-01 4.9999999999999994e-01 5.2631578947368418e-01
    4.9999999999999994e-01 5.2631578947368418e-01 4.9999999999999994e-01
    5.2631578947368418e-01 4.9999999999999994e-01 5.2631578947368418e-01
    4.9999999999999994e-01 5.2631578947368418e-01 4.9999999999999994e-01
    5.2631578947368418e-01 4.9999999999999994e-01 5.2631578947368418e-01
    4.9999999999999994e-01 5.2631578947368418e-01 4.9999999999999994e-01
    5.2631578947368418e-01 4.9999999999999994e-01 5.2631578947368418e-01
    4.9999999999999994e-01 5.2631578947368418e-01 4.9999999999999994e-01
    5.2631578947368418e-01 4.9999999999999994e-01 5.2631578947368418e-01
    4.9999999999999994e-01 5.2631578947368418e-01 4.9999999999999994e-01
    5.2631578947368418e-01 4.9999999999999994e-01</output_scale>
  <inv_output_scale>
    1.8999999999999999e+00 -9.4999999999999996e-01
    1.8999999999999999e+00 -9.4999999999999996e-01
    1.8999999999999999e+00 -9.4999999999999996e-01
    1.8999999999999999e+00 -9.4999999999999996e-01
    1.8999999999999999e+00 -9.4999999999999996e-01
    1.8999999999999999e+00 -9.4999999999999996e-01
    1.8999999999999999e+00 -9.4999999999999996e-01
    1.8999999999999999e+00 -9.4999999999999996e-01
    1.8999999999999999e+00 -9.4999999999999996e-01
    1.8999999999999999e+00 -9.4999999999999996e-01
    1.8999999999999999e+00 -9.4999999999999996e-01
    1.8999999999999999e+00 -9.4999999999999996e-01
    1.8999999999999999e+00 -9.4999999999999996e-01
    1.8999999999999999e+00 -9.4999999999999996e-01
    1.8999999999999999e+00 -9.4999999999999996e-01
    1.8999999999999999e+00 -9.4999999999999996e-01
    1.8999999999999999e+00 -9.4999999999999996e-01
    1.8999999999999999e+00 -9.4999999999999996e-01
    1.8999999999999999e+00 -9.4999999999999996e-01
    1.8999999999999999e+00 -9.4999999999999996e-01
    1.8999999999999999e+00 -9.4999999999999996e-01
    1.8999999999999999e+00 -9.4999999999999996e-01
    1.8999999999999999e+00 -9.4999999999999996e-01
    1.8999999999999999e+00 -9.4999999999999996e-01
    1.8999999999999999e+00 -9.4999999999999996e-01
    1.8999999999999999e+00 -9.4999999999999996e-01
    1.8999999999999999e+00 -9.4999999999999996e-01
    1.8999999999999999e+00 -9.4999999999999996e-01
    1.8999999999999999e+00 -9.4999999999999996e-01
    1.8999999999999999e+00 -9.4999999999999996e-01
    1.8999999999999999e+00 -9.4999999999999996e-01
    1.8999999999999999e+00 -9.4999999999999996e-01
    1.8999999999999999e+00 -9.4999999999999996e-01
    1.8999999999999999e+00 -9.4999999999999996e-01</inv_output_scale>
  <weights>
    <_>
      1.2621580524461032e-01 5.0065824928674818e-01
      -1.7533943059044790e+00 3.8497188045744736e-02
      -7.6618039171152019e-01 3.8217189785263304e+00
      -1.0594087832739629e+00 -2.3400325552857086e-02
      2.0827069630817538e-01 4.4004467580951151e-01
      -4.8341810866650820e-01 -1.8421586470633247e-01
      -1.6731971497706918e-01 -3.1940021023165671e-01
      -8.8862469560679080e-01 5.2993790982616762e-01
      -6.1893773152028975e-01 -2.4692645674066482e-01
      -6.9034596315124497e-01 2.5153331654039297e+00
      9.9399230715269060e-01 -3.7677946946277735e-01
      -6.3100794772811863e-01 6.7128359055978071e-01
      -2.4504545311407633e-01 -6.2915649154587472e-01
      -6.2171381872631513e-02 -7.0264360752054122e-01
      -4.4172809500800825e-01 -2.1288319839674021e-02
      -5.8684050451603451e-02 -3.0738817746476516e-01
      3.2491448364098757e-01 3.7648975801641266e-01
      2.7546808675124117e+00 5.1263596232225273e-01
      7.9876581924406817e-02 1.2413192176194707e+00
      -1.3542626859072224e-01 -3.9972220127067617e+00
      4.5353069622292602e-01 3.2373744953953104e-01
      1.0701533979469500e+00 -7.4956359455675237e-01
      3.6424641697912412e-03 -1.2102185485921011e+00
      -1.4976623802431449e-01 3.2430213984156033e+00
      -1.1338525198047031e+00 -8.2807529920768175e-01
      -7.7523577253213113e-02 4.1286050769590610e-01
      5.4416877563885557e-01 -3.2813661900430979e+00
      -1.1799322489883797e+00 -8.2266934846140471e-01
      2.8506883316385356e-01 4.7212121582621591e-01
      1.5532760729822546e+00 -4.2980539976404064e-01
      2.7834582020095711e-01 1.5477937454364679e+00
      -1.4147047411692953e-01 -4.1438172292154934e-01
      -2.7858282314767890e-01 -2.2432806406495701e-01
      -7.6755173298598711e-02 1.2595771009865513e+00
      8.2046564440056213e-01 5.5707284717367433e-01
      -1.5307960206103830e+00 -1.3022269022464994e+00
      1.3763398109314264e+00 2.3787509032052161e+00
      -1.2950679832518739e+00 -7.3735437072475940e-01
      3.0162950493611845e-01 5.0857571687305633e-02
      -4.9486651622104715e-02 -2.8616645134736840e-01
      -5.4253771332835377e-01 3.2219459654705851e-01
      7.3813197965038723e-03 -5.0755912597432229e-02
      9.9614183793597089e-01 -1.2086150227730511e-01
      -3.9960563467895099e-01 2.4360055338838023e+00
      -6.9451918909384769e-01 8.5967308086775973e-01
      -3.9081017385580141e-01 -5.0683042531389100e-01
      7.3162237960408674e-02 4.9811317046511366e-01
      -3.9682024810156485e-01 9.0473530829772206e-02
      -9.0578592042211956e-02 4.5563617564974801e-01
      4.1740605255175600e-01 -3.1271749737985094e-01
      -3.5804354097971663e-01 -1.1294311907154853e+00
      2.3792464723448341e+00 -2.2572243675639869e-01
      7.6002237557618046e-01 -8.6395975055639174e-01
      8.2926331203222314e-01 -3.5949569743406378e+00
      1.5154449095220129e-02 2.1460863185410208e-02
      -2.4644755901622561e-01 -4.8643432719992508e-01
      -1.4421720469711172e-01 -4.4057424843088744e-01
      1.6803692162457076e-01 2.7613584335643457e+00
      8.6627387260292776e-01 -7.9853939826397524e-01
      6.4060746364387133e-01 4.1757110772738731e-01
      1.3274412825397510e+00 -3.4622570730825730e+00
      -5.7959677088274109e-01 2.2665879383232007e-01
      -4.9394941833338069e-01 -3.6134491159386484e-01
      -3.0738133732743889e-01 -1.7441675942208346e-01
      -1.1770288446965351e+00 1.9942972001225290e-01
      -5.2575486130105686e-01 -8.5384650014532003e-04
      -2.6287047422794512e+00 -7.1911380028990801e-01
      -3.5675799714088424e-01 8.7016775826724824e-01
      -7.0959532343987186e-01 2.2977841092237310e+00
      2.4281927551254814e+00 -1.7277019431171013e-02
      7.4499805536508024e-03 -9.0681240364361653e+00
      1.1200920531823773e+00 7.8457669804328101e-01
      4.9146808174292600e-01 -5.6040177853217410e-01
      -2.1626901418400353e+00 -1.1655784512544292e+00
      -3.1661716855128703e-02 -1.5781482031746585e-01
      -5.2318521470716839e-01 -1.4497162728639208e+00
      -2.7461228294894674e-01 -6.7627173591166878e-01
      -1.0916374892741620e+00 -4.4312499333398803e+00
      8.8991435933182950e-01 -3.5785147009393159e-01
      -1.8300089864055688e-01 2.0334216299302446e-01
      5.8223599223000488e-01 1.6930173325674716e-01
      -1.8895740107884387e-01 7.4616108950641680e-01
      6.5087042271796625e-01 2.1374376791439911e-01
      5.9629042109041519e-01 -2.1554997218302799e-01
      2.2760872758440082e-01 -1.7054404239557316e-01
      -2.0136065361468272e+00 -2.6157468815113538e-01
      2.9473190264581434e-01 -2.8198556093181731e-01
      -1.9021094533381980e-01 7.6185958522818487e+00
      4.5436008487602142e-01 3.8538139958274203e-01
      -1.6742063188909648e-01 7.0146506294455646e-01
      1.1180657771524644e-01 -1.9500543386919893e+00
      4.1118529852674290e-01 -3.9575613074765079e+00
      6.5078199583723628e-01 5.2773482210628531e-01
      4.1886131991362713e-01 1.3086867358285061e+00
      -1.6657221040685979e+00 4.4307533661883900e+00
      9.9579639099188089e-01 1.7222167307476188e-01
      -4.0051573550849529e-01 -1.6311550305038963e-01
      -9.5749807312994906e-01 1.1174402311486120e+00
      2.1537215971785222e+00 -1.4040072889417539e+00
      -1.0903945247934588e+00 1.3934872618689001e-01
      -3.5010649959402784e-01 -2.9076280408501648e-01
      8.5889134488330088e-01 1.2912339702513327e+00
      1.0605424710841087e+00 -1.6377640325053272e-01
      -4.6992865393198824e-01 3.0942390122241226e-01
      -1.8673690791815484e-01 1.5065087650754740e+00
      -2.8077750003456031e-01 -1.8935716439950384e-01
      -4.3343520127984070e-01 9.2050883199237687e-01
      -2.4710932313090372e-01 1.0888579828396232e+00
      2.0850650184480921e-01 1.4300240784991997e-01
      4.9716327642744518e-01 3.5096481331770762e-01
      -8.3662984475127766e-01 -4.6171866305688064e-01
      5.5047750745982260e-01 -3.0944281959477898e-01
      3.9994589716096213e-01 4.6927832971060186e-02
      7.7471035108653118e-03 -6.2699990936336658e-01
      2.3594371538247794e-01 4.1755002775944483e-01
      -3.7105980918128201e-01 -5.8116561294827473e-01
      -3.6946129232154107e-01 -5.8894527102737279e-02
      -6.1383047430166582e-01 -1.4447553539987282e-01
      1.2685733505392063e-01 4.0091308942875009e-01
      2.5621627544852377e-01 3.5449883451856873e-01
      3.6461830629038849e-01 -3.1543764450072724e-02
      -7.7039048691830914e-01 -2.0757891051302089e+00
      -3.5437312937535610e-02 -1.1795484272945321e-01
      1.9770946315987767e-01 -1.9727917104028495e-01
      -4.3547047507930264e-01 9.1001031761668616e-01
      -5.7180357941682969e-01 3.8551401661797979e-01
      8.3641043211469103e-04 5.2168803673666742e-01
      4.2925772870163098e-01 -5.7333318553864199e-01
      6.8993283744634509e-02 -1.1746114037730400e+00
      -8.1587428357181158e-01 -9.8931553189507482e-01
      -1.7758587853254743e-01 -2.6010247097047601e-01
      7.6334837496907926e-01 3.7229065653942994e-01
      1.3917727503456528e-01 -1.8093945712859541e-01
      -4.1240722549966252e-01 -2.8755255543433905e-01
      1.0769075908905301e+00 9.7663086642153674e-01
      -2.1624118600052120e-01 -3.1318477469028583e-01
      2.0606109933061142e-01 -2.9336018529930269e-01
      2.0466670042467425e-01 2.3030550370777561e-01
      -1.7047438957398986e-01 -1.8013613912159545e+00
      6.9236066504496974e-01 -1.9246183820514715e-01
      -6.4924851857602800e-02 3.5197863998028101e-01
      9.3853331436954512e-01 1.6741762538611896e-01
      -4.0612398736520394e-01 2.2245592985934162e-01
      -1.1203985027074251e-01 3.3965034101973135e-01
      3.8120208562085628e-01 -3.0491104675015074e-01
      3.5697888946186945e-01 -1.5363273421518850e+00
      7.4840503007684744e-02 -5.5818831226809709e-02
      3.7429661295458390e-02 -2.1614254279807268e-01
      -5.7612797788183755e-02 -5.7198434050533087e-01
      -4.1918020072637856e-03 2.1499429501779421e-01
      4.1102005006942027e-01 -6.7634058832205177e-02
      -9.7700713239423101e-02 1.5793658615710718e-01
      -1.6393410090283573e-02 4.9185971858202254e-01
      -1.6931530702537099e+00 -2.0271894370044319e-01
      -5.0088385038509131e-01 4.4932375887103682e-01
      -1.0398563783278632e+00 2.5165076913721260e+00
      -6.8003495430281757e-01 -3.3181971226929668e-01
      1.3635360479437699e-02 7.9642092411466563e-03
      -4.6406889828221431e-01 -1.1752876450195858e-01
      -2.4788616344192391e-01 -1.3391815825322444e+00
      -6.5343658116283476e-01 4.9786226976216491e-01
      -7.9359148525729284e-02 -5.2215484445593052e-01
      -1.5538228269469043e-01 1.0331850014607755e+00
      -1.5597641605069895e-01 9.0435661734760128e-02
      6.4767010710531037e-01 -5.6129682939910541e-01
      -2.1416151689144440e+00 -2.0814323476791061e-01
      -8.6656384416802967e-01 5.4015641227686284e-01
      1.1680110991106372e+00 -9.1188562624962399e-01
      8.1261424372846683e-02 5.2606529027599529e-03
      1.1907962769953194e-01 -6.1292356765820244e-01
      2.7461262360573262e-02 -6.2325695536809134e-01
      -5.2325563222172855e-01 6.2425475663685781e-01
      -1.3351535005629831e+00 3.6503901673743564e+00
      6.7280826560539464e-01 4.3642783565341620e-01
      -3.1850017155914029e-01 8.9731782386846404e-01
      1.3742967287756824e+00 2.6572605610113625e-01
      -1.0314660622999183e-01 4.3043222617237968e-02
      -5.0966362805625831e-01 1.0546603182810295e+00
      -2.4283698643620841e-01 6.9362202433365872e-01
      -3.1344834839762742e-01 1.0678106841220256e+00
      6.8537332447382615e-01 -7.1107624935517788e-01
      2.6447988113913229e-01 -5.5858090942259575e-02
      1.3173075944924145e-01 -3.9945751619378922e-01
      -9.2447778193539915e-02 -1.4039327089285296e+00
      -7.3426445847933008e-02 -5.7059997141597663e-01
      -1.1216852783299815e-01 -7.6266680391215669e-01
      4.5529953479381952e-01 5.2989084799054220e-01
      1.9367797617086229e+00 5.3003286823396045e-01
      -2.2684987464001730e-01 5.7085626687164370e-01
      -5.1178912208718075e-01 -3.6329293974763779e+00
      -9.1490292370341439e-02 -1.0244754483830178e-01
      5.3874834373029268e-01 5.3656646519702278e-01
      4.9310263353147032e-01 2.8781085972225101e-01
      -5.2120261075064400e-01 1.3101116480444919e+00
      -6.6595018011657336e-01 7.4159830691605322e-01
      -3.3974410560230495e-01 -2.1658569410458411e-01
      -7.9100970561780215e-01 -1.8739714185291600e+00
      -8.1487375467307488e-01 -1.1333750888295344e+00
      9.5486276396998326e-01 8.9685324324994797e-01
      9.7272185166736913e-01 5.0699880342518899e-01
      2.8158207090144955e-02 7.2589375597997452e-01
      -1.3041930886828848e-01 -1.2905567499792712e+00
      2.6160295238461044e+00 -1.0513871093211355e-01
      6.3165047154158971e-01 3.6933361656644381e-01
      1.1538400289954094e+00 -8.1644041010569202e-01
      4.9980061127612174e-01 2.7422299018344992e-01
      -8.8512930922365562e-01 1.8324178362976100e+00
      5.8648281079398151e-02 -7.1191185522415923e-01
      -3.1804895842573733e-01 6.7185777999639384e-01
      2.8715177519490315e-01 -4.8690631130372425e-01
      6.2313007012362885e-02 -2.1156101109288369e-01
      -1.0706507244559886e+00 6.3073737724444801e-01
      -9.6673590871497683e-01 -2.7158755488957725e-01
      8.4631260216433524e-01 -1.1190507160656820e+00
      5.9198961328293109e-01 -8.2565030097645742e-01
      6.1256716631252028e-01 4.4872595706606866e-01
      -3.7781347641996738e-01 -1.7150677978584712e+00
      -1.8294428841377663e-01 8.3060221974366588e-01
      -2.3320267927723523e-01 -4.9716832932388594e-01
      -4.6424424676889603e-01 1.1019135329409762e+00
      5.3219438532427377e-01 8.0120312162216778e-01
      -8.2752261246304679e-02 8.1633360077387052e-01
      -1.2281628828610023e+00 2.8293050900628108e-01
      1.6192517695958797e-01 -1.0397400416362119e+00
      8.6832234778947887e-02 -2.1501403379054773e-01
      3.9733579381179679e-01 2.2351377922422443e-02
      3.0897663175402906e-01 -7.2420586472537879e-02
      -5.3830951104535466e-02 -5.9848261728773189e-01
      -1.3496376239365504e+00 3.2560654937762579e-01
      4.4931719810179621e-01 -4.9989724943044300e-01
      5.2958435650217095e-01 1.3229727133482534e+00
      -1.5312990945669862e-02 -5.6515326760915985e-01
      1.1723262468170268e+00 -2.0641093835407276e-01
      1.9029151421883364e-01 -5.5808470715623459e-01
      -4.6725500471823866e-01 1.3951838015675446e+00
      -3.4524878151580264e-02 -3.9955215638024716e-01
      -6.4382893150482912e-01 -4.5812937253492364e-02
      -2.0890937572657037e-01 7.0066614557154405e-02
      -1.2757425942110623e+00 1.3369607001071004e+00
      -1.3782695806805196e+00 -1.0348307925136222e+00
      7.7213325686175482e-01 2.5273734084057935e+00
      9.1208191280617990e-01 -1.3168534042408334e-01
      1.1330994147573348e-01 9.5154809556452269e-01
      -9.5142763302231514e-01 3.1854101496157541e-02
      -4.1831030759094573e-01 1.0936504589609514e-01
      -1.1043982605772557e-01 -2.5971755401431090e-01
      3.3656592023984738e-01 -9.0511242826607508e-01
      -2.8861839785731064e-01 3.7908011059292190e-01
      6.0399899312746130e-01 -1.7918114121682246e-01
      9.4905409283187678e-02 -4.3647837768089498e-01
      2.0289547711260594e-01 9.4001416177814545e-02
      -1.6911489006675107e-01 2.0539424423494335e-01
      -2.8493205155681989e-01 -5.0792576148306234e-01
      -1.2662804546453565e-01 -2.9256889784394902e-01
      4.1572678141379815e-01 -5.9550047872431666e-01
      1.2252987774375590e+00 2.4467962179688915e-01
      5.6927035364308132e-01 -6.0146416299320626e-01
      3.8913226917085153e-01 -2.2181377368220847e+00
      9.9271026575116827e-02 4.7733401854142599e-01
      4.9362086547447948e-01 -5.3201389789670783e-01
      -7.2259921858262677e-01 -7.6851855651940726e-01
      4.7817082921419818e-01 1.3475363446392576e+00
      3.2403615159776039e-01 5.0787075442753826e-01
      1.7656404588479749e-01 1.1421878349315055e-01
      2.7395711241963733e-01 -1.3658935494102558e+00
      -4.8682812735644576e-01 -2.8904096135660201e-01
      -5.8962305150668115e-01 9.5213047072737089e-02
      -8.2168200167722927e-01 -2.5064873926243675e-01
      -5.8991210410694925e-02 -1.0801440070700326e+00
      2.2116397301242935e-01 -6.1823586073787118e-01
      -3.4203782236367855e+00 -1.9058789944010845e-01
      -2.4422467055623578e+00 1.5597801199541836e+00
      -8.5921497646546607e-02 -1.4973572039084082e-01
      -2.8332830297368483e-01 -1.2298522669776943e+00
      2.9614547764300597e-01 1.5378453526232747e+00
      1.0207037814466302e+00 -3.8943995015702981e-01
      4.8157001173153263e-01 2.9551261945920848e-01
      -4.5400841967774724e-01 6.4269505029015872e-01
      -1.0628095925380598e+00 -3.4349101446261510e-01
      -8.9091520020236892e-01 1.0409409429511616e+00
      -1.0922569247663412e-01 -3.8604723778149458e-01
      -1.0607158260392382e+00 1.4430381846639933e+00
      5.2785939179901542e-01 -4.5693762062844623e-01
      -2.6734886378533379e-01 5.7147143001234202e-01
      -2.3901513814296926e-01 -1.0405686134428763e-01
      -1.7831237679428480e-01 -1.5377516016700019e-01
      -2.7448588823993736e-01 8.2531440433393610e-01
      1.2337419990600439e-01 3.0071229763113612e-02
      4.8359149178284272e-01 7.4649615582046891e-01
      1.3595015400766870e+00 4.4118632577719269e-01
      -4.3369831504921652e-01 2.2537622031110516e+00
      -4.0303045894415745e-01 -5.7060398384252009e-01
      6.6211563413912478e-01 3.6780647080157608e-01
      2.1236204310045623e-01 -5.0839743419034478e-01
      -8.9637487937809379e-01 -2.7018857793808904e-01
      -7.9797560549971747e-01 -1.4065116079672577e-01
      -5.0402128970736504e-01 2.0599162397935541e-01
      -9.4756918225123388e-02 -2.0418224465764787e-01
      -1.9852802415397844e-01 -2.7772666263312101e-01
      -6.0932067020699843e-01 7.4065138069595235e-02
      7.8939460502438519e-01 3.7483944891321214e-01
      -2.4095033616257078e-01 -2.6648465405868471e-01
      -5.6008534842784485e-01 4.1992478512085729e-01
      7.9451441659704483e-02 -9.4762568545067527e-01
      -1.5428492555374079e-02 -1.8291871824468384e-01
      4.4791016311563361e-02 1.2818910137966827e-01
      5.3937902547833871e-01 -3.6457433457920452e-01
      9.0213849105241953e-02 3.5779490929468244e-01
      -5.0663440802436255e-01 1.1008463882561152e+00
      -2.0336903418645975e+00 -4.0051857799572280e-02
      -4.2703168287531473e-01 3.9203049066371620e-01
      9.4516346205596935e-01 -2.5942572652214962e-01
      3.2557072062046132e-02 3.5631579513729933e-01
      -5.6667703444769520e-02 -5.0899527284906418e-02
      -1.0080202148299073e+00 -6.4086639359314579e-01
      5.2264813195436854e-01 -5.9068362944890396e-01
      8.0263791290205133e-01 -4.6920928575577941e-01
      5.2004752265476117e-01 1.1066013455315351e+00
      5.2887797123210545e-01 -3.4467798991782417e-01
      9.5127981049597599e-01 1.0546597481844275e-01
      -7.2438395584146986e-01 -1.0782223897990859e+00
      1.7472595001550095e-01 3.6198407312893655e-01
      3.2917534813249799e-01 -1.4459082337925697e-01
      2.3315362497639971e-01 4.3034195540544934e-01
      -1.2180733578996084e+00 -1.5718522947607280e-01
      7.5838358173714793e-01 -1.1878101104474790e+00
      8.6362419347919517e-01 -2.9112825587645541e-01
      2.7597378243936571e-01 3.6476651467365562e-01
      -7.6687887336179172e-01 4.3505005924320522e-01
      4.3830518342112643e-02 -7.2539744256811822e-01
      -3.3446859388662575e-01 1.0547789380911250e-01
      -3.4741197002899182e-02 -1.1140018288902449e+00
      1.0520937683973515e+00 1.6930577041329333e+00
      -5.4243089148587803e-02 -3.1617146179301281e-01
      5.2602532834457198e-02 -4.9797208545455507e-01
      -3.7426664748089985e-03 -5.1145892569838636e-01
      -2.1045079711359255e-01 -2.0786266110344248e-01
      2.5027804842638009e-02 -7.9776220433263378e-01
      9.2740037183398727e-01 -2.3853147043742140e-01
      -6.4627317148508084e-02 4.4117217007270709e-01
      1.5318924316326274e-01 -9.2983883869266049e-01
      -7.5187255609202837e-03 6.2411034758423301e-01
      1.6115972919597660e-01 -7.2280015766743455e-01
      -9.6816851614910338e-01 1.0544597226002215e+00
      -7.5176883387282700e-01 -5.8367512491898144e-02
      -2.6768450387508209e-02 -1.0358157153629254e-01
      3.3091133762057856e-01 3.8011131972836169e-02
      -4.4751597879397989e-02 -9.0290390725028791e-01
      -1.8046273223456338e-01 -3.1321324894281788e-01
      2.0987288237889870e-01 5.5617793380665026e-01
      -3.5860449575589154e-01 3.4194218452472109e-03
      7.7397625504248657e-01 3.5523328694598710e-01
      -2.3751731704843243e-01 -4.6149149494759939e-01
      3.8492136711469099e-01 7.8657904213148477e-01
      -3.0336605546412732e-01 -5.4423071577850446e-01
      -4.1048916889729781e-01 9.8192679000178262e-01
      -4.2895873583204880e-01 -2.3042135393139154e-01
      7.9281295287201003e-01 1.7909277598389250e-01
      -3.0098756225497836e-01 -6.3439269310162183e-01
      2.5872093349087139e-01 1.6635252605751472e+00
      -1.7850878750235341e-01 2.6337180297696572e-01
      -5.4905004125895907e-01 -3.5299768144163669e-02
      2.5606755706906353e-01 -6.7561869495960891e-01
      3.7974300107870257e-01 -3.2126945598029849e-01
      -2.5033699909609042e-01 -1.1053488226284119e-01
      6.7590409012358876e-01 -2.0836966107935012e-01
      1.7602757746187734e+00 -9.9728869693792899e-01
      5.6897286084069276e-01 -1.0085388712684813e-01
      -6.1572766367487697e-01 -8.5316801922655583e-01
      -3.4318311045446470e-01 -4.7314450306272393e-01
      -8.0930386147057376e-01 1.2515126091181965e+00
      3.0243474032580731e-01 1.2026006986499900e-01
      -2.9352114051415773e-01 -1.1455073402610320e-02
      2.3929957890559614e-01 -8.8387595516079565e-01
      7.0678553417530410e-01 -8.0441063145493641e-01
      9.5026648251993806e-01 1.7129153525712224e+00
      -6.6812031727483867e-01 1.2261056673550126e+00
      -1.2341269417020011e+00 -1.6291070737093169e-01
      -6.0260813477277630e-02 1.6518565733188931e-01
      2.5164197577370673e+00 -6.0744181819031284e-01
      -2.4626704349036264e-02 -1.2027557768084852e-01
      -7.8494324910299396e-01 1.3776834899215443e-01
      -8.0174570795406097e-01 -6.4048896464330513e-02
      1.0109694425462197e+00 -1.7097363923409143e+00
      -5.2197499149221394e-02 -5.4539820535671357e-01
      2.8436852770885768e-01 2.9889577251393717e-01
      -6.2348455860377427e-01 -9.3461326121144628e-01
      8.2714701906803645e-01 -2.8721920931963015e-02
      -7.0059143217775888e-01 -1.1194944191649239e+00
      -5.8168748276820226e-01 1.4040133006522923e-01
      4.2961750662462883e-01 3.4825993139332972e-01
      1.5024940733289530e-03 7.0910876043229676e-01
      -1.2043046642620885e+00 -4.2301451954343866e-01
      -5.3955988193889894e-02 -1.2562570310246290e+00
      -8.5536763017529704e-01 -2.3536578987563447e-01
      3.2307113665568638e-01 8.3614748110058312e-01
      -9.3897094187365727e-03 6.8601583596309124e-01
      -7.7697545032595572e-02 -8.4140332818215680e-01
      -1.2729611373158534e+00 1.0421150549809883e+00
      6.4170163390484730e-02 -1.8423431040366328e-01
      8.5487206285214690e-01 1.6467512349252209e+00
      2.9878533961081621e-01 -4.4368386115644542e-01
      6.7725024068076234e-01 -1.1305653758827916e+00
      1.7304152071656812e-02 -1.5104128819692461e-01
      -2.6925640700288622e-01 8.0256964850711565e-01
      5.0711878160978929e-01 -1.5278469974193591e+00
      2.6056009175748915e+00 6.4505749842273785e-01
      1.0578263936702872e+00 3.4777951523805312e-01
      1.1817781794774664e+00 -6.7101996574974454e-01
      7.6612666157775483e-02 7.1955625236027787e-01
      5.4615879001267773e-03 -7.2364386039099715e-01
      -7.8839846556009852e-01 9.4650413004645162e-02
      -1.4225014103767125e-01 -2.0958616215993880e-01
      6.6910023965773169e-01 1.6599815512413163e-01
      2.3022099769620885e-01 2.0165751300297691e-01
      4.0948095151830910e-01 2.8721739857225630e-02
      -1.1096949577598929e+00 3.1432644019322067e-02
      1.4312312403185881e+00 -1.6342757079141641e+00
      -1.8370768548846513e-02 1.4001079724502122e-01
      5.8418946682942167e-02 2.0165485804795596e-01
      -5.1794893464155345e-01 3.2538799404500668e-01
      -1.1287905531162895e-01 7.5256007973773270e-02
      -8.1449646201647130e-02 2.5701453025971499e-01
      -7.6447964994964035e-01 2.0798129841921106e-01
      -1.8582689587466025e-01 1.8847817168186476e-01
      -1.2716196028216504e+00 -1.1066442294926980e-01
      6.7438242734979792e-01 -4.2240270320142814e-01
      1.5194946666379525e-01 4.0098378829512027e-01
      -1.1949252898876729e-01 -3.2431801996591891e-01
      -3.6019027972336426e-01 -1.6826477167476048e-01
      3.0688347287044651e-03 3.5577847797278066e-02
      -9.0275294221522223e-03 -9.8091145129421609e-01
      3.4233772360171011e-01 3.8198452941953058e-02
      8.9079224191462947e-01 2.1353130652101010e-02
      1.9064202953240489e-01 -4.2961985589480239e-01
      -3.5343184044577453e-01 -2.0834621330287559e-01
      -4.7565650850030491e-02 -4.8200859326619211e-01
      2.8481578962488341e-01 8.5803285172037380e-01
      3.9524970335877774e-01 1.4097376348671697e-01
      -6.0117311105054394e-01 -1.7394450496961555e-01
      2.8763874369002745e-01 -2.8071436751361221e-02
      6.3823338557042664e-01 -2.9072632845777474e-01
      1.7974881029446549e-01 -4.1836172946232769e-01
      6.6352325257832823e-01 6.9134416230971052e-01
      -1.5431259999978361e-01 2.7905816503117054e+00
      -1.8347416754597785e+00 2.7300878085536645e-01
      -1.0222928310482739e-01 1.7328615990773197e-01
      6.4905796784856629e-01 2.9337868110200806e-02
      -5.8037740150595052e-01 7.7045415016294153e-02
      -4.7120305653306416e-01 6.6087090225068501e-01
      -3.3834287747576530e-01 1.6388345870094495e-01
      7.2276353426621187e-01 1.5104189949265647e+00
      -2.4525759104783890e-01 -6.5172580918535883e-01
      2.0016253589797553e-01 5.2783676277930824e-01
      -4.9701233901228498e-01 -2.7158741144009663e-01
      -1.8910745325603245e-01 5.5870732395123013e-01
      -6.4621726760862563e-01 4.0757232549821104e-01
      -5.4431820309166476e-02 -9.9629963050217818e-02
      5.2169635129474101e-01 1.0035429962552858e+00
      2.0941691775916635e+00 6.1312814482378963e-01
      3.1617122656186009e-01 6.7552602958445085e-01
      7.8145630345278883e-01 -2.5581193782935903e+00
      -3.5107052231965319e-01 -5.8990384121904926e-01
      -3.2562984531251983e-02 -6.7837710337389667e-01
      -7.6661444212244345e-01 6.8949751397773484e-01
      -2.7076273985129701e-01 1.5857267859531758e+00
      -1.3528686615177563e+00 -2.9332226408287931e-01
      -6.6059351597697380e-02 2.6037189346398393e-01
      -4.2537545780968383e-01 -1.0133378507338797e+00
      -3.0966621363097169e-01 -9.3247138436625121e-01
      2.7621238458407749e-01 -4.4686754880305640e-01
      -6.7964460700570695e-01 4.5760066806168187e-01
      -9.1620425671796513e-01 1.4319582602761660e-01
      8.3451622039999396e-01 -7.5043264135055765e-01
      1.4463712331589424e+00 -5.1416361086129359e-01
      -8.2724944996956540e-02 -1.9980963744122412e-01
      2.8508187758299336e-01 -6.0178229643659320e-01
      9.9496569024924864e-03 1.9843048232502641e-01
      -3.3759227560828198e-01 4.4125048757595553e-01
      -2.7810299918691550e-01 1.9420302463397851e-01
      1.9587084179031361e-01 5.9915602303199400e-01
      4.8654529232236504e-01 -7.2948743040506592e-01
      -9.5116011938233214e-02 1.0400037345732843e-01
      -1.0291885253852440e+00 1.0496242610658200e+00
      -5.7981422986789877e-01 1.7481204525410261e-02
      1.8143095785154420e-01 -4.3482414156996407e-01
      7.6944308205465928e-01 -3.8704700746464610e-01
      7.3963391010779880e-02 1.7860134241917931e+00
      3.8268943750705503e-01 -5.7369675576298040e-01
      -1.6574437354969854e-01 -5.4803819932112463e-01
      -2.5080411336204755e-02 -3.3383365860117609e-01
      -2.2363571781277825e-01 2.8868752689067945e-01
      7.5817069736637899e-01 5.3437714284836513e-01
      9.1620830578142853e-02 3.6667198950082280e-01
      3.0232090541056850e-01 1.0544728545716534e-01
      8.9781952554470934e-01 -1.3108081457899852e+00
      5.5539127756196405e-01 -5.5324598806048730e-01
      2.7909028237852374e-01 4.3762738533316137e-01
      6.3108430538442187e-02 9.7533767360602130e-01
      1.1664498159263302e-01 3.7101458522248937e-01
      3.9643709588376780e-01 3.1883875477337709e-01
      -3.4032711093982454e-01 4.4843528287539847e-01
      -9.3279865611439572e-01 -6.7174233251984661e-01
      -1.4193390650930476e-01 -1.1285626503106774e+00
      1.1512191097979747e+00 6.4000966767434131e-01
      3.6872153467364793e-01 2.4188195717302691e-01
      8.1222259257299187e-02 1.3190476901045851e+00
      -8.2038892351429649e-01 -5.5784555858444906e-01
      1.2054161615172327e+00 -5.1824188029937915e-03
      4.6255042500813059e-01 8.4784138637407180e-01
      1.1555516362917391e+00 4.0697380785064585e-01
      -6.9838384217591876e-01 2.8933985991153033e-01
      -1.2008051564109714e+00 2.8179779294062288e+00
      -6.7778327574461872e-01 7.8095310693156361e-01
      -1.1971327216537824e+00 4.7486698031518526e-01
      1.6611177456368533e+00 1.0024258186509298e-01
      4.0966670061359034e-01 9.8857215503026397e-02
      -2.8922862874539434e-01 9.2538269371465443e-01
      -9.0483683965197209e-03 9.1955386750182622e-01
      7.8513675841855057e-01 8.7253439099966346e-01
      -1.8803960809672707e-01 2.8096314001628675e-01
      8.7206713779826095e-01 4.7770784782601133e-01
      4.4433997878852960e-01 -3.1872678612404093e-01
      7.6068265679135572e-01 -2.8880489079851768e-01
      -4.1081090821530913e-01 -2.6713307032170081e-02
      4.1892896124657054e-02 -9.1495695329603791e-02
      -4.6098002498038977e-02 -4.6606266004759345e-01
      6.5583482728349507e-01 2.2552661322651785e-01
      -8.9072309047009490e-01 -4.4990824141229575e-02
      -4.0159229424901122e-01 -1.4342317877737727e+00
      -9.5234547604389624e-03 -3.5472166357349832e-01
      5.7237029760693070e-01 1.3027773708561527e-01
      6.4075349316268704e-01 2.0551580176842116e-01
      -3.3605598107382800e-01 -8.6162697874128602e-01
      -1.3593951989155157e+00 -6.1256311694025678e-01
      8.6624384769335838e-01 -8.7427144963842340e-01
      1.2604810724730167e+00 1.1698262847710827e-01
      7.6558669832940618e-01 -3.4319966784603623e-01
      1.8271538527521358e-01 7.1086085917272446e-01
      2.2522392997849808e-02 -9.9288480096312115e-01
      -7.4185545516905949e-01 3.9741861779992909e-03
      2.8332019503847831e-02 2.5620015162654247e-01
      2.2023967656625565e-02 -4.9958383028920328e-01
      7.7982122689931443e-01 -1.4997147814967896e-01
      -1.0646419952422572e+00 3.9121117709016157e-01
      1.3622331095911868e+00 1.3369738667344971e-01
      7.4987448144814645e-02 9.9591175241979524e-01
      1.1658128502084568e-01 -4.1468633769463636e-01
      -2.0523025765081382e-01 -1.3521294572744361e-01
      -8.5435756719900491e-01 -1.8192395885491734e-03
      2.9217936615490125e-01 1.5949219658862940e-01
      -2.8926536688387405e-01 -3.7634829448253260e-01
      9.8383078816123637e-01 -1.8256299624558164e-01
      -8.4301373727765405e-01 1.4928913301272724e+00
      -1.0157663280141767e-01 7.3410007808304889e-01
      -3.4469465080846895e-01 -9.2911378327362756e-04
      -6.5927314861241559e-01 3.5102307566192115e-01
      -3.5213166517482997e-01 2.9808801730289181e-01
      2.2642199872120070e-01 3.2931714334281259e-01
      2.2413719567379373e-01 -3.5110738294879557e-01
      2.5086730429071152e-01 -1.1061938930633851e-01
      7.8523712042694893e-01 -6.7698375849424686e-01
      7.1673310399715318e-01 -2.9759476182136668e-01
      -5.7081140848619389e-03 -3.4617113295371083e-01
      -5.4406850410903951e-01 -3.9135023065005287e-01
      3.4553318193335784e-02 1.1336890069734863e-01
      -1.6948646309503324e-01 1.6533723671077266e-01
      -1.1677872795069766e-01 4.6200627511896103e-01
      -1.2583084858711693e-01 3.6866821334234873e-01
      -6.7955726048750409e-01 6.4655997443804802e-01
      -5.2630493478337981e-01 -8.2409226085498166e-01
      -6.7222636640407174e-01 -2.6218171769990382e-02
      -3.0531941551657971e-01 -1.2024601986609217e-01
      7.2203418996955604e-01 6.8717538528707378e-01
      4.0016249000387377e-01 -6.1714553745027301e-01
      -2.8815238888776057e-01 -8.2553991168026775e-01
      1.7652567576733789e+00 -1.6274323215232647e-01
      1.0313248228655371e-01 -8.9218536086536682e-02
      4.8013151582875180e-01 -9.9629222230092893e-02
      7.1714120474185808e-02 -2.5842987793454893e-02
      -5.5236356856860058e-01 -7.3069542183161573e-01
      1.5664736710094437e-02 -5.5591225134311950e-01
      2.7956452990498099e-01 1.5811114657065692e-01
      6.1648548839004813e-01 5.5482788440410624e-01
      -2.5552388716379562e-02 3.4633465233859867e-01
      6.1898887190859786e-01 6.9845292891064184e-02
      -1.6501877986402960e-01 -6.1464915568753620e-01
      4.4136449145789552e-01 -1.1182425928969879e+00
      7.9078848036408644e-01 3.5035626638776624e-01
      -2.3299231504450757e-01 4.1165914831049072e-01
      7.5754045660378044e-01 -7.0686944058218737e-01
      -1.0688284994259703e-01 -6.0583087663991855e-02
      2.2430681269931529e-01 -6.7076832054209765e-02
      -1.0764628697188965e+00 6.8399942013758219e-01
      3.5416825964977316e-01 6.2524799546883270e-01
      -1.3015336393516286e+00 -5.7960917746554083e-02
      4.0141976233124305e-01 6.9189899469407234e-02
      -1.0110611527303127e-01 1.3571497660997167e+00
      4.3568159450497934e-01 -1.4484373783679921e-01
      -2.2717667109178888e-01 -3.3764576567427408e-02
      -2.8445173975748000e-01 6.6977083591961850e-01
      -6.4747256228713440e-02 -7.6460962056104387e-01
      3.6508969037105488e-01 1.2085504107714819e-01
      -5.7827168277031782e-01 -9.0068877628263599e-01
      2.0609794429935999e-01 5.4870784897692437e-01
      -4.3605244389266617e-01 -9.7338093047036112e-01
      7.7689230434235979e-02 -3.3156303964785014e-02
      -9.8026532526124088e-01 -3.2579978475378751e-01
      -4.3029516540466184e-01 -6.4797832598721306e-01
      -1.0225084373234596e+00 -1.3122325527959094e-01
      -1.9206347764398662e-01 3.8474857491962922e-01
      7.1309015683026888e-01 2.6639960712147903e-01
      -1.2613777664860953e-01 4.6675706722561333e-01
      -7.5729291819047051e-01 8.7632185358677894e-01
      -1.2654513977375528e-01 8.3918914800929878e-01
      -4.6263861040096393e-01 1.7922961088699169e-01
      -5.1460748096941122e-01 1.7246308213416106e-01
      -8.0111471423355354e-02 5.2299521318119553e-02
      9.3895180924491409e-02 4.9324357445160914e-02
      -2.9863490399624759e-01 3.4345069203139367e-01
      9.4531793930313301e-02 3.0277193888666903e-01
      2.2494834319396637e-01 -1.0338846238640356e-01
      -1.7361029277523013e-01 1.1690745027804528e-01
      6.8570889419695169e-01 -5.9154278540597205e-01
      -4.2039576310509158e-01 -3.0169199413399916e-01
      -2.1943882420515726e-01 1.2080028183128104e+00
      -1.0120912727888332e-01 -9.5839775714123027e-02
      6.3587219514442728e-01 3.8817488140773564e-02
      -2.1154692602157432e-01 1.7564098466564840e-01
      8.6795083298978026e-01 2.1665617123612055e-01
      2.9909487787343540e-02 -6.3421251660968000e-02
      7.1526813249995519e-02 -3.2901380392429996e-01
      -1.7747012103545512e-01 2.5103593227203408e-01
      1.5303863973646087e-01 -1.8590539741841630e-01
      3.8686548282070404e-01 -6.8195994533112181e-01
      -2.7940496285226657e-01 -4.7810835573714877e-01
      -5.6310108864002595e-01 4.0090399746620076e-01
      1.6754428219110612e-01 -3.1240881998275998e-02
      3.7877796047954404e-01 9.8714027975901053e-01
      -2.4916729141082319e-01 5.9310518367709564e-01
      -3.7654248459628564e-01 -1.4456115431908817e-01
      -5.7517235546999490e-01 6.7548497746817115e-01
      -5.0719032703436362e-01 -2.9286456216708473e-01
      9.2167953018420207e-02 -7.2738571321196965e-01
      -4.0673191378440537e-01 -3.0540278195071430e-01
      -3.5379582907276991e-01 -6.7601893699157103e-02
      3.8915442211648910e-01 4.3227149333805354e-01
      1.1701455925913136e+00 -2.8849464906265421e-01
      3.5028900154453302e-01 -1.4221910007750012e+00
      9.9369580402092239e-01 5.8382932788715154e-02
      -1.0782733215918539e-01 5.6782372735810516e-01
      2.0535176245611783e-01 1.5421833355600251e-01
      1.8312837767345266e-01 3.5313421447925497e-01
      -2.2400522120253455e-01 -4.1945808896471609e-01
      2.1315728086027605e-01 -1.1354800975868065e-01
      -9.5365715905594794e-01 -1.2928659570537095e+00
      1.0926550555712779e-01 5.4212270129329909e-01
      -2.9171151931706324e-01 4.0814909782839243e-01
      1.0965575371251442e-01 -9.5775078221780455e-02
      5.7172262359900672e-01 -8.5500677375649525e-01
      -6.9414562709391378e-02 -1.0052464892005688e+00
      3.1083075556253448e-01 -5.0456187414469209e-02
      5.5592797359458668e-01 6.8089004526933367e-02
      9.3414512284193918e-01 2.6442583341141429e-01
      -3.8299720337712801e-03 -6.4203157007994316e-01
      -1.9594413302454491e-01 8.4327830794381797e-01
      -6.5792427644261742e-01 -2.2589227894897967e-01
      -3.8235744053012477e-01 -2.6926546732302531e-01
      -5.2322262357061655e-01 4.1153074614932027e-02
      5.9126488002071254e-01 3.0029707065689071e-01
      1.1394128467114752e+00 1.0387472261503272e+00
      -9.9787073050035924e-01 -3.1339069329804015e-01
      -2.0129203184102015e-01 -6.8939868575489183e-01
      5.8490962531511503e-01 4.5400687009702612e-01
      1.8826113523416246e-01 -4.1446363866779762e-01
      7.4935563852559151e-01 -4.2321026861838207e-01
      2.6931128515337827e-01 2.2927400131344589e-01
      -1.4283925640204767e-01 2.5580792314214268e-01
      2.5270882542753177e+00 -2.1146506201334396e-02
      2.4258193813508205e-01 1.2525935066664868e+00
      2.3615292655466952e-01 5.4536201405714142e-02
      4.6379500890632924e-01 -1.3260469254387436e-01
      -2.1373522236216369e-01 9.4161739865611382e-01
      -1.6222302177387513e+00 -8.2168385298205571e-01
      7.8226107521892518e-02 4.1955495810327065e-01
      4.8690611950075824e-01 1.4810054446776699e-01
      -2.9512338412616845e-01 3.5311745104361919e-01
      2.7882337652516731e-01 1.3908842865223265e+00
      7.9391488027126519e-02 3.6985857843377340e-01
      -1.6205200465662384e-01 2.1548333264285721e-01
      7.0161572259513127e-01 7.3188591295346594e-01
      -7.0028792252697447e-01 8.9431337498155183e-01
      7.8237033038061365e-01 6.2392096328396229e-01
      -5.3536676395654803e-01 -1.2773036342014317e+00
      -8.2574206763471991e-01 -7.8086088605578896e-01
      -2.2905259495243110e-01 -2.1145675380865814e-01
      5.8038462732016782e-01 -1.2352756950919062e-01
      1.1455111868055447e-01 1.6922956352333057e-01
      7.6373691093282681e-02 -1.9578812957020300e-01
      -1.2541301396443136e-01 -1.4850521680503133e+00
      1.2402941724081000e+00 -2.2938525861346160e-01
      3.0197014397447630e-01 4.1761521092194914e-02
      -7.8146201635769269e-02 7.8599494883385013e-01
      2.0934043982893721e-01 -1.1959281880274009e+00
      3.5117476085159155e-01 -3.6658567925384972e-01
      -4.2867775010168091e-01 5.6067154356908699e-01
      7.2368925197901646e-01 4.7978790209339728e-01
      -8.1284737020241016e-01 -3.2846314274392419e-01
      -1.1663555450466681e-01 -7.4042635713141170e-03
      -1.5994964171545376e+00 -1.2499502056328360e+00
      3.4720641890556286e-01 -4.4656935329358827e-01
      -1.1088638844887760e-02 -1.7070062191896425e+00
      6.9476226835867835e-02 7.6270899040799955e-01
      3.2693486181809006e-02 -6.3466426290049238e-01
      7.9493532309817783e-01 -1.2520297921249349e-01
      -6.8911612860784255e-01 8.9191878490018961e-01
      -1.9010338195932830e+00 1.0822587963990431e+00
      5.0353449478204682e-01 -2.4242262805960632e-02
      -4.6271969868774965e-01 -7.2729421584337217e-01
      -7.9942927013757259e-01 -6.0133008267968413e-01
      -4.5237732045988926e-01 -6.1296733976616946e-02
      2.4116150214991694e-01 7.0134544064915849e-01
      -5.2259905198823797e-01 1.0667132685544276e+00
      3.7239089205243459e-01 -2.7597899093250688e-01
      -3.5207081693560092e-02 -4.8863404794263549e-01
      6.8194238107211924e-01 -1.6130776497439465e+00
      -1.5642250484831157e+00 -2.7197121778738054e-01
      3.8803797082375246e-01 1.5287395611169567e+00
      -7.8525328865043198e-01 8.1303741280848041e-01
      -8.0601223535398850e-02 -7.4553968570565982e-02
      -1.1865219354187442e+00 2.7980599277321822e-01
      3.3191829962086516e-01 -1.4745242053150884e-01
      -9.6370447607974374e-01 1.5214922798625057e+00
      -3.2886761861622876e-01 1.0265409039244637e+00
      6.8537667420613146e-01 1.0840383910806156e-01
      2.6363200503026474e-01 1.0548367990949881e+00
      9.6434671805854666e-01 -1.9108838076055130e+00
      -1.4327864326878039e+00 -7.5431145155068313e-01
      -1.0409978702492710e+00 -3.0712614284198181e-01
      1.4705276527540116e+00 -4.0675567470287027e-02
      1.4762710830622996e-01 1.1781683871912279e+00
      4.2117665324858228e-01 -3.8467595491978207e-01
      -1.8410088755914517e-01 -3.8331477857070217e-01
      -7.6264322960029329e-01 1.1080022881709788e+00
      -7.6362431533421438e-01 -8.1441542971687819e-01
      -8.5452042434657205e-01 2.9082267850064372e-02
      4.9622330884530483e-02 5.5289072478376688e-01
      6.0116385366738700e-01 -6.3931261811127416e-01
      3.8592433683371404e-02 -2.5212161964457652e-01
      -1.3105832068356285e-01 7.2766101850294432e-02
      1.2759391659883383e+00 -5.6109042161676248e-01
      -6.8891081866686410e-01 3.2610176468052104e-01
      4.6855970645587852e-01 6.2348401462587422e-01
      -4.1378113311408732e-01 1.3087385772107514e+00
      -2.1350955879491482e-01 -1.9568657068557571e-01
      -2.3399410530637373e-02 2.1743227499880544e-01
      1.3217164630548903e+00 1.5597572436944501e-01
      -8.8037423518699687e-01 2.4832217278421256e+00
      -4.7233723411086798e-01 -2.5969011174391649e-01
      5.3462541950132081e-01 -7.6231402838962192e-01
      -3.2104409785126337e-01 5.5631059067906263e-01
      -2.3327065111533771e-01 -6.7347251015788490e-01
      6.1710975536974833e-01 -1.8236275843667115e-02
      -4.3364323067772326e-01 4.9847149119685230e-01
      1.9683371639398886e-01 7.3911742806368397e-01
      1.5635972181323621e+00 4.5690408289754264e-01
      -6.1535307622359670e-01 -6.5944562090142711e-01
      -7.5528883907627331e-01 -1.8895243375673601e-01
      -8.1177618866786450e-01 1.3489098212883468e-02
      3.1382807666051443e-01 -6.2930221612554937e-01
      -4.1141794874290666e-01 9.0311907624526411e-01
      -1.7781894328256845e-01 1.0329233355591426e-01
      -2.3058339002320355e-01 -1.3191720249882949e-01
      -1.6355104124119074e-01 -1.2784719545209000e+00
      1.1427789369219075e-01 -7.5870492223699781e-01
      4.5837246634202987e-02 -5.6599928547981326e-01
      -5.6383724294283910e-01 -1.6337246273570016e-01
      1.8705479909842806e+00 -3.5228968898872948e-01
      -2.5793617607580782e-01 -5.6506813701657788e-01
      7.1277802122763378e-01 8.0259877509555200e-01
      -1.1986286947083460e+00 1.0274650333340853e+00
      -1.7901520740667183e+00 -6.4430463531528048e-01
      -5.5945259028157457e-01 2.6991021384219321e-01
      1.0871654650541827e-01 5.1442209789408944e-01
      4.2017133638640597e-01 4.2370120562648372e-01
      2.1112030659966144e-01 -5.3893582282981878e-01
      4.3793354758364650e-01 2.1140881303608924e-01
      1.9721946619014760e-01 5.2942197320161144e-01
      1.9830045813612823e-01 -1.9396265662688872e-01
      -1.8746512388056602e-01 -1.2639489500042189e+00
      1.1196672877616252e-01 4.6314716068983303e-01
      3.7834641312026895e-01 3.6425427819019124e-01
      7.5488975769075692e-02 2.6377369017945940e-01
      4.9465822023977993e-02 4.2905877220733996e-01
      6.4247928523147568e-01 -4.8552768349498460e-01
      -7.6800935670455284e-01 -4.1342559385477368e-01
      9.3524790437401709e-02 -4.0304532626668715e-01
      1.0791887531321320e-01 -8.2702571846124673e-02
      4.3162701688098437e-01 1.7501593224762949e-01
      6.4852513299394776e-01 7.0829708027724170e-01
      6.9927592399474570e-01 -1.5611199679831819e-01
      -1.8664165210558917e-01 -1.1721316780393856e+00
      -2.1296009699348223e-01 -3.6151860537092223e-01
      -2.9279467043828467e-01 -1.8490122653751698e-01
      -3.5171084840820449e-01 5.1680981277743054e-01
      5.0172856424620482e-01 -1.0565666535643527e-01
      -3.3744879684705403e-01 4.8378107888904304e-01
      -1.5261108896892155e+00 -2.8774893320013678e-01
      -1.7560655869313532e-02 2.8112127744010779e-01
      6.9267713735230631e-03 -1.1279373179830658e+00
      -6.6749722263685335e-02 -3.4202468231817218e-01
      -1.3185207997025722e-01 -6.3144998042920975e-01
      -1.8469877412718069e-01 -3.3086852438760517e-01
      4.5735922088148562e-01 3.6544596226143083e-01
      3.1464733990587007e-01 -1.7682918513763002e-01
      5.0838209096237896e-01 -1.5357427159334200e-01
      1.6194390267028980e+00 -3.2412111174521246e-01
      -1.2840564389789970e+00 1.4373232637466424e-01
      -7.8590620368374298e-01 4.4514965248639173e+00
      -5.2567906034387701e-01 -5.4297641032421973e-01
      2.8783123353938100e-01 -4.9104815932050366e-01
      4.9531364483218771e-01 -4.8265190210365883e-01
      8.7475882128032187e-02 -2.5989037091674588e-01
      2.5233788670049784e-01 1.2122297673277691e+00
      -5.5266789926052795e-01 3.1674941807830936e-01
      3.4333307448504807e-01 1.0474710694270575e+00
      -1.0519549334302143e-01 -4.4823475506064969e-01
      3.0555208892919972e-01 -3.9266281810674319e-01
      -3.0891256078747586e-01 9.5324199255168787e-03
      1.2493639570405131e-01 -1.1578812516795882e-01
      -5.1536661272083051e-01 -4.1636702627688449e-01
      1.9600998769594496e-01 1.6840030171625495e-01
      -3.2947399328126642e-01 2.8134712088053965e-01
      1.1875475617171107e+00 1.3329359731235508e-04
      -7.1700722900524105e-01 1.0710217429419495e+00
      4.8650365208841218e-01 -2.8581081685211998e+00
      1.1374266021508967e+00 1.8415053242050740e-03
      5.4546373400061832e-01 3.9818345774450387e-01
      4.0237444839461828e-01 -3.4039668649107302e-01
      -1.2910731399749392e-01 3.4987021772469779e-01
      -8.5382408582984759e-01 -6.1882148521751790e-01
      5.6265148165856527e-01 -3.9182461321123002e-01
      1.3280452365333080e+00 -1.0460101155565484e+00
      5.8678368926424185e-01 -3.1142425836972647e-03
      -4.7658502186351072e-02 -4.1923449114289191e-02
      2.4727078283419287e-03 -5.5804793593681656e-01
      -7.8015713652353225e-01 -1.9469628383366303e-01
      -3.3214544369606808e-01 6.7752937465410190e-01
      1.1856624556684177e-01 -6.4468178984122604e-01
      -2.2086457825809851e-02 -7.2818758501619618e-02
      -1.3849209700024636e+00 -8.3813416897171159e-02
      1.8242649045893629e+00 5.5396145702348665e-01
      2.0134212556190367e-01 -4.2913352393349387e+00
      7.3397172863069959e-01 -4.4518930556969150e-01
      7.9865241217701582e-03 6.3987718113645431e-01
      -9.1920788996561464e-01 3.3064242325117565e-02
      -1.1855130371555081e-01 9.0814375078140733e-02
      1.6868542056492900e-01 -7.6751844853420625e-02
      6.1249972028221389e-01 -3.2884893619910338e-01
      -1.1437776866683906e+00 -4.2351718864174048e-01
      -1.9090028475332824e-01 1.7464895346286577e-01
      2.8820759133213797e-01 -2.5954601336867789e-01
      5.6192372772592529e-02 -5.6677791624823559e-02
      -3.2937372043280747e-02 3.3732480097982986e-01
      5.2109825654013608e-01 2.4565252181918956e-01
      -3.9667172695914971e-01 3.3878161433435711e-01
      -1.2802983898082521e-01 1.9326775273449270e-01
      -1.1565558929649715e+00 8.2832768775839366e-02
      -2.4419822649350684e-01 6.4279731019505184e-03
      -5.2952295327335719e-01 3.2028785884226312e+00
      1.3169035931595013e-01 3.0690789839081828e-01
      -1.4317736080995261e-03 7.0606182196533196e-02
      -5.3275577178824285e-01 1.8062287101444682e-01
      -6.0559242004048846e-04 -1.3456886874363339e+00
      7.6528303866681680e-01 -1.9356565953307447e-01
      -5.9721390167595978e-01 9.2920258450048976e-01
      3.2708775018277833e-02 1.7927618558013507e+00
      -5.5187980051936203e-01 5.9718445917361862e-01
      4.4126511204927182e-01 -4.3400412209868539e-01
      -1.0757419558434038e-01 5.4626025620890828e-01
      9.4623532076187078e-01 -2.5195148223408154e-01
      -3.4620602854787608e-01 1.5930097423249734e-01
      3.8705555166642180e-01 2.5302421684419735e-01
      2.6763468808528645e-01 4.8274514941159707e-01
      2.0984330912195577e+00 3.2969258493451281e-01
      -1.0493851286615585e+00 -3.9131797185216732e-01
      -1.2093943202699955e+00 2.6062561463444944e+00
      -8.1514594044221012e-02 8.0825632387129698e-02
      -2.3675183935141447e-01 -8.6519156044394152e-01
      1.1803494841917046e+00 -8.6324395306526092e-01
      7.5042398797479737e-01 2.4167835530932108e-01
      4.0956553816285296e-02 -3.7293737470648597e-01
      -3.4565473708995503e-01 1.1763270487922128e+00
      8.1966964010352161e-01 2.6579876904480088e-01
      1.5817535229498253e-01 8.9765384636894124e-02
      -4.3289303077263738e-02 5.9773274967959290e-02
      -3.5825809779119555e-01 8.0354240916815228e-02
      5.5088343053232725e-01 5.2135762133785812e-01
      -6.1290043123130411e-01 -8.6173725299873316e-01
      -9.5877984356406720e-01 6.5001998308846606e-02
      -5.6110049496636683e-01 -3.7803664416348604e-01
      1.3690759762217586e-01 -2.7751879470146190e-04
      -7.3796488157062090e-01 2.4226711261465739e-01
      4.7621747551351284e-01 -4.7897248710337875e-01
      6.7568019280603642e-01 2.4756323060532059e-01
      6.2357479429562002e-01 5.1881801492043411e-01
      1.1993018425478266e+00 -1.3905571161533234e-01
      -1.6531329621669089e-01 -6.0098257356927670e-02
      -9.6487703169633043e-01 -5.3884374388699741e-01
      1.1862220375805530e+00 8.2636863856914322e-02
      9.2217740708927254e-01 -9.0528002194701318e-01
      1.2041649474480145e+00 -4.5859727920291588e-01
      1.1552516060816481e-02 5.8960039748275697e-02
      -1.0531588832291214e+00 -5.6386282822253009e-01
      -9.2121595525923905e-01 3.1324631273445475e-01
      -5.6805048560136640e-01 4.0345391394719166e-01
      5.0928427112411294e-02 7.1489550363882737e-01
      7.0124023337670482e-01 5.3297105440218241e-02
      -6.2284244730096960e-01 2.9331761289215408e-01
      1.4302287441079431e+00 -1.4317636284630972e+00
      6.9784825207410539e-01 -1.0321216285085617e+01
      1.2735666718682059e+00 -1.9854331896610702e+00
      -7.4160490402890286e-02 -4.9574721651375603e-01
      -1.2591025227920256e+00 1.3513698044438118e+00
      3.7866591909821173e-01 -7.4541402411162794e-01
      -4.7823960327472673e-02 2.4637580391400393e-01
      -2.8464403718906039e-01 2.9462368483612572e-01
      6.7906128830605450e-01 -3.4810285506179786e+00
      9.0639067207310275e-01 -4.2580384596954074e-01
      8.1242480009593299e-01 -3.1597429060169063e-01
      4.9736840687210342e-02 2.9855492611591739e-01
      7.9043359682451098e-01 -2.9523674517808766e-03
      -1.5848464231183437e-01 2.5287526447632339e-02
      1.0624733649473919e-01 1.5217709448840495e+00
      2.8372861491956634e-02 1.0005172959231525e+00
      -4.3949160241290590e+00 4.1729597648935679e-01
      -7.5449596417228704e-01 -4.1148434080949237e-01
      -2.2051005556489036e+00 7.4377762203216253e+00
      1.2177413979400626e+00 -7.4636067541461282e-01
      -1.9320858839651978e-01 1.6719411614869345e-01
      -1.5313023058943316e+00 6.5255293540196135e-01
      -7.9923329744664617e-01 -5.8594678098307522e+00
      7.0206776861772224e-01 4.0650167957467032e-01
      9.5904080145389065e-03 1.5711960166207781e-02
      5.5295792962596768e-01 7.1023366940583941e+00
      1.6553397145545281e+00 6.5946632657933579e-01
      1.2417418243594422e+00 -2.6299982362739553e-02
      -1.2740997941845571e+00 1.0477176062644550e-01
      1.2490176864871168e+00 -5.2169666464072351e-01
      -7.7187749705351716e-01 6.0853964626276159e-02
      -2.1622810493590077e+00 9.7291407131879382e-01
      1.4231817597807932e+00 -5.7004588986487970e-01
      5.8198956471332552e-01 -5.9770499647029540e-01
      -7.6520605417396459e-01 3.2945399425261958e-02
      3.1642442349664357e-01 6.0315460391693936e+00
      -9.7477216011767542e-01 5.4797482273445830e-01
      -2.6764943163364686e-02 6.3265052564857954e-02
      4.3305476862783443e-01 -1.1285364663390797e-01
      -1.7575853078688938e-01 2.4620791876517507e-02
      8.8182274942649685e-01 -2.8263774209667852e-01
      -8.2832164301654299e-02 9.5361134876483553e-02
      -1.8385450470072015e-01 3.0941842934134898e+00
      -1.2719466282238989e-01 -3.5829534386111639e-01
      -6.9301482992099969e-02 -2.9842970993813583e-01
      -3.0984703843028111e-01 -4.7088150811445445e-01
      1.7824247706179069e-01 1.6531393707487785e-01
      -3.8674555165002705e-01 -4.3250137489134510e-01
      -4.8133280812667439e-01 -3.3739267658696011e-02
      -1.5843646478715001e-01 -7.1051727277795285e-01
      2.9751642362429260e+00 -3.9302743057305517e-01
      2.9564282945006071e-01 3.2383597907325051e-01
      1.3716014036128303e+00 -5.9585464886101693e+00
      -1.2223583483888996e-01 -4.6747218456521397e-02
      6.8704094820987249e-01 1.7945446698381073e-01
      1.0844977295989158e+00 -2.3197669099568233e-01
      -2.6947172198437958e-01 4.4612530451186370e+00
      -1.3122337222918283e+00 -1.4310945691255939e-01
      -2.6392486889383299e-01 3.2538967512719419e-01
      8.9277791168148746e-01 -4.7060540844581364e+00
      -1.7734881819918616e-01 -3.3696295391218163e-02
      -1.0040640042978251e+00 6.1686377283354597e-02
      4.8888203369278349e+00 -5.6883207714683859e-01
      -2.5910922421231208e+00 -6.1757150716454912e-01
      1.2226939131580190e+00 3.5514073798343954e-01
      3.6578008739625179e+00 7.0613294603751722e-02
      -2.1383439358705897e-01 -2.8963626036516893e-01
      1.3280538095838739e+00 -1.0221098153151094e+00
      -1.1176507118889834e+00 -3.6828099800069369e-01
      -9.0859228978242035e-01 4.1884557802526778e+00
      -7.8828857262984275e-01 -7.7077976001024517e-01
      -1.4509217837678565e+00 3.0686384722380106e-01
      -6.6361539698707717e-01 5.8471493573881528e-01
      2.6972156068510578e-01 -4.4575667251981266e-01
      -1.4458251945133574e-01 3.2757992788872170e-01
      -6.3538242384195176e-01 6.6940248053976481e-01
      -1.6565738223124951e-01 2.3481502331452684e+00
      2.8783333400158190e-01 -4.8208256374256747e-01
      4.4421681586794515e-01 9.2959148287053550e-01
      -1.2427371783640500e+00 -2.8306298300235050e-01
      1.0142525622263403e+00 -3.5785943643456178e-02
      -2.0734457331682199e+00 2.9263204166859125e-01
      -1.1479169757253778e-01 1.8691516622462057e-01
      2.5104331366783428e-01 -1.6111529048517778e-01
      9.7907626804774617e-01 2.9517697302583096e-01
      -1.4771041547622150e+00 1.8836906432884797e+00
      -4.1159991342587361e-02 -2.6917164521661250e+00
      1.5989828941662159e+00 -3.6862217804902936e-01
      1.7380095566698037e+00 5.3880643039764964e-01
      5.7898660239930433e-01 7.2861558462202136e-01
      -1.8869335353092268e-01 4.2969313683232496e-01
      -1.2655681332881903e+00 -4.5842441267234602e-01
      1.8015376765286292e-01 -3.6289535316767624e-01
      2.1845008372017857e-01 -1.1100530812364826e+00
      1.0092892968477261e+00 -4.2703484871510398e-02
      -4.5697964900194704e-01 -3.7377926226076968e-01
      1.9713955952555115e-01 -3.9840400836552314e-01
      -6.4054706505065273e-01 1.0920077591193795e+00
      6.0706041479768891e-01 3.2924306181315904e-01
      9.7221383058694141e-02 5.7842126745616451e-01
      -1.2724787730830800e+00 4.6525555674802033e-01
      1.4940685486831344e+00 8.9101496886026268e-02
      -8.5079671843263605e-01 2.0689116424815876e-01
      -1.7306915989851257e-01 1.4387217225702451e+00
      2.1082119949335035e-01 4.4251898760861280e-01
      -7.2176564733230655e-02 2.9753332708398139e-02
      7.2486400423066433e-01 -1.2193608015653107e-01
      7.0730890425927673e-01 -3.4094365182101716e-01
      1.2679900688143710e-02 6.7740686821573093e-01
      -4.7873344786972749e-01 1.7504323712077025e-01
      5.2344591353922831e-01 1.7754467049890271e-01
      -2.2241276598969262e-01 8.9805289952498563e-02
      -1.7768885234518700e-01 -6.4354570350084495e-01
      -1.9441725547830863e-01 9.4148089173853339e-02
      -3.3243852497877652e-01 -1.9208315500679063e-01
      2.2967319208447773e-02 3.2152641716267272e-01
      -1.9542589536435387e-01 -5.0186630147802125e-01
      -9.2388834600084813e-01 -1.2197248501718837e-02
      1.3811362884188487e+00 1.0718261576145929e-01
      1.0097733427738907e-01 7.4105306856787012e-02
      -3.5825402645838972e-02 -1.5183380419687023e+00
      -2.0274563930029654e-01 1.3109850409506796e-01
      1.8232423572997020e-01 -4.8115398378929408e-01
      -2.0230172973289384e-01 -7.4127503552027474e-01
      -9.7401547364641405e-02 9.4827793987970754e-01
      -8.2509598212963486e-01 -5.5337401208536885e-01
      9.4443524769579079e-01 -8.4733293172061253e-01
      -1.7894664590295642e-01 -7.0325414390655649e-01
      -9.1453027245338325e-01 -1.0713572805902921e-01
      -5.4855655807805423e-02 3.2570373928256352e-01
      -7.2132479670294947e-01 3.5322322368470799e-01
      -5.0106056711893887e-01 2.4753571212545825e-01
      -6.1276885680063620e-01 6.1906009199367629e-01
      -7.6166099924406663e-02 -5.9125253913986797e-01
      4.0466773342244705e-01 1.8648446474296820e-01
      -2.4209435181197925e-01 1.2950663839745016e+00
      6.1922346968379327e-01 4.8324955701779887e-01
      2.6336600961869389e-01 -1.8718184089965053e+00
      2.7007122516487553e-01 1.1709858497859149e+00
      3.2069379035429824e-01 -2.3688242000195076e-01
      -1.7585231644076906e+00 1.0863757896111136e-01
      1.7944973260161375e-02 1.2065988484681010e-01
      -2.4577177899375746e-01 -9.8937430452309050e-01
      3.8039694249749734e-01 -1.6527389867796924e-01
      -3.2241552002605439e-01 6.8584455716003700e-01
      1.0183235462503314e-01 1.0995119213979271e-01
      -1.2706441917278008e-01 4.7324445409946014e-01
      -3.4299602217672803e-01 -4.0994745940966526e-01
      -5.7203547847814395e-02 -2.4036517229925114e-01
      3.3261542347130807e-01 1.0901406773477722e+00
      -5.2850011565244637e-01 1.8317050586190256e-01
      1.9141572994625303e-01 2.1236760383603190e-01
      6.2998683905011637e-03 3.8892762824321153e-01
      5.6369004220097418e-01 -1.4347027390643603e+00
      -9.8372323408855877e-02 -1.3390636735875261e-01
      -1.1690058872083815e+00 -3.7386282823767875e-01
      -4.2526142717125759e-01 -5.6808187172818492e-01
      -1.1260191519908442e-02 3.5924212742378436e-01
      5.7998530618771449e-01 -7.9668146916597127e-01
      3.9232615923799331e-04 1.4851976443192169e-01
      -1.2969746393111283e+00 4.1924684595333445e-01
      3.5073182940002878e-01 8.3415191200042205e-01
      7.3715399114361688e-02 -4.0427803051271693e-02
      -7.9722778332458111e-02 3.6740759122371201e-02
      1.8297979080780118e+00 4.1593027273697147e-01
      9.4655293810728229e-03 8.0601371314033332e-01
      1.4530308003978107e-01 9.0354127827791264e-01
      -1.2705915464099449e-01 2.5454735611480241e-02
      -4.9250468775740652e-01 9.9633424769700274e-02
      4.7430008242193117e-01 -6.9756532753640271e-02
      2.6747310152943371e-01 1.8568887909392257e-01
      -6.0989161357794919e-01 1.1746385775101640e+00
      1.1896085754422829e+00 2.6011396560690397e-01
      -2.9266725228289781e-01 6.7406742408465747e-01
      -9.0970401761613917e-01 -5.4579498150368522e-01
      3.9592783549957283e-01 4.5814246821008558e-01
      -2.0765941494551618e-01 1.0059702758867597e+00
      -1.1024481788741611e+00 -2.8050757375392997e-02
      -1.1037017820835633e-01 -2.8957596868097812e-01
      -1.1594407013168816e-01 -1.1981377440058795e-02
      3.9585455236339946e-02 4.1251455571895773e-01
      2.9480492802196462e-01 1.3777112287632512e-01
      3.5988770187751679e-01 -9.5551525715409091e-01
      -8.5178520758130771e-01 2.7123851618532907e-01
      -1.1547732918192224e-01 -2.1431936394370904e-01
      1.5469116748900250e-01 -4.8775409188100367e-02
      1.5655185413052689e-01 -9.5970808372802596e-01
      -4.2519428045611030e-01 5.5824019983695428e-01
      7.3328069039065857e-03 -2.3520589276701523e-01
      7.1825944590303226e-01 2.2453001891805330e-01
      5.3707560879373573e-01 -7.0982234410435510e-02
      2.5071449044079552e-01 -1.0978029142187574e-01
      -1.5161103480774193e-01 -4.4809712139573249e-01
      9.9593822876337616e-03 -6.9614341397680202e-01
      1.5680074135015898e-01 -1.9842224765910046e-01
      -7.6294208012521503e-01 -6.7677166055414495e-01
      -7.5834096023244468e-01 -5.0845087482388540e-01
      2.9160493562891110e-01 -2.9884430415415331e-01
      -1.5895172885412421e+00 1.9218308999909633e-01
      -1.9326627591076981e-01 -3.3196550070652886e-01
      -8.0697019430310590e-01 1.5443247605928551e-01
      7.0404241682520641e-01 3.0948018569540998e-02
      3.2564493026184299e-01 -2.5361744651449020e-01
      -8.4378754591323268e-01 -1.7412718192500881e-01
      8.7116896447981296e-01 1.4943020596894221e-01
      -6.2232873067200517e-02 -5.5284183271453202e-01
      -2.4000457907609504e-01 -1.7827274204662805e-01
      -1.1948056188862731e-01 4.7312108723681839e-01
      -5.5784973116619274e-01 8.7310286684337390e-01
      -2.4610541641243508e-01 2.5383940165581464e-01
      3.3456436932329005e-02 -1.8809270739726661e-01
      1.0943880407856168e+00 -4.8308378245202138e-01
      -8.3509946700489579e-01 6.2440855370668513e-01
      2.6129722165277686e-01 9.2929298820442985e-02
      4.3112347331244194e-01 -6.4776357269339547e-03
      1.4022690643165187e-01 -4.6852790791940535e-01
      2.4369321230799668e-01 -1.3753764848229108e-01
      3.9196365894650911e-03 5.1031950383852486e-03
      -3.3262104531726494e-01 -1.0982854780257831e-01
      5.6852310178413613e-02 3.0374119234194596e-01
      6.3541252725059394e-01 -5.8550551620870583e-01
      4.9269920999266786e-01 6.2659978851942288e-01
      -4.9731513612522166e-01 3.7354018368843545e-01
      1.2776738758146491e-01 1.2462976669399163e-02
      4.8847029823083982e-01 -6.3598948658753940e-01
      7.6546012560182800e-02 -3.1542448547524504e-01
      -3.6892711723519850e-01 4.8047870759409639e-01
      -5.7904758267987522e-01 1.1830799191452390e-01
      -2.7393477478729983e-01 -1.6534272111152673e-01
      4.5999793498436130e-02 1.6718597925042805e-01
      -7.4487833782877633e-01 -8.0693006052550453e-01
      2.9297670491298933e-01 -3.0398220823016558e-02
      -1.6374384400048814e-01 -3.3129331166017478e-01
      -4.3507202890944519e-01 -4.8716293074052869e-01
      -2.3471591281798079e-01 -2.0902907844503316e-01
      -7.1046446700340465e-02 -2.7437097248838860e-01
      -3.2874379820426403e-01 -1.6363296715294562e-01
      -7.9508930446756970e-02 3.1273792071580842e-01
      4.7382922324778864e-01 -2.1471433137680226e-01
      -1.4537681068174615e-01 4.5273573908204785e+00
      -5.4605586323780309e-01 -8.6953941627348363e-01
      8.1627721491487637e-01 1.3428890714525873e-01
      -4.0951480748538782e-01 3.3568077831431314e-01
      -2.8422360568219673e-01 2.6216706487521046e-01
      -2.0561419408926817e-02 2.1245725783297964e-01
      -9.0611272973218904e-01 8.1042941454876882e-01
      1.1085794518696424e-01 3.0184788972554348e+00
      -2.5166221398992761e-01 -1.3351675494309595e-01
      -2.7350816933592908e-02 1.4510070174105646e-01
      -6.6706003035236006e-01 -1.7769470855625476e-02
      1.3747204731394076e-02 -5.6467168529046019e-01
      1.0159500442194380e-01 -4.0227266236987275e-01
      -3.4825947215235709e-01 7.4834298691942205e-02
      3.4739470878603790e-01 1.1876931200705443e-03
      5.7557841407287536e-01 6.9154000778206886e-03
      8.6981065036097671e-01 -5.1131723026456899e-01
      2.4619584854984250e-01 -2.0796672791559905e+00
      -1.7282719878061684e-01 2.0134438680595324e-02
      -4.5091493141084271e-01 -1.5180234877675164e-01
      -2.2346564000371189e-01 4.7239001579943951e-01
      1.4949436327064627e-01 1.6457019285496421e+00
      -9.3929760486215330e-01 -7.8333494669000980e-01
      -4.8239043197830805e-01 -1.4537227927278018e+00
      -1.0434350326262720e+00 -1.1951426860187551e+00
      6.6301141034473776e-01 2.6659260269336021e-01
      4.9716629458600292e-01 -2.4789659510009041e-01
      2.4874637627072818e+00 1.6846216125172683e-03
      2.9484626822332088e-01 5.4610224379906647e-01
      4.7576767224046468e-01 -2.8818939173367508e-01
      1.1363627466210106e-01 -5.4776311088242668e-01
      4.3974408081980193e-01 -8.7790974771664909e-01
      4.3434916280738955e-01 4.2720996166024894e-01
      -1.0850761593208311e+00 2.0779570876337941e-01
      -5.2670105711686632e-01 9.7085214787826335e-01
      1.6435245665240225e-01 -4.3219844627235027e-01
      -2.1431416793870603e-01 3.5950255964312661e-01
      4.7711308839243953e-02 3.9734243997705720e-01
      7.0470501673675370e-02 -6.6049012856033784e-01
      4.1142109432232876e-01 1.0732586153804340e+00
      7.0062806655003224e-02 -3.5820255350761381e-02
      -2.6617935413556054e-01 -5.2467072138030146e-01
      5.9678532605443790e-01 4.0189116538516631e-02
      1.4008360097047379e-01 1.1994714608236717e-01
      3.0291299126412813e-01 -3.4519711543473447e-01
      2.2289997251985250e-01 -8.4674530229341016e-01
      5.5638518252729190e-02 -5.2861372323154387e-01
      -5.5547906372281108e-01 2.4513777391428354e-01
      -2.8980824487174844e-01 3.6425708694502967e-01
      2.1304452009111113e-01 4.9500957838559824e-02
      -5.2637893991397222e-01 6.6124143481991104e-01
      -2.4414472639085580e-01 -1.6889059485667726e+00
      3.2949251136388952e-01 2.2118873308259007e-01
      4.1517515284352724e-01 2.9466002241377371e-02
      -8.1884121330555254e-02 2.9656381736117698e-01
      -8.7504420713086373e-01 9.3090435453275555e-01
      -7.7852294645083420e-02 2.0584621648558662e-01
      -1.0298037723766648e-01 2.2026949481624847e-01
      -4.4688406114031048e-01 -5.5271920186568657e-01
      -7.3545116481862338e-01 -5.5428822942341149e-01
      1.3871149359818272e-01 -3.4198690243616220e-01
      -2.3159517096719376e-01 -6.6784326546120390e-02
      -1.9886375139939788e-01 3.1680872060552295e-01
      -7.1726169601990120e-01 6.6829514974731274e-01
      5.4272205038750498e-01 2.6531602342944899e-01
      -1.4321276729884147e-01 5.2923191058552865e-01
      1.1810004293453471e+00 -4.7704766456292030e-01
      -2.7982441323223545e-01 5.1865777742721997e-01
      2.8296250219909574e-01 4.0754710945914168e+00
      4.1292146055210449e-01 3.8473377036724971e-01
      2.4603664138336170e-01 4.3601560606338990e-01
      9.1373342719344419e-01 -5.5110313504545694e-01
      -1.7629126907214177e-01 -4.6642550662052495e-01
      -1.4805631542145372e+00 1.7356733313886855e-01
      -6.8295092695780180e-01 -1.9097491985523501e-01
      -1.6409572434273809e-01 1.2778534851749195e+00
      5.2685117837395123e-01 -7.3067294615083844e-01
      5.1353654025909123e-01 1.8276088751930636e-01
      -9.4028797536188202e-01 -4.3452460676329302e-01
      5.5467552742344849e-02 3.9243436689246763e-01
      -6.1410427563647041e-01 -6.8902874884851928e-01
      2.2038696208458664e-01 3.9964929352704259e-01
      8.4488926756157967e-01 4.5308462293543583e-01
      2.6379594820967389e+00 2.6976890583578089e-01
      -1.4616502054913216e+00 1.8649765521203457e-01
      3.9071521229463446e-01 -3.5387095590215396e+00
      -8.6107148779378218e-01 -5.5068343044805368e-01
      4.0792144068521785e-01 5.1873495637493695e-02
      -1.0870137983959534e-01 -6.1663663000465309e-02
      -6.1885348249396833e-03 3.7796628987696326e+00
      -1.6550223350823519e+00 6.7816248492646436e-01
      -1.4945992339688810e-01 -4.1635053297938174e-01
      4.4860792011701733e-01 -2.4973458673714890e+00
      6.6548292624128078e-02 4.6140001696620314e-01
      9.9254721250607680e-01 1.9131893153095277e-02
      1.8516011083370574e+00 -7.6571145109400451e-01
      -9.7883328922727308e-01 1.3639405276061924e+00
      8.5288159501673766e-01 1.1382031842025441e-02
      8.9938576186238040e-01 -7.3819117174128743e-02
      -3.2651181317399836e-01 -3.6782079997899253e-01
      -1.3781832626725627e+00 6.1268379501248971e-01
      -1.7109100329150947e-01 -1.1600290616149211e+00
      -4.0601841353943993e+00 -2.5695900812884487e-01
      6.1961488110921925e-01 6.7796174219576066e-01
      1.7431567361166373e-02 1.1722595183234137e+00
      2.0631909337100987e+00 3.0443422316682411e-01
      5.2607324557221025e-01 1.0891996789977934e-03
      1.3751457436600634e+00 -7.2091435264965609e-01
      4.7679823448221886e-01 6.4606561855996725e-02
      -1.7760301416833022e+00 -3.1262945286187077e-01
      -1.5138078711006866e+00 -1.0185388612748521e-01
      6.9664566634489133e-01 1.9848441952442939e+00
      8.5768863239216397e-01 3.0214713504985016e-02
      7.3689806672271552e-01 9.5332005462765035e-01
      1.9630386886427864e-01 2.3875234331149329e-02
      6.3313610762449490e-01 -5.4177115360931150e-01
      -1.6421287302037577e-01 -1.2612453438977913e+00
      -5.9326125651561812e-02 -2.0566559577768745e-01
      -2.1043057266185521e+00 7.6522021664621453e-01
      9.2030942589346032e-01 -2.2114036248723892e+00
      -2.7571505797596352e-01 2.0546636942895971e-01
      6.3474857497443526e-01 -8.8085135937518788e-01
      7.8001576164675146e-01 -3.6996466777192532e+00
      3.3148176559535297e-01 -2.7750382736699292e-01
      9.0712674868662829e-02 3.1869189310284890e-01
      5.9123013114901324e-01 1.6996363702272213e-01
      1.9961808761910749e-01 -9.2728854546521244e-01
      -9.5161818314886892e-01 8.4959414376532894e-01
      3.6422170795218939e-01 2.6002750356615739e-01
      -2.7596992618049554e-01 1.7678562877539600e-01
      -5.9129668388865475e-01 3.6467943019286325e-01
      -2.5217235132019531e+00 4.5704098135167298e-01
      -1.0374079299705474e+00 3.6154953783562471e-01
      -9.2595897451186696e-02 3.4646770587160897e-01
      1.6066096231914617e-01 4.8054533535064264e-01
      1.6958523551422522e+00 2.4472754863482848e-01
      -7.8683415769730404e-04 -1.1217434534065462e-01
      6.4088345568075145e-01 -1.7836340260319683e-01
      -1.8771157666059848e-01 1.5565104204050420e-01
      -2.7400325997909575e-01 3.4202426217979753e-02
      9.9103660068779409e-02 -6.3577779966594528e-02
      -1.9612455190630290e-01 -2.0336737739386429e-01
      -7.9954026654678290e-01 5.4327032800975705e-01
      -3.5011557951700151e-01 -3.1563347643827995e+00
      -2.0725787937411141e-02 4.4995158149924518e-02
      7.5791068420066998e-01 4.5122278233708696e-01
      1.9218799818289548e-01 2.4847069921272763e-01
      2.9705156309264991e-01 2.5238203511229756e-01
      -8.7575362335861780e-03 2.5629136156966237e-01
      2.8481552893010315e-01 -4.5614080133552587e-01
      2.0254635918058853e-01 -8.1029116827202249e-02
      2.7756470540422462e-01 1.5572173899020925e-01
      4.5278403776612924e-01 -7.7384854513736478e-01
      -1.7083172074405309e-01 7.9312253568103386e-01
      2.1055986251256978e-01 2.2974344535639291e-01
      3.4835843183037662e-01 1.5232367681909492e-01
      -2.1113953450418441e-01 -3.4788165195036985e-01
      9.5577460826826027e-02 4.5335068134430001e-01
      -2.7707075610722642e-01 -1.4367668924302077e-01
      2.1757307923460975e-01 6.2884735709962170e-02
      1.3312266269630038e+00 4.4969123066687811e-01
      -1.3522042973643891e+00 -2.9158408861528751e-01
      6.7209485586034445e-01 -4.5611054912528809e-01
      7.1722105197803521e-01 9.0116261804775416e-02
      -3.4974021570022940e-01 3.8019993350938669e-01
      -1.2692030004123842e+00 -7.5453072792743925e-01
      2.3680970873351650e+00 -3.5759221444860129e-02
      1.3515776692627675e+00 4.0235466161630834e-01
      -1.6018869983299949e-01 1.0046998544730577e-01
      -1.0741718631902091e+00 -1.0056288982858534e+00
      -6.7782873661473578e-02 -1.2761331613941758e+00
      4.1269162953143246e-01 -1.3795075796131959e-01
      1.2032024132183478e-01 1.8474332966045834e-01
      -5.8600468143284123e-01 -3.4010446064196459e-01
      -2.7645885345683341e-01 5.3855683614467006e-02
      -4.9658703000774523e-01 -1.6857883720858877e-01
      8.7676083202460087e-01 -7.8010871526127978e-01
      -4.5738453618503588e-01 -1.2133590512488662e-02
      -5.1529114701341761e-01 2.7270837786709595e-01
      -1.8867663156591166e-01 6.6884418484754415e-01
      -4.0679933989270396e-02 -8.1247034883204561e-01
      -2.4053297549306837e-01 4.6020825986893255e-01
      1.0948357369119040e-01 -1.8351111899752820e-01
      -2.2632377477430018e-01 3.4814255934874744e-01
      1.9615487657690364e-01 1.2334829864778666e-03
      1.3072186480174353e-01 -4.0398474160560860e-01
      -8.2891885660903275e-01 3.9320957285646227e-03
      6.7482490670147999e-01 1.1557294275177357e+00
      -6.1506494175289494e-01 4.6764955245932105e-01
      -3.0992975503431064e-01 -9.0177359777216293e-01
      5.7562889968728853e-02 1.4921312161255446e-01
      2.4238315358501847e-01 2.7287876108478021e-01
      -1.2080941539731775e-01 3.0296258811618553e-02
      1.5321318759147259e-01 2.5651989531113578e-01
      9.2172419249812865e-01 1.7133259180881661e+00
      8.8882586823539986e-02 2.8992546359737503e-01
      1.6109617740898483e-01 3.1138347272228067e-01
      2.1010964331472784e-01 -5.8337530699468465e-01
      -2.3158189506772600e-01 3.9227992383002730e-01
      -3.7989078621359285e-01 1.0451217924431777e+00
      -2.4301330259690626e+00 8.5870325493236628e-04
      -1.2749581557185834e+00 5.7760907173986731e-01
      -1.0330916575034037e+00 1.9954550800076279e-01
      -1.1044399942130818e-01 8.9776497598882732e-01
      -2.0261821238497765e-01 -1.6363153681234397e+00
      1.2332584605322963e+00 -4.6009674366857217e-01
      2.5697037142752549e-01 4.3129582293829427e-01
      1.3050279469574342e+00 1.3435889893253114e-01
      -3.3191484886013450e-01 6.2050097319035144e-02
      -7.8363303730619316e-01 8.3788052295974647e-01
      -9.6063519284122012e-01 -3.5140009883059059e-01
      -3.6373409408804891e-01 9.6013563920086628e-02
      -5.8537464435146669e-01 -4.0763532064111596e-01
      2.3057128348828360e-01 9.8246146776075738e-01
      -1.8102531482012502e-01 2.5371979563309494e-01
      3.4258101837936655e-01 3.0794717588271409e-01
      -2.9173332478826830e-01 -5.7695682506042789e-01
      1.0777187112836654e-01 -9.1931335330372344e-02
      3.9185425157632503e-01 6.7725753037896741e-02
      -2.7016117927942836e-02 1.8366320184262516e-01
      -2.1386839874494448e-01 3.2745904782297430e-01
      -1.3970786844437998e-02 3.3864171782307501e-01
      2.4668796369600643e-01 -3.4109169752685253e-01
      1.2930460657007345e+00 2.4193267991492948e-01
      -6.2474003363104283e-02 -5.3371591427426833e-02
      -3.5614261649044399e-01 -6.9638881267717478e-01
      -2.9140932180152262e-01 5.9144950737105495e-01
      4.5426027146527770e-02 -2.8810838281084783e-01
      3.0214469138506739e-01 2.7046240180244147e-01
      1.8596567320348530e-02 -6.3175252079021427e-01
      5.9424364157143517e-01 2.9882889986105798e-01
      -2.3499720291249576e-01 2.3682023214987544e-01
      -8.6987774279625851e-01 -1.3150033117686342e+00
      3.3982768592513597e-02 -6.3424089713574450e-01
      4.3637909246922163e-01 4.8323492320254718e-01
      -1.4718453100701525e+00 1.4887582618980535e-01
      4.4772444269282718e-01 -4.2551209360047204e-01
      9.0262100750865737e-01 1.6218624309232286e+00
      -6.9652664492961736e-01 9.2430584644849600e-01
      -1.1800997966384028e+00 1.3279945399438600e-01
      -3.9098812847234266e-01 1.3597210866031868e+00
      1.2335718347752611e+00 -1.6823858486729726e-01
      2.0743993252072715e-01 -4.3096059453604174e-02
      3.5002132398123093e-01 6.0653815738742622e-01
      -5.7629739675734870e-01 1.2979489231114738e-01
      5.0572145983198855e-02 -1.1494560361530992e+00
      -1.0807686136565925e-01 -2.8283077953468311e-01
      3.1591791713663875e-01 -2.0428687464952835e-01
      6.8840601123464251e-01 1.9354276029597739e-01
      -1.1262495990458161e+00 -4.8212935181086136e-01
      -4.2852621644745847e-01 -3.3678390807164388e-01
      1.1796290391754156e-01 -2.4432231779479199e-01
      6.9088883111067467e-01 2.2792321566431059e-01
      8.0619620078929866e-01 -3.1057504427354099e-01
      -4.8863963494325985e-01 -1.1479763272190229e+00
      -1.3130085037302963e-01 -3.6020120020767332e-01
      1.4481057808903411e-01 -1.9195355095440045e-01
      -4.5054077899852168e-01 1.3819090269701725e-01
      4.1959941859027355e-01 -1.6140943892794551e-01
      -6.6993811595516972e-01 -4.2728806737514874e-01
      6.0625309410285620e-02 3.4673510883540481e-01
      -7.0686325592318883e-02 -7.9993278787618050e-01
      5.7669086292356087e-01 5.4217658316165795e-01
      -7.3732734097622077e-01 -7.7824768294061419e-01
      9.4920996446980752e-02 1.2947180517220166e-01
      -2.0160625851453298e-01 3.5675723779272145e-01
      1.2172830243488451e-01 -6.5392588447840727e-01
      9.1938683607562854e-02 -9.8176175621195094e-01
      6.0854974420399943e-01 -2.8175758933677253e-01
      7.4200278297463826e-02 1.3474888575137128e-01
      -2.8560389281455384e-01 6.5037428440872358e-01
      -1.0299982048588154e+00 4.3034806038271894e-01
      1.6087380470716944e-01 1.3800287873003894e+00
      -6.6501962076414090e-01 3.4515818423624206e-01
      -4.2568169527247773e-01 5.2350620309150586e-01
      1.5988022473997335e-01 -2.6834189099009398e-01
      -8.8748001227646270e-02 -6.3166574783203921e-02
      1.9180817203468289e-01 -6.7032012417591691e-01
      3.4593748407025504e-01 -1.1147162715481515e-01
      -9.7004292251295643e-01 -2.1425577880084173e-01
      -5.8666599632537819e-01 3.1819482277378169e-01
      4.1572809811201117e-01 2.6381782931795694e-01
      4.0946751970839995e-01 5.9090208447670822e-01
      1.7970184609904238e-02 -1.1659998734374415e-01
      2.9310949948514170e-01 -5.1049697597577381e-01
      4.2438173314806849e-01 -6.7647955437556709e-02
      1.8683146583906127e-01 -2.4970755579890511e-02
      3.3880672838739057e-01 1.4550721993848259e-01
      -8.0538419350561441e-02 -3.1425730273158647e-01
      9.9515732447230443e-02 -9.2577282309178066e-01
      -5.2710574492655837e-01 1.0753551298857468e-01
      1.3144189435261147e-01 2.0607939706178049e-01
      -4.7630428148150278e-01 4.2906462089575610e-02
      3.5009386129475484e-01 7.7723939455176194e-02
      -5.8765888633112398e-02 -7.9518565716282089e-02
      1.2023981306341731e-01 -9.5881600219235175e-01
      1.1983090341587024e+00 -2.4149547635706017e+00
      1.4071554548842951e+00 3.7464458910931270e-01
      -5.7452479526603339e-01 -1.3115667101896517e-01
      1.4296553835937522e+00 1.6269039842122964e-02
      2.0837245922488417e+00 -4.0564176626865850e-01
      6.6193298488958519e-01 4.4470431354477966e-02
      9.1299026621297230e-01 4.4314114744461473e-02
      -5.1509332319702783e-01 -6.8658691545959472e-01
      3.3308021487138162e-01 7.2396972653637071e-01
      -4.6527252784331313e-01 3.8220701461011991e-01
      -3.0870941510660099e+00 5.2663369413631733e-01
      4.5290119984835314e-01 -2.4776978553682372e-01
      5.6328674154751956e-02 1.1616868461916598e+00
      2.6690846986715040e+00 -4.3618394936435728e-01
      1.5207014393868051e-01 1.1764590578854213e-01
      8.8034645736221873e-01 4.9223198271609103e-01
      -3.4087425694697776e-01 -4.2140863577486160e-01
      -1.3220539989681608e+00 -1.7681348101883236e+00
      -3.5930732449173775e-01 -5.3434105618569661e-01
      2.1314838869658803e-01 1.6111314000642782e+00
      4.6018731503009647e-01 2.8990371742549709e-01
      -2.6436757878047223e-01 3.9706871399687860e-01
      6.9188564957762780e-02 6.2600908435696156e-01
      9.6901171841528799e-01 3.3893104336989201e-02
      2.4824119041554077e-01 -5.2400506059412832e-01
      -5.5674858430437102e-01 5.8788653821786920e-02
      -1.9278409097323712e+00 9.9746804670150824e-01
      9.7168432384472780e-01 -2.4457827417540843e+00
      4.1383095610162129e-01 -1.1323782940462081e-01
      7.8807814539817300e-01 -1.5060639786836963e-01
      2.4707882958522675e-02 -3.0169905001368318e+00
      6.9551640458266284e-01 -8.2054353463443697e-01
      -5.8469201283526673e-01 4.6717368117850844e-01
      -1.9200180766867128e-01 3.8485701600841560e-01
      -5.6873055559919472e-01 7.1566417975604979e-02
      2.9072123166196760e-02 1.1609705745490486e+00
      6.8553025267334089e-01 3.1151989706590812e-02
      2.7266647245709574e-01 1.5553837764394904e-01
      -6.3509150542528925e-01 7.1227159855029332e-01
      -1.7422996360153373e+00 -3.3225408168526489e-02
      5.7460526650529108e-02 -4.2040723779576722e-01
      8.7165162493723947e-01 1.8144504511533377e-01
      6.1906445726475989e-01 1.2077052026989177e+00
      6.3036745913970949e-01 -1.4205079368303741e+00
      1.4514499851968752e+00 -1.0093123415315605e-01
      3.3290965886649332e-01 4.5560301052416263e-01
      -5.5108077902732677e-01 3.1298905627954737e-01
      1.4888989764411968e+00 -1.6887014273046483e-01
      6.8434365648864603e-01 2.1108397483975294e-01
      -1.0452485385991321e-02 -2.4832163374887883e-01
      5.5383844993828191e-01 6.6671091275598826e-01
      1.3128455666232339e-01 1.6212237102918330e+00
      -3.4893503028179862e-01 8.1987524989907590e-01
      6.6753361121748941e-02 -8.0429772980143122e-01
      8.9401274412342324e-01 -2.8760945992101933e-01
      1.7524829108604115e-01 -5.6722790198898709e-01
      7.6788639968219843e-02 -1.0748654973754956e+00
      -7.5221766488586195e-01 -7.2415415805344630e-01
      -7.9235718179500036e-01 -4.5102798067120980e-01
      -1.5744383865043637e-01 -1.9319294777132137e-01
      4.4721227267567087e-01 -7.3645853372042702e-01
      -8.7206634651577219e-01 -5.8552200339362237e-01
      -1.2411754628077240e-02 -7.8944582075238556e-01
      -1.4423583886394187e+00 -4.7106688806625963e-01
      5.2740556152504135e-02 4.8191081716333756e-01
      1.1023451496845051e+00 2.0409945231353194e-01
      6.4416474315386185e-01 -2.1748153856134159e-01
      -5.9187058750568532e-02 1.6973062968525568e-01
      -6.1209113300446882e-01 -6.7999410793557657e-01
      6.0216157478693733e-01 7.4563176080701066e-01
      -1.3776083702796380e-01 5.8894988540087090e-01
      -5.7751456911353005e-01 -1.2952461429120636e+00
      -1.5789222092322208e-01 -3.9244731862362248e-01
      4.5751071767954199e-01 4.0801637054160617e-01
      1.0607137446720962e+00 -5.1790597874331390e-01
      -3.3276219301918730e-01 2.3543442097557993e-01
      1.0233182600385595e+00 1.6924856769612724e+00
      8.7156682191666734e-01 -1.1201677421630882e+00
      3.9222797320836816e-01 1.9668580560712627e-02
      5.6169510540914314e-01 8.9867195013418133e-01
      5.9844298554175356e-02 5.0876465212866862e-01
      1.0401122701013332e+00 -6.5208714024150571e-02
      -6.3846910120209863e-02 -7.4206070384227607e-02
      -9.9207474170962251e-01 -9.6925939966197727e-01
      3.8475330445321870e-01 3.6134116657727249e-02
      4.5852320610754158e-02 2.4606524118496025e+00
      5.0899605359137445e-01 8.0090810738059337e-01
      -3.6924294662708224e-01 -4.9006145409725937e-01
      -2.6307767332889492e-01 8.4294046786770882e-02
      1.5816909454944736e-01 -4.3947600116780255e-01
      2.3499544376401868e-01 -8.0161365320663525e-01
      -2.6656432939960295e-01 6.0756634896512847e-02
      1.3033399795329631e-01 3.3776523663213390e-02
      7.4998816043115468e-01 2.3331906689553478e-01
      -5.0687842123287186e-01 -1.6314107765707340e+00
      -1.0793190730486026e+00 2.0537105066170749e-01
      9.7776682210032301e-02 -3.6632391379932061e-01
      -2.9293562593064842e-01 2.5139756337588487e-01
      2.3421215128819253e-01 -5.4506983231713302e-01
      -1.9104431427556146e-01 3.3324175465684230e-01
      1.7928512561081664e-01 1.5549479563263216e-01
      9.6332765604840487e-01 -8.6371488351273962e-01
      1.7250859789641375e+00 -7.4041217481426114e-01
      6.3920827767371113e-01 -1.6278645124371785e-01
      -3.6109880116265924e-01 3.7939367816205528e-02
      7.5257632823453019e-02 -8.0291676086972330e-01
      5.4024913897123961e-01 -4.1090746240983807e-02
      1.6317566041328428e+00 -5.3994038817333036e-02
      7.3273429033856297e-01 -7.3424495314787297e-01
      -8.3563450268683975e-03 -4.6178787656586717e-01
      4.4329967058873529e-02 9.8423855712425612e-01
      5.3536345903854032e-02 9.5055676552315460e-01
      9.4817697638475595e-01 -7.3368591668384731e-01
      5.5721576108346260e-01 -2.2948772138680182e-01
      8.2235879714790994e-01 8.8693645447910852e-01
      1.5322496744905081e+00 5.6530814133490381e-01
      1.7513994841840064e-01 1.4344620429127450e-01
      -5.5385654978411425e-01 -2.7393080732531666e-01
      -1.4293455939283872e+00 -3.1368883980868423e-01
      -9.6363472705875020e-01 7.0403647353194732e-01
      -1.4749730208190867e-01 -2.2891824110497172e-01
      9.3913643252165641e-02 4.5895301096826652e-01
      9.9651459582269786e-01 2.3300342653674727e-02
      -1.4202884891830828e-01 2.6439911525394133e-01
      -1.8821211209104025e-01 -9.6626904080558418e-01
      1.5951663477992378e-01 2.7477290644114405e-01
      8.1646146812674369e-01 5.4810604310990468e-02
      -3.0825257679878712e-03 -3.8345670623989379e-02
      4.9291456414439189e-01 -6.5500916315499158e-01
      -2.6321464833645419e-01 5.7932229205950847e-01
      -5.5991118221351532e-01 1.5982274749587402e-01
      4.7364201799276595e-01 -1.7093204434572354e-01
      1.5065568717475200e-01 3.8961558777897037e-01
      -2.3316789946756530e-01 7.0142798727978158e-03
      4.7721786708467074e-03 7.3816984998629975e-01
      -3.2012902124126985e-01 -8.0360809951941073e-02
      6.2772304959634184e-01 -3.1906488810624428e-01
      -1.0504203020692362e+00 -2.0197066618154427e-01
      5.0908697677354453e-01 -1.6093726846151538e-01
      4.9559541570277127e-01 -3.2056361298530256e-01
      -1.4929917830186441e+00 -6.2371866882340421e-01
      1.2473066121621143e-01 -5.8096789843807173e-01
      1.0302608155517174e+00 9.9958628842365127e-01
      -9.5754120449597813e-01 3.6108569225343029e-01
      -4.7716109376326282e-01 -4.4259825652303120e-01
      6.7196451013004743e-01 -2.0704884353739952e-01
      3.1839815672931021e-01 4.8524969476949974e-02
      -4.9154546253539499e-01 -1.6754576981397840e-01
      -9.4746900412182433e-01 7.3422704935987060e-01
      -2.7123243962802868e-01 -6.5126496064956477e-02
      5.3756318419299828e-02 4.8226209764573709e-02
      -3.0848840672624878e-01 3.6820241285597077e-01
      1.8323659367986395e-01 -3.9374017388418975e-01
      2.6787435617933358e-01 2.9274227788556328e+00
      1.9072382434492596e-01 -1.4876865984994231e-01
      -1.9905675466969047e-01 -5.5462677744026501e-01
      -8.0429520145857181e-01 4.5826694845375965e-01
      5.4792869784084921e-03 1.3573242550147560e-01
      1.3392765203696372e-01 -7.9284258572506885e-02
      -2.5034601499604947e-01 4.9500158303355257e-01
      4.2410698800343460e-01 1.3434050695465310e-01
      8.0071669388043520e-01 -4.2019719800878375e-01
      -9.1147069451102980e-01 -9.7737677139885315e-01
      -3.0119626673042577e-01 -1.0982475055645202e-01
      -3.7101424602962801e-01 -1.0722098297092325e-01
      -3.9632598763728183e-01 -1.3943291082943196e-01
      -9.1198297651193652e-02 -4.4075863277518873e-01
      4.3791565473127993e-02 6.0463603174631109e-01
      7.2462933024169160e-02 2.2800273893848388e-01
      -9.7570580599577642e-02 -1.7080162816836300e-01
      -2.9293565341416072e-01 -6.6554081227104642e-02
      -5.3184523445967642e-02 1.7487401048118811e-01
      -3.1604934530313161e-01 -3.3584167941615928e-01
      2.4254484803109794e-01 9.6083847089256921e-02
      7.4520913347258066e-01 -4.0254639929244418e-01
      -1.3018894008600046e-01 2.1129605225678702e-01
      -9.5980142237277211e-01 1.4406646083600985e-01
      -1.1097127532058129e+00 -3.3807556654307173e-02
      7.8557470020017139e-01 2.2813665370553604e-01
      -1.6219942283903872e+00 -1.3362175733873519e-01
      -8.4266627230833302e-01 2.6294147305015053e-01
      2.3503865694644971e-01 1.0538521472279820e-01
      -6.5811058023914337e-01 1.3421839863904153e-01
      7.2141457737063186e-01 -4.4984913350883410e-01
      1.2840708326593836e-01 1.3701906745427478e-01
      6.6128605375740546e-01 4.9668617666536347e-01
      -4.2634918564228887e-02 1.9510707765620514e-01
      4.1047120782493329e-01 -8.5801374089244209e-01
      -2.4695249009371387e-01 2.0178248400930721e-01
      6.0080483323781042e-01 -5.2317199583594276e-01
      1.0318095026626726e-02 4.5334438090029255e-01
      3.2201336363323069e-01 1.1451070565265447e+00
      -2.0579646698705070e-02 1.9707820070438772e-01
      4.5334914475437423e-02 1.9638054695373028e-01
      -2.7236742808401265e-01 -9.8226925025511791e-01
      4.8654845358753113e-01 -2.9108081439881368e-02
      5.3325947675528085e-01 5.0101843936702140e-01
      1.4880100167794978e+00 -5.8531734235848065e-01
      -2.8540203820731452e-01 4.4424593298376103e-01
      2.0672107030095116e-01 -3.7274662210659276e-01
      -5.3673625156579186e-01 -8.1716743212132026e-01
      4.7607473924558136e-01 3.1255182218779470e-01
      1.6799457570073789e-01 -3.5793517158126265e-01
      3.0929503036474060e-01 2.3994342069222896e-01
      -1.3788352086678282e-01 7.3915198253825198e-01
      7.3688687890880811e-01 7.1345488578235361e-01
      4.3244521006294548e-03 3.6767303363727333e-01
      2.1113964632323926e-01 -3.0947959542427267e-01
      -9.1921051167954049e-01 1.0059577069379075e+00
      -9.3547535667489345e-01 7.1468622539539961e-01
      -8.9609504800571360e-01 -2.0353924655057845e-01
      2.3737763034956916e-01 8.2132610183066987e-02
      5.2593769199533613e-01 3.4366347237958256e-01
      9.6359671312919071e-01 -9.1109389596693124e-01
      -6.9737176775967835e-01 -8.7284498465953730e-01
      -3.3086243874358684e-01 2.4004476842824138e-01
      5.0985768176989765e-01 1.3287640872529769e+00
      8.1236900803551926e-01 2.3267153448988601e-01
      -1.5570712647687249e-01 -1.2606883140470981e-01
      -9.2675317300968718e-01 4.0547928496848412e-01
      5.0910618843839250e-01 2.6909232898489116e-01
      -1.5453458693300428e+00 -1.2688462647128547e+00
      5.7954561393926451e-01 4.5495505150868404e-01
      6.4955619259996378e-01 1.6062072159606937e+00
      6.2128221734496902e-01 -9.5516825768001368e-01
      -5.3358651078629293e-01 5.0192598719256176e-01
      -4.2973367423681319e-01 2.4212952426162693e-01
      -3.6400630255104199e-01 4.4106090835167359e-02
      6.2075864712424755e-01 1.0669655526000117e+00
      8.5143748319147916e-01 2.2015580532615441e-02
      2.7901302778097803e-01 8.6802941333711037e-01
      -3.7378285255751481e-01 2.4301925667611896e-01
      5.3570993789805321e-01 -8.4826618952764843e-01
      1.8399662479996308e+00 5.6589510089390183e-01
      2.4977608825630532e-01 5.9601066600416874e-01
      -1.0848867187491096e+00 -4.8660220849196228e-01
      -1.4709117141769845e-01 3.4403064292094399e-01
      -2.3110945234903038e-01 1.2496858733378438e-01
      1.0993813553181182e+00 -6.4909628050670287e-01
      2.7440042421906014e-01 -1.5339468982319502e+00
      1.2255050834227215e+00 -1.1532818060980132e-01
      5.0299586231377524e-01 -7.4178386455006662e-01
      -5.9969643469907041e-01 -8.2050853210203750e-02
      -8.1671097308505178e-03 -6.1446870040368551e-01
      7.7767689446057042e-01 7.1186274044003761e-01
      -1.1052007477471761e+00 8.3386410272235700e-01
      -6.6767903268435000e-02 1.1085039350894759e+00
      1.0306496358359432e+00 9.5047799903470953e-01
      -4.5804622950195739e-01 1.9266655086668949e+00
      -1.2233008376068764e+00 -1.6623568532687699e-01
